{"learner":{"attributes":{"best_iteration":"12","best_score":"0.6887684412070522","scikit_learn":"{\"_estimator_type\": \"classifier\"}"},"feature_names":[],"feature_types":[],"gradient_booster":{"model":{"cats":{"enc":[],"feature_segments":[],"sorted_idx":[]},"gbtree_model_param":{"num_parallel_tree":"1","num_trees":"23"},"iteration_indptr":[0,1,2,3,4,5,6,7,8,9,10,11,12,13,14,15,16,17,18,19,20,21,22,23],"tree_info":[0,0,0,0,0,0,0,0,0,0,0,0,0,0,0,0,0,0,0,0,0,0,0],"trees":[{"base_weights":[1.2411808E-3,2.6872E-1,-1.0136635E-1,-5.0965462E-2,6.413216E-1,-1.9832987E-1,4.4580618E-1,7.4889705E-2,-1.8704595E-1,8.888297E-1,-3.8662102E-2,-8.498875E-1,-1.243944E-1,-2.9328358E-1,1.071628E0,3.6024436E-1,-5.580375E-1,-2.549818E-1,1.0395684E0,-8.934867E-1,8.87864E-1,-1.3252636E0,8.827797E-2,-3.555046E-2,-6.35358E-1,8.565107E-1,-6.3581115E-1,6.1254326E-2,1.336171E0,-2.707658E-1,9.868744E-1,-9.3492365E-1,1.4368765E-1,-5.5317134E-2,5.440203E-2,3.806576E-1,1.3662392E0,-7.010364E-2,6.240126E-3,-1.8072214E-2,7.617031E-2,9.946688E-3,-1.4902985E0,-8.559411E-1,9.1452354E-1,-6.54482E-1,7.899294E-2,-8.860103E-1,8.565107E-1,-1.2280981E-2,6.7797385E-2,-8.0633625E-2,-1.332976E-1,6.528564E-2,-5.5317134E-2,1.4868761E0,-1.2280981E-2,-6.409647E-2,1.4305192E-2,-2.8617347E-2,6.876176E-2,-2.1178177E-2,-8.754769E-2,3.8194302E-2,-4.6093863E-2,7.181631E-2,-8.090928E-3,7.618743E-2,1.2789495E-2,-8.456047E-2,9.946688E-3,9.946688E-3,-6.808692E-2,-1.2280981E-2,6.9950365E-2,-1.3100232E-2,-7.157048E-2,-3.4175396E-2,8.489548E-3,3.1942498E-2,-5.2589905E-2,-1.2280981E-2,6.7797385E-2,3.9583676E-2,-3.2857623E-2,8.241161E-2,1.5270926E-2],"categories":[],"categories_nodes":[],"categories_segments":[],"categories_sizes":[],"default_left":[0,0,0,0,0,0,0,0,0,0,0,0,0,0,0,0,0,0,0,0,0,0,0,0,0,0,0,0,0,0,0,0,0,0,0,0,0,0,0,0,0,0,0,0,0,0,0,0,0,0,0,0,0,0,0,0,0,0,0,0,0,0,0,0,0,0,0,0,0,0,0,0,0,0,0,0,0,0,0,0,0,0,0,0,0,0,0],"id":0,"left_children":[1,3,5,7,9,11,13,-1,15,17,19,21,23,25,27,29,31,33,35,37,39,41,43,45,47,49,51,53,55,57,59,61,63,-1,-1,65,67,-1,-1,-1,-1,-1,69,71,73,75,77,79,81,-1,-1,-1,83,-1,-1,85,-1,-1,-1,-1,-1,-1,-1,-1,-1,-1,-1,-1,-1,-1,-1,-1,-1,-1,-1,-1,-1,-1,-1,-1,-1,-1,-1,-1,-1,-1,-1],"loss_changes":[9.251676E0,1.1165106E1,1.30150795E1,1.1076727E1,7.3102665E0,9.897871E0,1.742087E1,0E0,9.942743E0,5.7369595E0,1.0689493E1,9.478667E0,8.496777E0,7.532262E0,5.328453E0,8.172096E0,7.8007154E0,6.3472657E0,5.558069E0,3.7988257E0,5.7096224E0,3.8166714E0,7.0216236E0,1.1460714E1,1.1131309E1,2.8091989E0,6.777291E0,9.070227E0,4.1777706E0,6.417521E0,6.9914274E0,7.183466E0,7.970772E0,0E0,0E0,6.386218E0,2.844654E0,0E0,0E0,0E0,0E0,0E0,4.661833E0,2.5377307E0,3.0125287E0,7.3210955E0,9.579597E0,6.7998276E0,2.8091989E0,0E0,0E0,0E0,5.6060014E0,0E0,0E0,2.3073158E0,0E0,0E0,0E0,0E0,0E0,0E0,0E0,0E0,0E0,0E0,0E0,0E0,0E0,0E0,0E0,0E0,0E0,0E0,0E0,0E0,0E0,0E0,0E0,0E0,0E0,0E0,0E0,0E0,0E0,0E0,0E0],"parents":[2147483647,0,0,1,1,2,2,3,3,4,4,5,5,6,6,8,8,9,9,10,10,11,11,12,12,13,13,14,14,15,15,16,16,17,17,18,18,19,19,20,20,21,21,22,22,23,23,24,24,25,25,26,26,27,27,28,28,29,29,30,30,31,31,32,32,35,35,36,36,42,42,43,43,44,44,45,45,46,46,47,47,48,48,52,52,55,55],"right_children":[2,4,6,8,10,12,14,-1,16,18,20,22,24,26,28,30,32,34,36,38,40,42,44,46,48,50,52,54,56,58,60,62,64,-1,-1,66,68,-1,-1,-1,-1,-1,70,72,74,76,78,80,82,-1,-1,-1,84,-1,-1,86,-1,-1,-1,-1,-1,-1,-1,-1,-1,-1,-1,-1,-1,-1,-1,-1,-1,-1,-1,-1,-1,-1,-1,-1,-1,-1,-1,-1,-1,-1,-1],"split_conditions":[3.796608E-1,2.1391122E-1,9.22963E-1,1.4799777E-2,6.383841E-1,2.951059E-1,7.36041E-2,7.4889705E-2,4.2777732E-1,1.98508E-1,7.703462E-1,7.924686E-2,7.833753E-1,4.5699462E-2,5.3514596E-2,3.829965E-1,4.9647796E-1,4.9838164E-1,2.516085E-1,6.2459743E-1,4.0855855E-1,6.696493E-2,1.3100454E-1,1.0369302E-1,9.329728E-1,1.0879961E-1,4.1578874E-2,1.5516745E-1,2.018765E-1,1.3584283E-1,3.0879995E-1,4.7835803E-1,5.959418E-1,-5.5317134E-2,5.440203E-2,1.1543946E-1,1.6021301E-1,-7.010364E-2,6.240126E-3,-1.8072214E-2,7.617031E-2,9.946688E-3,1.403363E-1,2.6540557E-1,2.3137768E-1,8.1055E-2,3.3492595E-1,4.0410154E-2,6.2022024E-1,-1.2280981E-2,6.7797385E-2,-8.0633625E-2,5.862829E-2,6.528564E-2,-5.5317134E-2,9.905169E-1,-1.2280981E-2,-6.409647E-2,1.4305192E-2,-2.8617347E-2,6.876176E-2,-2.1178177E-2,-8.754769E-2,3.8194302E-2,-4.6093863E-2,7.181631E-2,-8.090928E-3,7.618743E-2,1.2789495E-2,-8.456047E-2,9.946688E-3,9.946688E-3,-6.808692E-2,-1.2280981E-2,6.9950365E-2,-1.3100232E-2,-7.157048E-2,-3.4175396E-2,8.489548E-3,3.1942498E-2,-5.2589905E-2,-1.2280981E-2,6.7797385E-2,3.9583676E-2,-3.2857623E-2,8.241161E-2,1.5270926E-2],"split_indices":[122,88,60,95,41,5,17,0,9,46,67,129,91,69,12,61,97,53,75,7,47,50,50,37,16,128,43,0,128,99,32,71,44,0,0,76,90,0,0,0,0,0,51,9,5,95,125,56,9,0,0,0,43,0,0,60,0,0,0,0,0,0,0,0,0,0,0,0,0,0,0,0,0,0,0,0,0,0,0,0,0,0,0,0,0,0,0],"split_type":[0,0,0,0,0,0,0,0,0,0,0,0,0,0,0,0,0,0,0,0,0,0,0,0,0,0,0,0,0,0,0,0,0,0,0,0,0,0,0,0,0,0,0,0,0,0,0,0,0,0,0,0,0,0,0,0,0,0,0,0,0,0,0,0,0,0,0,0,0,0,0,0,0,0,0,0,0,0,0,0,0,0,0,0,0,0,0],"sum_hessian":[3.351021E2,9.24592E1,2.4264291E2,5.0227833E1,4.223136E1,2.066588E2,3.598412E1,3.2485664E0,4.6979267E1,3.0736435E1,1.1494927E1,1.9991177E1,1.8666762E2,1.674261E1,1.9241508E1,1.899162E1,2.7987648E1,3.498456E0,2.723798E1,5.997353E0,5.497574E0,1.2994266E1,6.996912E0,1.5992941E2,2.67382E1,3.498456E0,1.3244155E1,4.248125E0,1.4993383E1,9.745699E0,9.245919E0,1.799206E1,9.995588E0,2.2490075E0,1.2494485E0,9.745699E0,1.7492281E1,3.7483459E0,2.2490075E0,1.9991177E0,3.498456E0,1.2494485E0,1.1744817E1,3.2485664E0,3.7483459E0,2.4239302E1,1.3569011E2,2.3239744E1,3.498456E0,1.2494485E0,2.2490075E0,3.7483459E0,9.49581E0,1.9991177E0,2.2490075E0,1.3743935E1,1.2494485E0,2.9986765E0,6.747022E0,1.749228E0,7.4966917E0,1.1994706E1,5.997353E0,6.497133E0,3.498456E0,2.748787E0,6.996912E0,1.4993383E1,2.498897E0,1.0495368E1,1.2494485E0,1.2494485E0,1.9991177E0,1.2494485E0,2.498897E0,1.69925E1,7.246802E0,1.3743935E1,1.2194618E2,1.9991177E0,2.1240625E1,1.2494485E0,2.2490075E0,3.2485664E0,6.247243E0,1.1744817E1,1.9991177E0],"tree_param":{"num_deleted":"0","num_feature":"130","num_nodes":"87","size_leaf_vector":"1"}},{"base_weights":[-9.052968E-3,1.19804285E-1,-2.511868E-1,4.9828812E-1,1.3565634E-2,-3.464795E-1,9.70345E-1,1.2467431E0,2.2740915E-1,-1.1790733E0,6.197112E-2,-6.81468E-1,-6.8700328E-3,1.3276894E0,-3.459675E-2,-1.2155916E-2,1.4260275E0,4.4504985E-2,6.7616895E-2,9.802311E-3,-7.559871E-2,4.8236105E-1,-4.874881E-2,3.568778E-1,-8.228339E-1,7.1595657E-1,-2.3127729E-1,8.3250396E-2,-1.1859145E-2,7.1721957E-3,8.1805676E-2,2.2500727E-1,-1.029218E0,-6.0276706E-2,6.583087E-1,-7.013951E-1,4.011983E-2,-5.562676E-2,8.292164E-1,-9.640855E-1,1.3288939E-2,-3.551704E-1,1.1530561E0,3.8183618E-1,-5.3519505E-1,-7.1407915E-3,4.7820564E-2,-7.376268E-2,8.657224E-3,1.2409858E-2,6.1092824E-2,2.5306953E-2,-5.981661E-2,5.096713E-3,-4.1125905E-2,-2.0994833E-2,6.5622054E-2,-2.2475535E-2,-6.261442E-2,4.4325985E-2,-2.921231E-2,-5.1588245E-2,2.5626684E-2,6.8984166E-2,-1.2016198E-2,-2.6903858E-2,4.4160224E-2,3.17381E-2,-3.9727893E-2],"categories":[],"categories_nodes":[],"categories_segments":[],"categories_sizes":[],"default_left":[0,0,0,0,0,0,0,0,0,0,0,0,0,0,0,0,0,0,0,0,0,0,0,0,0,0,0,0,0,0,0,0,0,0,0,0,0,0,0,0,0,0,0,0,0,0,0,0,0,0,0,0,0,0,0,0,0,0,0,0,0,0,0,0,0,0,0,0,0],"id":1,"left_children":[1,3,5,7,9,11,13,15,17,19,21,23,25,27,-1,-1,29,31,-1,-1,-1,33,35,37,39,41,43,-1,-1,-1,-1,45,47,-1,49,51,53,-1,55,57,59,61,63,65,67,-1,-1,-1,-1,-1,-1,-1,-1,-1,-1,-1,-1,-1,-1,-1,-1,-1,-1,-1,-1,-1,-1,-1,-1],"loss_changes":[1.0838615E1,9.111721E0,1.4379722E1,9.787611E0,1.0354755E1,1.2811189E1,6.26099E0,3.8131218E0,7.6962028E0,3.4992476E0,8.034106E0,8.61669E0,9.403351E0,4.4831867E0,0E0,0E0,2.9258041E0,6.7163105E0,0E0,0E0,0E0,1.147596E1,7.981793E0,6.122496E0,5.9427414E0,6.8406425E0,8.4430485E0,0E0,0E0,0E0,0E0,8.063372E0,2.9340758E0,0E0,7.37469E0,1.0460265E1,6.570291E0,0E0,4.3191156E0,5.809128E0,4.818901E0,3.3147526E0,3.4864292E0,7.502699E0,9.60077E0,0E0,0E0,0E0,0E0,0E0,0E0,0E0,0E0,0E0,0E0,0E0,0E0,0E0,0E0,0E0,0E0,0E0,0E0,0E0,0E0,0E0,0E0,0E0,0E0],"parents":[2147483647,0,0,1,1,2,2,3,3,4,4,5,5,6,6,7,7,8,8,9,9,10,10,11,11,12,12,13,13,16,16,17,17,21,21,22,22,23,23,24,24,25,25,26,26,31,31,32,32,34,34,35,35,36,36,38,38,39,39,40,40,41,41,42,42,43,43,44,44],"right_children":[2,4,6,8,10,12,14,16,18,20,22,24,26,28,-1,-1,30,32,-1,-1,-1,34,36,38,40,42,44,-1,-1,-1,-1,46,48,-1,50,52,54,-1,56,58,60,62,64,66,68,-1,-1,-1,-1,-1,-1,-1,-1,-1,-1,-1,-1,-1,-1,-1,-1,-1,-1,-1,-1,-1,-1,-1,-1],"split_conditions":[1.5391834E-1,3.829965E-1,7.788915E-1,3.5878506E-1,1.6864963E-2,1.3097554E-1,1.9716139E-1,4.4041883E-2,3.048257E-1,1.3431363E-2,1.6704045E-1,2.8965366E-1,4.0807697E-1,8.9967775E-1,-3.459675E-2,-1.2155916E-2,2.101462E-1,1.0994642E-1,6.7616895E-2,9.802311E-3,-7.559871E-2,3.7716126E-1,3.0838005E-2,2.5152484E-1,7.348873E-1,3.2819265E-1,1.1418286E-1,8.3250396E-2,-1.1859145E-2,7.1721957E-3,8.1805676E-2,9.8223455E-2,2.113382E-1,-6.0276706E-2,7.78448E-2,2.4524352E-2,9.633744E-1,-5.562676E-2,5.8170218E-2,6.513715E-2,4.6788543E-1,3.5254604E-1,4.3993136E-1,4.2810183E-2,6.820128E-2,-7.1407915E-3,4.7820564E-2,-7.376268E-2,8.657224E-3,1.2409858E-2,6.1092824E-2,2.5306953E-2,-5.981661E-2,5.096713E-3,-4.1125905E-2,-2.0994833E-2,6.5622054E-2,-2.2475535E-2,-6.261442E-2,4.4325985E-2,-2.921231E-2,-5.1588245E-2,2.5626684E-2,6.8984166E-2,-1.2016198E-2,-2.6903858E-2,4.4160224E-2,3.17381E-2,-3.9727893E-2],"split_indices":[89,126,48,22,43,76,49,25,23,51,14,100,35,109,0,0,9,17,0,0,0,48,25,106,126,9,50,0,0,0,0,25,10,0,1,30,34,0,64,38,22,125,21,69,63,0,0,0,0,0,0,0,0,0,0,0,0,0,0,0,0,0,0,0,0,0,0,0,0],"split_type":[0,0,0,0,0,0,0,0,0,0,0,0,0,0,0,0,0,0,0,0,0,0,0,0,0,0,0,0,0,0,0,0,0,0,0,0,0,0,0,0,0,0,0,0,0,0,0,0,0,0,0,0,0,0,0,0,0,0,0,0,0,0,0,0,0,0,0,0,0],"sum_hessian":[3.4541922E2,2.2577364E2,1.1964558E2,4.867494E1,1.7709871E2,1.1165188E2,7.9936996E0,1.197758E1,3.669736E1,5.9964657E0,1.7110223E2,5.5701588E1,5.5950294E1,6.7449956E0,1.248704E0,1.2482798E0,1.07293005E1,3.2459305E1,4.238054E0,1.2488626E0,4.7476034E0,3.4969765E1,1.3613248E2,6.492089E0,4.92095E1,1.2736138E1,4.3214153E1,5.496253E0,1.2487428E0,1.7469406E0,8.98236E0,2.8464598E1,3.9947073E0,2.748763E0,3.2221E1,1.5489076E1,1.20643394E2,1.2495252E0,5.2425637E0,4.1966743E1,7.242756E0,3.7453852E0,8.990753E0,1.4236844E1,2.897731E1,1.9475237E1,8.989361E0,2.7482412E0,1.2464662E0,1.9483015E1,1.27379875E1,4.4963555E0,1.099272E1,1.1339932E2,7.2440715E0,1.4989367E0,3.743627E0,1.5985305E1,2.5981438E1,2.7460637E0,4.496692E0,1.9982051E0,1.7471802E0,7.7414675E0,1.249286E0,4.9963307E0,9.240513E0,4.995549E0,2.398176E1],"tree_param":{"num_deleted":"0","num_feature":"130","num_nodes":"69","size_leaf_vector":"1"}},{"base_weights":[-3.9416365E-2,-1.6424792E-2,-1.232457E0,-2.7075395E-1,8.3968356E-2,-7.96531E-2,-9.0194476E-4,-4.305839E-1,2.9664427E-1,1.1001798E0,4.712085E-2,-1.247499E0,-2.9404137E-1,4.6842933E-1,-6.058344E-2,-1.32744415E-2,1.3723024E0,-1.8191192E-1,1.6317686E-1,-8.813635E-2,3.1580016E-2,6.4034027E-1,-3.9387688E-1,8.27304E-1,-5.209742E-1,7.799312E-2,2.4908585E-2,1.02895066E-1,-5.8557326E-1,4.8338538E-1,2.673717E-2,-1.4186161E-2,6.2537454E-2,-4.1701596E-2,-4.736456E-3,7.882035E-2,1.6941955E-2,2.6856108E-2,-7.143983E-2,1.3859485E-2,-4.5432176E-2,-3.6208384E-2,6.0769357E-2,-2.8529102E-2,3.3335384E-2,2.0099347E-2,-1.1302768E-2],"categories":[],"categories_nodes":[],"categories_segments":[],"categories_sizes":[],"default_left":[0,0,0,0,0,0,0,0,0,0,0,0,0,0,0,0,0,0,0,0,0,0,0,0,0,0,0,0,0,0,0,0,0,0,0,0,0,0,0,0,0,0,0,0,0,0,0],"id":2,"left_children":[1,3,5,7,9,-1,-1,11,13,15,17,19,21,23,-1,-1,25,27,29,-1,-1,31,33,35,37,-1,-1,39,41,43,45,-1,-1,-1,-1,-1,-1,-1,-1,-1,-1,-1,-1,-1,-1,-1,-1],"loss_changes":[9.422772E0,8.672383E0,2.8157787E0,8.844003E0,9.07164E0,0E0,0E0,8.043316E0,6.1942916E0,3.516057E0,6.3072405E0,1.1268551E1,6.400458E0,7.6093836E0,0E0,0E0,4.089203E-1,9.245859E0,6.8581376E0,0E0,0E0,4.158389E0,7.843055E0,5.0357313E0,6.5257583E0,0E0,0E0,8.661056E0,9.167495E0,9.448387E0,1.0652595E1,0E0,0E0,0E0,0E0,0E0,0E0,0E0,0E0,0E0,0E0,0E0,0E0,0E0,0E0,0E0,0E0],"parents":[2147483647,0,0,1,1,2,2,3,3,4,4,7,7,8,8,9,9,10,10,11,11,12,12,13,13,16,16,17,17,18,18,21,21,22,22,23,23,24,24,27,27,28,28,29,29,30,30],"right_children":[2,4,6,8,10,-1,-1,12,14,16,18,20,22,24,-1,-1,26,28,30,-1,-1,32,34,36,38,-1,-1,40,42,44,46,-1,-1,-1,-1,-1,-1,-1,-1,-1,-1,-1,-1,-1,-1,-1,-1],"split_conditions":[9.485627E-1,5.207059E-2,9.297153E-1,1.7384662E-1,6.928731E-2,-7.96531E-2,-9.0194476E-4,1.0800077E-1,1.6847785E-1,3.796608E-1,5.4820724E-2,1.0670962E-1,3.4026183E-2,1.9461372E-1,-6.058344E-2,-1.32744415E-2,5.0391304E-1,9.450477E-2,6.0065333E-2,-8.813635E-2,3.1580016E-2,4.1931248E-1,4.032661E-1,3.768935E-1,1.0188409E-1,7.799312E-2,2.4908585E-2,1.6227773E-1,9.876631E-1,3.6407998E-1,4.8560783E-1,-1.4186161E-2,6.2537454E-2,-4.1701596E-2,-4.736456E-3,7.882035E-2,1.6941955E-2,2.6856108E-2,-7.143983E-2,1.3859485E-2,-4.5432176E-2,-3.6208384E-2,6.0769357E-2,-2.8529102E-2,3.3335384E-2,2.0099347E-2,-1.1302768E-2],"split_indices":[118,77,16,115,63,0,0,128,38,109,129,95,129,89,0,0,19,64,116,0,0,96,21,122,129,0,0,90,60,7,48,0,0,0,0,0,0,0,0,0,0,0,0,0,0,0,0],"split_type":[0,0,0,0,0,0,0,0,0,0,0,0,0,0,0,0,0,0,0,0,0,0,0,0,0,0,0,0,0,0,0,0,0,0,0,0,0,0,0,0,0,0,0,0,0,0,0],"sum_hessian":[3.4326016E2,3.3776474E2,5.495435E0,9.511356E1,2.4265117E2,3.996838E0,1.498597E0,7.4397675E1,2.0715895E1,7.4808326E0,2.3517033E2,9.489137E0,6.490853E1,1.9216698E1,1.4991968E0,1.2470073E0,6.233825E0,7.889876E1,1.5627158E2,7.4958014E0,1.9933351E0,5.743158E0,5.916538E1,1.4221968E1,4.994731E0,4.486661E0,1.7471645E0,4.669662E1,3.2202137E1,4.5931858E1,1.1033972E2,2.49751E0,3.2456481E0,2.3216883E1,3.5948494E1,4.7342772E0,9.48769E0,2.4950314E0,2.4996996E0,4.0452385E1,6.2442355E0,3.0456251E1,1.7458866E0,6.492478E0,3.943938E1,4.417515E1,6.616457E1],"tree_param":{"num_deleted":"0","num_feature":"130","num_nodes":"47","size_leaf_vector":"1"}},{"base_weights":[-4.486846E-2,-8.0882025E-1,7.1841665E-3,5.1861774E-2,-9.6775424E-1,-1.719864E-1,1.7522857E-1,-1.1291354E0,2.5713418E-2,7.6807725E-1,-2.4018471E-1,5.4135036E-1,-4.079026E-2,-5.748142E-1,-7.920701E-2,-9.4337E-3,1.2141477E0,-6.1675555E-1,-5.2101305E-3,6.4144194E-1,-6.803649E-1,-3.058476E-1,2.9742736E-1,-8.9151907E-1,3.8172163E-2,5.1970657E-2,-6.223699E-2,-7.198321E-4,7.764705E-2,-1.0581271E-1,-9.3248117E-1,1.7170553E-1,-6.083744E-1,-1.04961954E-1,7.5694644E-1,-7.156816E-2,2.6198683E-2,-1.3442084E-1,-1.1886512E0,1.0409654E0,4.4580353E-3,2.0627804E-2,-7.029341E-2,-2.1797441E-2,3.172485E-2,-5.147946E-2,3.7596744E-2,1.7790992E-2,-3.0283121E-2,-5.1943865E-2,3.6714982E-2,-4.0080022E-2,4.6296697E-2,-1.02088405E-2,4.3297034E-2,9.173228E-3,-3.539227E-2,-1.3744876E-3,-6.979886E-2,-9.562454E-3,6.5218374E-2,-2.5551362E-2,2.4945758E-2],"categories":[],"categories_nodes":[],"categories_segments":[],"categories_sizes":[],"default_left":[0,0,0,0,0,0,0,0,0,0,0,0,0,0,0,0,0,0,0,0,0,0,0,0,0,0,0,0,0,0,0,0,0,0,0,0,0,0,0,0,0,0,0,0,0,0,0,0,0,0,0,0,0,0,0,0,0,0,0,0,0,0,0],"id":3,"left_children":[1,3,5,-1,7,9,11,13,-1,15,17,19,21,23,-1,25,27,29,31,33,35,37,39,41,-1,-1,-1,-1,-1,43,45,47,49,51,53,-1,-1,55,57,59,61,-1,-1,-1,-1,-1,-1,-1,-1,-1,-1,-1,-1,-1,-1,-1,-1,-1,-1,-1,-1,-1,-1],"loss_changes":[1.3848599E1,7.521555E0,9.872468E0,0E0,5.5963097E0,1.0359773E1,1.340239E1,3.9382E0,0E0,3.8173585E0,1.3158043E1,8.1217785E0,9.712889E0,5.0189466E0,0E0,7.762741E0,2.9278965E0,9.1193905E0,9.98557E0,5.131916E0,5.49332E0,9.021288E0,1.0378285E1,6.4412947E0,0E0,0E0,0E0,0E0,0E0,5.8861628E0,6.5302505E0,1.0574546E1,1.3028927E1,7.0130825E0,5.5060596E0,0E0,0E0,9.595709E0,2.3058004E0,4.620762E0,9.225995E0,0E0,0E0,0E0,0E0,0E0,0E0,0E0,0E0,0E0,0E0,0E0,0E0,0E0,0E0,0E0,0E0,0E0,0E0,0E0,0E0,0E0,0E0],"parents":[2147483647,0,0,1,1,2,2,4,4,5,5,6,6,7,7,9,9,10,10,11,11,12,12,13,13,15,15,16,16,17,17,18,18,19,19,20,20,21,21,22,22,23,23,29,29,30,30,31,31,32,32,33,33,34,34,37,37,38,38,39,39,40,40],"right_children":[2,4,6,-1,8,10,12,14,-1,16,18,20,22,24,-1,26,28,30,32,34,36,38,40,42,-1,-1,-1,-1,-1,44,46,48,50,52,54,-1,-1,56,58,60,62,-1,-1,-1,-1,-1,-1,-1,-1,-1,-1,-1,-1,-1,-1,-1,-1,-1,-1,-1,-1,-1,-1],"split_conditions":[2.4734985E-2,9.72593E-2,7.57501E-2,5.1861774E-2,1.1159129E-1,2.9827613E-1,4.9386823E-1,1.5339708E-1,2.5713418E-2,5.8170218E-2,4.2206976E-1,8.330214E-1,8.272031E-1,5.612881E-1,-7.920701E-2,6.8067E-2,1.14170566E-1,1.1184514E-1,1.2135371E-1,6.273825E-2,3.8118663E-1,1.5336467E-1,2.0278326E-1,2.076853E-1,3.8172163E-2,5.1970657E-2,-6.223699E-2,-7.198321E-4,7.764705E-2,1.5700883E-1,7.309503E-1,1.9461372E-1,7.046057E-1,7.536617E-2,8.497561E-2,-7.156816E-2,2.6198683E-2,6.33199E-1,3.0102773E-2,1.1374603E-1,8.830485E-1,2.0627804E-2,-7.029341E-2,-2.1797441E-2,3.172485E-2,-5.147946E-2,3.7596744E-2,1.7790992E-2,-3.0283121E-2,-5.1943865E-2,3.6714982E-2,-4.0080022E-2,4.6296697E-2,-1.02088405E-2,4.3297034E-2,9.173228E-3,-3.539227E-2,-1.3744876E-3,-6.979886E-2,-9.562454E-3,6.5218374E-2,-2.5551362E-2,2.4945758E-2],"split_indices":[12,73,77,0,108,100,48,10,0,64,60,94,73,45,0,82,89,76,12,60,5,89,106,8,0,0,0,0,0,128,100,89,74,17,102,0,0,113,56,37,34,0,0,0,0,0,0,0,0,0,0,0,0,0,0,0,0,0,0,0,0,0,0],"split_type":[0,0,0,0,0,0,0,0,0,0,0,0,0,0,0,0,0,0,0,0,0,0,0,0,0,0,0,0,0,0,0,0,0,0,0,0,0,0,0,0,0,0,0,0,0,0,0,0,0,0,0,0,0,0,0,0,0,0,0,0,0,0,0],"sum_hessian":[3.4710876E2,2.1214537E1,3.2589423E2,1.2436023E0,1.9970936E1,1.5771428E2,1.6817995E2,1.8224531E1,1.7464032E0,9.973568E0,1.4774072E2,6.1848804E1,1.0633115E2,9.235933E0,8.988599E0,3.9928284E0,5.980739E0,5.6142246E1,9.159847E1,5.7604412E1,4.2443933E0,5.9666718E1,4.666443E1,7.738421E0,1.4975125E0,2.2451468E0,1.7476816E0,1.4997603E0,4.480979E0,2.195207E1,3.4190174E1,7.137779E1,2.0220678E1,7.731812E0,4.98726E1,2.498118E0,1.7462753E0,5.0929302E1,8.737414E0,1.2468072E1,3.4196358E1,2.2448244E0,5.4935966E0,1.5466166E1,6.4859047E0,3.2694088E1,1.4960849E0,5.814809E1,1.3229703E1,1.5482706E1,4.737972E0,4.7466426E0,2.9851694E0,4.990708E0,4.4881893E1,3.3202896E1,1.7726406E1,1.4953071E0,7.2421074E0,2.2440698E0,1.0224002E1,1.6725769E1,1.7470589E1],"tree_param":{"num_deleted":"0","num_feature":"130","num_nodes":"63","size_leaf_vector":"1"}},{"base_weights":[-7.959858E-3,-4.2854056E-2,9.0982443E-1,3.174616E-1,-1.1439815E-1,1.2143475E0,-3.974615E-2,-8.3843935E-1,4.067276E-1,1.0694109E0,-1.3917363E-1,-1.9514209E-2,1.5088394E0,-6.189679E-2,-3.0849322E-3,1.0801101E0,1.4530917E-1,-7.957108E-4,7.285162E-2,-3.232725E-1,6.9512776E-3,9.155368E-3,8.437925E-2,1.4582951E0,-1.5228295E-1,9.8180264E-1,-1.6528526E-1,-1.509319E-1,-8.3241296E-1,-6.9906615E-2,1.0730195E0,8.000282E-2,9.769475E-3,-5.548937E-2,3.0935591E-2,-7.561531E-3,6.548915E-2,-3.5438474E-2,1.1252774E-2,-3.7547395E-2,-3.482687E-4,-5.2914627E-2,7.319649E-3,2.244231E-2,-1.1227493E-2,7.519783E-2,5.550255E-3],"categories":[],"categories_nodes":[],"categories_segments":[],"categories_sizes":[],"default_left":[0,0,0,0,0,0,0,0,0,0,0,0,0,0,0,0,0,0,0,0,0,0,0,0,0,0,0,0,0,0,0,0,0,0,0,0,0,0,0,0,0,0,0,0,0,0,0],"id":4,"left_children":[1,3,5,7,9,11,-1,13,15,17,19,-1,21,-1,-1,23,25,-1,-1,27,29,-1,-1,31,33,35,37,39,41,43,45,-1,-1,-1,-1,-1,-1,-1,-1,-1,-1,-1,-1,-1,-1,-1,-1],"loss_changes":[1.0899455E1,8.482752E0,7.4369116E0,5.969204E0,8.188293E0,5.7738934E0,0E0,1.2383947E0,8.87518E0,2.4355683E0,7.2488112E0,0E0,1.9366112E0,0E0,0E0,6.8371086E0,1.0065121E1,0E0,0E0,1.0335393E1,1.2459976E1,0E0,0E0,1.6486435E0,3.8153985E0,4.086853E0,6.2376704E0,7.7943764E0,6.7718296E0,1.14865465E1,4.072338E0,0E0,0E0,0E0,0E0,0E0,0E0,0E0,0E0,0E0,0E0,0E0,0E0,0E0,0E0,0E0,0E0],"parents":[2147483647,0,0,1,1,2,2,3,3,4,4,5,5,7,7,8,8,9,9,10,10,12,12,15,15,16,16,19,19,20,20,23,23,24,24,25,25,26,26,27,27,28,28,29,29,30,30],"right_children":[2,4,6,8,10,12,-1,14,16,18,20,-1,22,-1,-1,24,26,-1,-1,28,30,-1,-1,32,34,36,38,40,42,44,46,-1,-1,-1,-1,-1,-1,-1,-1,-1,-1,-1,-1,-1,-1,-1,-1],"split_conditions":[8.166067E-1,3.1429476E-1,9.319104E-1,7.885323E-2,3.519738E-2,6.906475E-1,-3.974615E-2,1.0853341E-1,2.748031E-1,3.2529193E-1,1.3097554E-1,-1.9514209E-2,6.619216E-1,-6.189679E-2,-3.0849322E-3,7.624476E-1,1.4766786E-1,-7.957108E-4,7.285162E-2,1.7037119E-1,9.5944387E-1,9.155368E-3,8.437925E-2,4.9647796E-1,1.06609665E-1,1.16063885E-1,2.1391122E-1,4.4374052E-2,1.2592614E-1,1.4430489E-1,8.963451E-2,8.000282E-2,9.769475E-3,-5.548937E-2,3.0935591E-2,-7.561531E-3,6.548915E-2,-3.5438474E-2,1.1252774E-2,-3.7547395E-2,-3.482687E-4,-5.2914627E-2,7.319649E-3,2.244231E-2,-1.1227493E-2,7.519783E-2,5.550255E-3],"split_indices":[35,122,125,83,114,22,0,77,70,73,76,0,112,0,0,14,10,0,0,89,112,0,0,19,99,63,114,43,129,76,82,0,0,0,0,0,0,0,0,0,0,0,0,0,0,0,0],"split_type":[0,0,0,0,0,0,0,0,0,0,0,0,0,0,0,0,0,0,0,0,0,0,0,0,0,0,0,0,0,0,0,0,0,0,0,0,0,0,0,0,0,0,0,0,0,0,0],"sum_hessian":[3.381209E2,3.266548E2,1.1466122E1,5.3545864E1,2.7310892E2,9.972396E0,1.4937254E0,3.237037E0,5.0308826E1,4.734273E0,2.6837466E2,1.4959515E0,8.476444E0,1.7455183E0,1.4915186E0,1.3193145E1,3.711568E1,1.4982301E0,3.236043E0,1.18220055E2,1.5015459E2,1.2475963E0,7.228848E0,9.954959E0,3.2381866E0,9.464589E0,2.765109E1,8.9291824E1,2.8928234E1,1.409288E2,9.225797E0,8.710266E0,1.2446923E0,1.2483851E0,1.9898016E0,2.2456663E0,7.2189226E0,1.1217218E1,1.6433874E1,1.6462824E1,7.2829E1,2.3438183E1,5.4900513E0,3.1926952E1,1.0900184E2,5.9825535E0,3.243243E0],"tree_param":{"num_deleted":"0","num_feature":"130","num_nodes":"47","size_leaf_vector":"1"}},{"base_weights":[2.0694098E-2,-1.4263484E-1,1.9707853E-1,8.474154E-2,-4.0396374E-1,4.5267347E-1,-9.941032E-3,-8.042854E-1,1.6887496E-1,-6.6352427E-1,2.1057533E-1,-9.6435025E-2,6.214384E-1,2.6111436E-1,-3.3996394E-1,9.794809E-3,-1.0924088E0,2.77324E-1,-6.650751E-1,5.5332657E-2,-7.2901034E-1,5.922519E-1,-7.385851E-1,-4.7680756E-1,1.0866742E0,8.659295E-1,1.3754505E-1,-1.0758731E0,4.4564763E-1,-6.336599E-1,2.4615718E-1,-9.348519E-3,-6.854653E-2,4.4808656E-1,-1.7322782E-1,1.3578434E-1,-7.089019E-2,-9.7449464E-1,-2.230293E-1,2.3499562E-1,7.6329336E-2,3.0688722E-2,-1.0919636E0,6.925846E-1,-9.494259E-1,8.841471E-3,6.800812E-2,-1.7885461E-2,9.450323E-1,1.02235E0,-2.8353357E-1,1.9571519E-2,-7.966211E-2,1.9109918E-1,1.2088027E0,-9.751109E-1,1.2799369E-2,7.97111E-1,-6.879859E-1,5.927229E-3,4.195725E-2,5.0541062E-2,-2.218738E-2,-2.8942356E-2,4.0603068E-2,-1.7703032E-2,-5.9821744E-2,2.4622397E-2,-3.337536E-2,3.62085E-2,-4.720827E-2,1.7409153E-2,-7.96147E-2,6.627962E-2,-2.0291831E-2,1.0522278E-5,-6.1869796E-2,5.102391E-2,-2.2985544E-2,-1.2595755E-2,6.793674E-2,-4.2864755E-2,3.074432E-2,4.9508847E-2,-1.0323089E-2,-2.5968493E-3,7.435661E-2,1.816197E-2,-6.4192735E-2,3.194849E-2,-4.1731875E-2,5.3583473E-2,-2.130193E-2,1.5946943E-2,-6.355085E-2],"categories":[],"categories_nodes":[],"categories_segments":[],"categories_sizes":[],"default_left":[0,0,0,0,0,0,0,0,0,0,0,0,0,0,0,0,0,0,0,0,0,0,0,0,0,0,0,0,0,0,0,0,0,0,0,0,0,0,0,0,0,0,0,0,0,0,0,0,0,0,0,0,0,0,0,0,0,0,0,0,0,0,0,0,0,0,0,0,0,0,0,0,0,0,0,0,0,0,0,0,0,0,0,0,0,0,0,0,0,0,0,0,0,0,0],"id":5,"left_children":[1,3,5,7,9,11,13,15,17,19,21,23,25,27,29,-1,31,33,35,-1,37,39,41,43,45,47,49,51,53,55,57,-1,-1,59,61,63,-1,65,67,69,-1,-1,71,73,75,-1,-1,-1,77,79,81,-1,-1,83,85,87,89,91,93,-1,-1,-1,-1,-1,-1,-1,-1,-1,-1,-1,-1,-1,-1,-1,-1,-1,-1,-1,-1,-1,-1,-1,-1,-1,-1,-1,-1,-1,-1,-1,-1,-1,-1,-1,-1],"loss_changes":[9.870001E0,1.060858E1,8.717707E0,7.315434E0,1.3374477E1,6.8907604E0,8.314899E0,2.6554427E0,8.189925E0,7.596796E0,9.638092E0,8.706032E0,6.567251E0,1.3075861E1,7.3692393E0,0E0,1.4407234E0,6.1584086E0,6.510464E0,0E0,6.873514E0,5.87269E0,4.363757E0,8.650923E0,9.3680716E-1,3.9539928E0,7.8006916E0,5.546682E0,8.621557E0,6.236084E0,8.118212E0,0E0,0E0,7.3224354E0,7.637362E0,3.3651996E0,0E0,4.8284607E0,6.6717453E0,9.15518E0,0E0,0E0,5.228917E0,3.834496E0,2.932355E0,0E0,0E0,0E0,4.2170315E0,3.2216768E0,7.9716372E0,0E0,0E0,1.1437766E1,4.010973E0,8.095366E0,6.2281737E0,3.7190619E0,3.9238386E0,0E0,0E0,0E0,0E0,0E0,0E0,0E0,0E0,0E0,0E0,0E0,0E0,0E0,0E0,0E0,0E0,0E0,0E0,0E0,0E0,0E0,0E0,0E0,0E0,0E0,0E0,0E0,0E0,0E0,0E0,0E0,0E0,0E0,0E0,0E0,0E0],"parents":[2147483647,0,0,1,1,2,2,3,3,4,4,5,5,6,6,7,7,8,8,9,9,10,10,11,11,12,12,13,13,14,14,16,16,17,17,18,18,20,20,21,21,22,22,23,23,24,24,25,25,26,26,27,27,28,28,29,29,30,30,33,33,34,34,35,35,37,37,38,38,39,39,42,42,43,43,44,44,48,48,49,49,50,50,53,53,54,54,55,55,56,56,57,57,58,58],"right_children":[2,4,6,8,10,12,14,16,18,20,22,24,26,28,30,-1,32,34,36,-1,38,40,42,44,46,48,50,52,54,56,58,-1,-1,60,62,64,-1,66,68,70,-1,-1,72,74,76,-1,-1,-1,78,80,82,-1,-1,84,86,88,90,92,94,-1,-1,-1,-1,-1,-1,-1,-1,-1,-1,-1,-1,-1,-1,-1,-1,-1,-1,-1,-1,-1,-1,-1,-1,-1,-1,-1,-1,-1,-1,-1,-1,-1,-1,-1,-1],"split_conditions":[1.9836381E-1,7.796755E-2,2.516085E-1,1.2566493E-1,8.1169564E-1,1.1106099E-1,5.23808E-1,3.392791E-1,2.1644466E-1,1.7850597E-1,5.6093216E-1,7.0950717E-1,1.22056976E-1,2.9567164E-1,9.499658E-2,9.794809E-3,4.023236E-1,1.2595503E-1,7.03323E-2,5.5332657E-2,1.6602607E-1,3.72303E-1,1.1543066E-1,1.1863555E-1,8.3788323E-1,3.8555235E-2,6.1299983E-2,3.8485814E-2,4.5791012E-1,9.146571E-2,1.4467989E-1,-9.348519E-3,-6.854653E-2,1.3071956E-1,3.6290818E-1,1.4339209E-1,-7.089019E-2,1.05168395E-1,7.625404E-2,2.3010398E-1,7.6329336E-2,3.0688722E-2,6.4518106E-1,5.493805E-1,6.5206416E-2,8.841471E-3,6.800812E-2,-1.7885461E-2,1.8294793E-1,2.3112418E-1,2.8968158E-1,1.9571519E-2,-7.966211E-2,3.279215E-1,2.9076734E-1,4.54029E-1,7.947278E-1,1.7313065E-1,1.3239317E-1,5.927229E-3,4.195725E-2,5.0541062E-2,-2.218738E-2,-2.8942356E-2,4.0603068E-2,-1.7703032E-2,-5.9821744E-2,2.4622397E-2,-3.337536E-2,3.62085E-2,-4.720827E-2,1.7409153E-2,-7.96147E-2,6.627962E-2,-2.0291831E-2,1.0522278E-5,-6.1869796E-2,5.102391E-2,-2.2985544E-2,-1.2595755E-2,6.793674E-2,-4.2864755E-2,3.074432E-2,4.9508847E-2,-1.0323089E-2,-2.5968493E-3,7.435661E-2,1.816197E-2,-6.4192735E-2,3.194849E-2,-4.1731875E-2,5.3583473E-2,-2.130193E-2,1.5946943E-2,-6.355085E-2],"split_indices":[114,38,10,112,21,37,87,57,49,122,16,48,77,87,129,0,31,77,82,0,115,53,115,102,112,17,108,25,57,116,63,0,0,76,70,115,0,75,51,1,0,0,9,8,108,0,0,0,56,99,127,0,0,125,10,60,8,76,4,0,0,0,0,0,0,0,0,0,0,0,0,0,0,0,0,0,0,0,0,0,0,0,0,0,0,0,0,0,0,0,0,0,0,0,0],"split_type":[0,0,0,0,0,0,0,0,0,0,0,0,0,0,0,0,0,0,0,0,0,0,0,0,0,0,0,0,0,0,0,0,0,0,0,0,0,0,0,0,0,0,0,0,0,0,0,0,0,0,0,0,0,0,0,0,0,0,0,0,0,0,0,0,0,0,0,0,0,0,0,0,0,0,0,0,0,0,0,0,0,0,0,0,0,0,0,0,0,0,0,0,0,0,0],"sum_hessian":[3.4062933E2,1.7695937E2,1.6366998E2,9.498809E1,8.197127E1,7.271115E1,9.095883E1,7.4720693E0,8.751602E1,5.7574173E1,2.4397095E1,1.7194426E1,5.5516724E1,5.005572E1,4.090311E1,1.7426814E0,5.7293878E0,7.803554E1,9.480485E0,1.4867327E0,5.608744E1,1.766833E1,6.7287664E0,1.3463019E1,3.7314065E0,3.6357365E1,1.9159359E1,5.4850426E0,4.457068E1,2.7195015E1,1.3708096E1,1.7409809E0,3.9884071E0,5.659215E1,2.1443386E1,4.990497E0,4.489988E0,3.714166E1,1.894578E1,1.368658E1,3.981749E0,1.2413428E0,5.4874234E0,3.7410867E0,9.721933E0,1.2429411E0,2.4884653E0,1.9937685E0,3.4363594E1,5.7174516E0,1.3441908E1,1.4933093E0,3.9917333E0,3.4360294E1,1.0210382E1,1.746294E1,9.732075E0,8.714822E0,4.9932737E0,3.1418856E1,2.5173294E1,3.4790783E0,1.7964308E1,2.4964895E0,2.4940076E0,1.046949E1,2.667217E1,7.2183914E0,1.1727389E1,9.946245E0,3.7403347E0,1.4932781E0,3.9941454E0,2.2421465E0,1.4989402E0,2.4946423E0,7.2272906E0,3.2871674E1,1.4919223E0,1.2465365E0,4.470915E0,8.231052E0,5.2108555E0,1.0920335E1,2.3439959E1,1.9935707E0,8.216812E0,3.2402987E0,1.4222641E1,5.7381544E0,3.99392E0,7.2183704E0,1.4964516E0,1.997116E0,2.996158E0],"tree_param":{"num_deleted":"0","num_feature":"130","num_nodes":"95","size_leaf_vector":"1"}},{"base_weights":[-2.5022267E-3,-7.815279E-1,5.3278625E-2,3.5706185E-2,-9.2027014E-1,-8.1542593E-1,8.561989E-2,-1.1657896E0,-5.4344226E-2,2.7270785E-1,-1.2324573E0,4.7174808E-1,1.3878241E-2,-1.3428296E0,1.0459645E-2,4.5574057E-1,-5.2413028E-2,-3.8582727E-2,6.0383674E-2,-8.017284E-2,-6.8215453E-3,8.269275E-1,6.252754E-2,-2.829205E-1,1.4258698E-1,4.025004E-4,-1.4964342E0,5.2557748E-2,-3.0390514E-2,9.8726153E-1,-4.3387946E-2,4.6805426E-1,-7.0453423E-1,-8.498286E-1,-9.240651E-2,5.049637E-1,1.1990031E-2,-9.8312665E-3,-8.387039E-2,1.1180764E-2,6.865143E-2,-3.1197078E-3,5.033895E-2,-7.376259E-2,2.7436854E-3,4.529486E-3,-5.7657577E-2,8.081221E-3,-4.7057595E-2,1.5896162E-2,7.39991E-2,-3.3114392E-2,4.7050244E-3],"categories":[],"categories_nodes":[],"categories_segments":[],"categories_sizes":[],"default_left":[0,0,0,0,0,0,0,0,0,0,0,0,0,0,0,0,0,0,0,0,0,0,0,0,0,0,0,0,0,0,0,0,0,0,0,0,0,0,0,0,0,0,0,0,0,0,0,0,0,0,0,0,0],"id":6,"left_children":[1,3,5,-1,7,9,11,13,15,17,19,21,23,25,-1,27,-1,-1,-1,-1,-1,29,31,33,35,-1,37,-1,-1,39,-1,41,43,45,47,49,51,-1,-1,-1,-1,-1,-1,-1,-1,-1,-1,-1,-1,-1,-1,-1,-1],"loss_changes":[1.4730876E1,5.3574934E0,8.958642E0,0E0,4.4363804E0,5.532415E0,8.468262E0,4.283045E0,3.379843E0,4.8293962E0,3.2210875E0,6.9111423E0,9.935379E0,3.062357E0,0E0,3.4757934E0,0E0,0E0,0E0,0E0,0E0,7.802885E0,7.5902934E0,8.4199505E0,8.575993E0,0E0,2.7763252E0,0E0,0E0,6.710787E0,0E0,4.5978007E0,5.039156E0,5.71535E0,1.3092173E1,8.286074E0,7.499292E0,0E0,0E0,0E0,0E0,0E0,0E0,0E0,0E0,0E0,0E0,0E0,0E0,0E0,0E0,0E0,0E0],"parents":[2147483647,0,0,1,1,2,2,4,4,5,5,6,6,7,7,8,8,9,9,10,10,11,11,12,12,13,13,15,15,21,21,22,22,23,23,24,24,26,26,29,29,31,31,32,32,33,33,34,34,35,35,36,36],"right_children":[2,4,6,-1,8,10,12,14,16,18,20,22,24,26,-1,28,-1,-1,-1,-1,-1,30,32,34,36,-1,38,-1,-1,40,-1,42,44,46,48,50,52,-1,-1,-1,-1,-1,-1,-1,-1,-1,-1,-1,-1,-1,-1,-1,-1],"split_conditions":[2.4734985E-2,1.0442022E-1,1.7897604E-2,3.5706185E-2,8.5646707E-1,9.752342E-2,3.524745E-1,5.754191E-1,6.3731664E-1,8.2723215E-2,9.5984764E-2,1.3695028E-1,4.7844613E-1,6.303599E-2,1.0459645E-2,7.7549434E-1,-5.2413028E-2,-3.8582727E-2,6.0383674E-2,-8.017284E-2,-6.8215453E-3,1.3855481E-1,4.3142235E-1,1.07594356E-1,2.0423307E-1,4.025004E-4,3.3170708E-2,5.2557748E-2,-3.0390514E-2,1.2263268E-1,-4.3387946E-2,1.6370054E-1,4.9647796E-1,3.8235658E-1,4.8877922E-1,1.7539878E-1,2.6637805E-1,-9.8312665E-3,-8.387039E-2,1.1180764E-2,6.865143E-2,-3.1197078E-3,5.033895E-2,-7.376259E-2,2.7436854E-3,4.529486E-3,-5.7657577E-2,8.081221E-3,-4.7057595E-2,1.5896162E-2,7.39991E-2,-3.3114392E-2,4.7050244E-3],"split_indices":[12,73,77,0,86,127,126,32,22,36,76,102,113,36,0,87,0,0,0,0,0,17,87,128,40,0,51,0,0,63,0,99,97,59,126,115,105,0,0,0,0,0,0,0,0,0,0,0,0,0,0,0,0],"split_type":[0,0,0,0,0,0,0,0,0,0,0,0,0,0,0,0,0,0,0,0,0,0,0,0,0,0,0,0,0,0,0,0,0,0,0,0,0,0,0,0,0,0,0,0,0,0,0,0,0,0,0,0,0],"sum_hessian":[3.3703552E2,2.1650982E1,3.1538455E2,1.4858874E0,2.0165096E1,1.0451024E1,3.0493353E2,1.5440808E1,4.724287E0,2.9915175E0,7.4595065E0,4.6905094E1,2.5802844E2,1.3700185E1,1.7406232E0,3.4798656E0,1.2444214E0,1.495597E0,1.4959204E0,5.2271643E0,2.232342E0,2.456413E1,2.2340961E1,7.768677E1,1.8034166E2,1.4955071E0,1.2204678E1,2.2383893E0,1.2414763E0,2.282235E1,1.741782E0,1.4869585E1,7.471376E0,1.867004E1,5.9016727E1,4.7016106E1,1.3332556E2,1.7465923E0,1.0458086E1,8.189825E0,1.46325245E1,7.937857E0,6.931728E0,3.240243E0,4.2311325E0,4.724283E0,1.3945758E1,4.604496E1,1.2971764E1,4.0561207E1,6.4549E0,1.3706246E1,1.1961931E2],"tree_param":{"num_deleted":"0","num_feature":"130","num_nodes":"53","size_leaf_vector":"1"}},{"base_weights":[2.20386E-3,-5.817631E-1,4.3448515E-2,4.27567E-1,-9.2834175E-1,3.1462416E-1,-5.1104926E-2,1.0309672E0,-3.1091247E-2,-1.1977966E0,2.6608795E-1,-4.3482933E-2,5.989928E-1,-5.3847224E-1,3.5104483E-2,6.582295E-2,7.733799E-3,2.2647342E-4,-1.3951635E0,5.230811E-2,-2.359636E-2,3.776746E-1,-5.133059E-1,6.668282E-1,-4.2864393E-2,-7.02705E-1,4.9871522E-1,9.023745E-2,-6.6547847E-1,-7.5569E-2,-1.0465704E-2,7.7623105E-1,-7.754344E-1,-1.0721519E0,4.3282235E-1,1.8529668E-1,9.394482E-1,-1.0829543E0,-2.3994227E-1,9.9277693E-1,-3.2839973E-2,7.620532E-1,3.2389645E-2,-1.0410057E0,1.7452194E-1,4.716236E-2,-3.200599E-2,-7.228803E-2,1.6051782E-2,-1.6544184E-2,-8.359728E-2,5.812759E-2,-1.5644092E-2,3.4606513E-2,-1.8473497E-2,5.6473255E-2,-2.0408366E-2,-6.713613E-2,-9.323314E-3,3.529468E-2,-3.766091E-2,9.702171E-3,6.299128E-2,-3.8131285E-2,5.4540295E-2,-5.7968628E-3,1.7837053E-2,-2.0777734E-2,-7.93069E-2,4.759075E-2,-5.702532E-2],"categories":[],"categories_nodes":[],"categories_segments":[],"categories_sizes":[],"default_left":[0,0,0,0,0,0,0,0,0,0,0,0,0,0,0,0,0,0,0,0,0,0,0,0,0,0,0,0,0,0,0,0,0,0,0,0,0,0,0,0,0,0,0,0,0,0,0,0,0,0,0,0,0,0,0,0,0,0,0,0,0,0,0,0,0,0,0,0,0,0,0],"id":7,"left_children":[1,3,5,7,9,11,13,15,-1,17,19,21,23,25,27,-1,-1,-1,29,-1,-1,31,33,35,-1,37,39,41,43,-1,-1,45,47,49,51,53,55,57,59,61,-1,63,65,67,69,-1,-1,-1,-1,-1,-1,-1,-1,-1,-1,-1,-1,-1,-1,-1,-1,-1,-1,-1,-1,-1,-1,-1,-1,-1,-1],"loss_changes":[8.241805E0,8.293654E0,8.209929E0,4.72826E0,5.828518E0,8.453696E0,1.0010529E1,9.157767E-1,0E0,3.3641148E0,2.778908E0,7.6262965E0,5.135248E0,6.4493065E0,7.9010973E0,0E0,0E0,0E0,1.3592052E0,0E0,0E0,9.96956E0,1.0076128E1,5.6942368E0,0E0,5.2522144E0,3.7801404E0,7.3233075E0,4.8910646E0,0E0,0E0,4.305213E0,4.6799116E0,4.6559305E0,4.4247913E0,5.14964E0,7.707054E0,3.68779E0,8.014784E0,6.5915346E-1,0E0,8.323147E0,8.466795E0,2.9074821E0,6.6755E0,0E0,0E0,0E0,0E0,0E0,0E0,0E0,0E0,0E0,0E0,0E0,0E0,0E0,0E0,0E0,0E0,0E0,0E0,0E0,0E0,0E0,0E0,0E0,0E0,0E0,0E0],"parents":[2147483647,0,0,1,1,2,2,3,3,4,4,5,5,6,6,7,7,9,9,10,10,11,11,12,12,13,13,14,14,18,18,21,21,22,22,23,23,25,25,26,26,27,27,28,28,31,31,32,32,33,33,34,34,35,35,36,36,37,37,38,38,39,39,41,41,42,42,43,43,44,44],"right_children":[2,4,6,8,10,12,14,16,-1,18,20,22,24,26,28,-1,-1,-1,30,-1,-1,32,34,36,-1,38,40,42,44,-1,-1,46,48,50,52,54,56,58,60,62,-1,64,66,68,70,-1,-1,-1,-1,-1,-1,-1,-1,-1,-1,-1,-1,-1,-1,-1,-1,-1,-1,-1,-1,-1,-1,-1,-1,-1,-1],"split_conditions":[2.4734985E-2,4.0294555E-1,2.1997441E-1,4.619615E-1,8.47966E-1,8.1350826E-2,3.1111827E-1,7.466866E-2,-3.1091247E-2,2.2416012E-2,3.3414504E-1,1.3477236E-1,5.918972E-1,9.019261E-1,2.1277241E-1,6.582295E-2,7.733799E-3,2.2647342E-4,5.7434756E-1,5.230811E-2,-2.359636E-2,6.8462975E-2,7.015752E-1,5.4653063E-2,-4.2864393E-2,1.3607743E-1,1.6364992E-1,3.3294865E-1,6.0076565E-1,-7.5569E-2,-1.0465704E-2,2.6723176E-1,7.739465E-2,5.7402458E-2,8.7550235E-1,4.6978062E-1,2.2374931E-1,2.7888373E-1,4.3592203E-1,1.1680536E-1,-3.2839973E-2,3.4781572E-1,1.5700883E-1,4.5522374E-1,1.8087818E-1,4.716236E-2,-3.200599E-2,-7.228803E-2,1.6051782E-2,-1.6544184E-2,-8.359728E-2,5.812759E-2,-1.5644092E-2,3.4606513E-2,-1.8473497E-2,5.6473255E-2,-2.0408366E-2,-6.713613E-2,-9.323314E-3,3.529468E-2,-3.766091E-2,9.702171E-3,6.299128E-2,-3.8131285E-2,5.4540295E-2,-5.7968628E-3,1.7837053E-2,-2.0777734E-2,-7.93069E-2,4.759075E-2,-5.702532E-2],"split_indices":[12,74,79,122,34,3,79,90,0,56,1,128,110,21,12,0,0,0,6,0,0,52,73,77,0,63,63,27,19,0,0,12,16,116,73,61,77,118,113,114,0,9,128,7,17,0,0,0,0,0,0,0,0,0,0,0,0,0,0,0,0,0,0,0,0,0,0,0,0,0,0],"split_type":[0,0,0,0,0,0,0,0,0,0,0,0,0,0,0,0,0,0,0,0,0,0,0,0,0,0,0,0,0,0,0,0,0,0,0,0,0,0,0,0,0,0,0,0,0,0,0,0,0,0,0,0,0,0,0,0,0,0,0,0,0,0,0,0,0,0,0,0,0,0,0],"sum_hessian":[3.401398E2,2.1574186E1,3.185656E2,5.4547653E0,1.6119421E1,8.175835E1,2.3680727E2,3.4744911E0,1.9802744E0,1.3150044E1,2.9693756E0,3.656231E1,4.5196033E1,3.480398E1,2.020033E2,2.2418113E0,1.2326797E0,1.992024E0,1.1158021E1,1.2405707E0,1.728805E0,1.9383097E1,1.7179213E1,4.3702423E1,1.4936116E0,3.032472E1,4.47926E0,1.8807385E2,1.3929436E1,9.912097E0,1.2459244E0,1.4647294E1,4.7358017E0,1.0716273E1,6.4629393E0,1.6405283E1,2.729714E1,1.5910757E1,1.4413963E1,3.2363389E0,1.242921E0,1.3945407E1,1.7412845E2,9.460687E0,4.468749E0,1.340107E1,1.2462249E0,2.7413318E0,1.9944701E0,5.486869E0,5.2294044E0,2.983932E0,3.4790075E0,8.443611E0,7.961672E0,2.4065699E1,3.2314422E0,1.1950265E1,3.9604924E0,4.9384313E0,9.475533E0,1.2435484E0,1.9927905E0,2.2394772E0,1.1705931E1,1.199277E2,5.4200752E1,5.226465E0,4.2342215E0,2.9822114E0,1.4865376E0],"tree_param":{"num_deleted":"0","num_feature":"130","num_nodes":"71","size_leaf_vector":"1"}},{"base_weights":[-5.593602E-4,-2.4461491E-1,9.922645E-2,2.9996204E-1,-4.428939E-1,8.099399E-1,5.0462324E-2,-7.5414634E-1,5.537547E-1,-8.823956E-1,-5.7483606E-2,-1.8998387E-1,1.137646E0,1.7141092E-1,-1.9936824E-1,-6.3310556E-2,3.0090382E-2,-7.398331E-1,7.8852415E-1,4.1315407E-1,-1.0078635E0,-3.0584472E-1,8.447494E-1,3.2346576E-2,-5.970354E-2,1.3247782E0,-1.3123738E-2,7.746447E-1,8.030369E-2,4.336041E-1,-5.4332024E-1,1.15676215E-2,-6.297418E-2,1.0433358E0,-3.1128073E-1,-3.1001145E-2,5.876848E-2,-1.1527829E0,3.777454E-1,9.260261E-1,-4.624081E-1,7.907021E-2,-2.4488525E-1,7.6080136E-2,1.55929765E-2,-2.4530027E-2,9.58784E-1,-1.2455199E-1,3.9226925E-1,8.9241713E-1,-9.897522E-2,-8.982519E-1,-1.0374775E-1,-6.9297478E-3,5.9759248E-2,4.7538877E-2,-5.39348E-2,-1.1836558E-2,-6.906975E-2,5.35752E-2,-1.9893503E-2,8.780903E-3,6.0027625E-2,5.3905603E-2,-2.8449243E-2,3.7143864E-2,-4.9207505E-2,-4.537765E-3,5.6577176E-2,6.787938E-2,-9.825124E-3,6.4971715E-2,9.879309E-3,-1.9533603E-2,6.447525E-2,-6.49684E-2,1.1199704E-2,-1.9448346E-2,-6.84082E-2,3.1891905E-2,-2.228093E-2],"categories":[],"categories_nodes":[],"categories_segments":[],"categories_sizes":[],"default_left":[0,0,0,0,0,0,0,0,0,0,0,0,0,0,0,0,0,0,0,0,0,0,0,0,0,0,0,0,0,0,0,0,0,0,0,0,0,0,0,0,0,0,0,0,0,0,0,0,0,0,0,0,0,0,0,0,0,0,0,0,0,0,0,0,0,0,0,0,0,0,0,0,0,0,0,0,0,0,0,0,0],"id":8,"left_children":[1,3,5,7,9,11,13,15,17,19,21,23,25,27,29,-1,-1,31,33,35,37,39,41,-1,-1,43,-1,45,47,49,51,-1,-1,53,55,-1,-1,57,59,61,63,-1,65,-1,-1,-1,67,69,71,73,75,77,79,-1,-1,-1,-1,-1,-1,-1,-1,-1,-1,-1,-1,-1,-1,-1,-1,-1,-1,-1,-1,-1,-1,-1,-1,-1,-1,-1,-1],"loss_changes":[8.377021E0,1.0911785E1,8.420969E0,7.705252E0,1.2413588E1,5.3313284E0,6.970319E0,4.7262487E0,7.426107E0,5.9934673E0,9.283014E0,4.7305217E0,3.4656649E0,8.467766E0,1.6638195E1,0E0,0E0,2.2984767E0,5.8048124E0,3.6729348E0,6.775013E0,6.6606812E0,7.5786858E0,0E0,0E0,1.6512432E0,0E0,5.1881523E0,8.737565E0,6.7059007E0,7.592098E0,0E0,0E0,3.0562859E0,5.334121E0,0E0,0E0,5.7103004E0,2.440143E0,6.084454E-1,5.4302697E0,0E0,4.0022697E0,0E0,0E0,0E0,3.369213E0,9.099355E0,9.303309E0,7.9670763E0,5.49911E0,5.9588203E0,6.149875E0,0E0,0E0,0E0,0E0,0E0,0E0,0E0,0E0,0E0,0E0,0E0,0E0,0E0,0E0,0E0,0E0,0E0,0E0,0E0,0E0,0E0,0E0,0E0,0E0,0E0,0E0,0E0,0E0],"parents":[2147483647,0,0,1,1,2,2,3,3,4,4,5,5,6,6,7,7,8,8,9,9,10,10,11,11,12,12,13,13,14,14,17,17,18,18,19,19,20,20,21,21,22,22,25,25,27,27,28,28,29,29,30,30,33,33,34,34,37,37,38,38,39,39,40,40,42,42,46,46,47,47,48,48,49,49,50,50,51,51,52,52],"right_children":[2,4,6,8,10,12,14,16,18,20,22,24,26,28,30,-1,-1,32,34,36,38,40,42,-1,-1,44,-1,46,48,50,52,-1,-1,54,56,-1,-1,58,60,62,64,-1,66,-1,-1,-1,68,70,72,74,76,78,80,-1,-1,-1,-1,-1,-1,-1,-1,-1,-1,-1,-1,-1,-1,-1,-1,-1,-1,-1,-1,-1,-1,-1,-1,-1,-1,-1,-1],"split_conditions":[5.207059E-2,3.6766487E-1,8.3994135E-2,1.40986E-1,5.613774E-1,1.1778804E-1,9.091403E-2,1.7432187E-1,3.4374803E-2,2.3938535E-2,1.7445998E-1,6.696493E-2,8.451441E-1,2.982104E-1,6.733861E-2,-6.3310556E-2,3.0090382E-2,4.0294555E-1,1.708273E-1,5.0174803E-2,6.5896374E-1,4.923785E-1,6.502139E-2,3.2346576E-2,-5.970354E-2,5.918972E-1,-1.3123738E-2,3.189296E-2,7.1464247E-1,8.984764E-2,7.913329E-1,1.15676215E-2,-6.297418E-2,2.036163E-1,3.8936132E-1,-3.1001145E-2,5.876848E-2,1.0008927E-1,7.449118E-2,1.3314292E-1,2.7827187E-2,7.907021E-2,5.226127E-1,7.6080136E-2,1.55929765E-2,-2.4530027E-2,3.1772196E-1,4.290845E-2,9.796088E-2,7.626826E-2,3.429855E-1,5.2162755E-1,8.185654E-2,-6.9297478E-3,5.9759248E-2,4.7538877E-2,-5.39348E-2,-1.1836558E-2,-6.906975E-2,5.35752E-2,-1.9893503E-2,8.780903E-3,6.0027625E-2,5.3905603E-2,-2.8449243E-2,3.7143864E-2,-4.9207505E-2,-4.537765E-3,5.6577176E-2,6.787938E-2,-9.825124E-3,6.4971715E-2,9.879309E-3,-1.9533603E-2,6.447525E-2,-6.49684E-2,1.1199704E-2,-1.9448346E-2,-6.84082E-2,3.1891905E-2,-2.228093E-2],"split_indices":[77,122,63,47,113,11,95,112,116,116,37,63,1,122,116,0,0,113,128,103,6,100,4,0,0,45,0,90,21,25,60,0,0,31,57,0,0,127,82,102,95,0,8,0,0,0,20,127,105,4,83,48,77,0,0,0,0,0,0,0,0,0,0,0,0,0,0,0,0,0,0,0,0,0,0,0,0,0,0,0,0],"split_type":[0,0,0,0,0,0,0,0,0,0,0,0,0,0,0,0,0,0,0,0,0,0,0,0,0,0,0,0,0,0,0,0,0,0,0,0,0,0,0,0,0,0,0,0,0,0,0,0,0,0,0,0,0,0,0,0,0,0,0,0,0,0,0,0,0,0,0,0,0,0,0,0,0,0,0,0,0,0,0,0,0],"sum_hessian":[3.4198248E2,9.882514E1,2.4315733E2,2.6240976E1,7.258417E1,1.4610279E1,2.2854706E2,4.7093873E0,2.153159E1,3.3309853E1,3.927431E1,3.7100694E0,1.0900209E1,1.5420624E2,7.434082E1,3.4664834E0,1.2429038E0,2.9769847E0,1.8554604E1,2.7386227E0,3.057123E1,3.13151E1,7.9592133E0,2.217481E0,1.4925885E0,9.662577E0,1.2376335E0,1.9249573E1,1.3495667E2,2.6081877E1,4.825894E1,1.2310472E0,1.7459377E0,1.5106056E1,3.4485483E0,1.2418529E0,1.4967698E0,2.7828688E1,2.7425425E0,2.9769757E0,2.8338123E1,4.479501E0,3.4797125E0,7.669992E0,1.9925846E0,2.2341492E0,1.7015423E1,8.1825676E1,5.3130993E1,1.3648311E1,1.2433566E1,2.6122738E1,2.2136206E1,1.7297423E0,1.3376313E1,1.2136678E0,2.2348807E0,5.9644732E0,2.1864214E1,1.2462925E0,1.49625E0,1.2365695E0,1.7404062E0,1.2437949E0,2.709433E1,1.487421E0,1.9922916E0,2.4720483E0,1.4543374E1,2.961064E0,7.886461E1,8.384963E0,4.474603E1,3.2294188E0,1.0418892E1,1.9951011E0,1.0438465E1,1.3413303E1,1.2709434E1,6.7116256E0,1.542458E1],"tree_param":{"num_deleted":"0","num_feature":"130","num_nodes":"81","size_leaf_vector":"1"}},{"base_weights":[1.322806E-2,-2.1223728E-1,1.10254996E-1,7.769661E-1,-2.9281542E-1,2.0012869E-1,-3.027958E-1,4.0966406E-2,7.0558034E-2,-4.009256E-1,3.7872192E-1,1.1735562E0,1.5499596E-1,-6.8936825E-2,-1.3939767E0,5.168909E-2,-3.6357727E-2,-4.7433177E-1,6.144179E-1,7.2892374E-1,-5.683023E-1,6.7768246E-3,1.333386E0,1.0957341E-1,1.2040051E0,-6.48359E-1,3.9512566E-1,-7.932291E-2,-1.2069314E-2,-5.712225E-1,4.0674102E-1,6.028099E-2,-2.6103115E-2,-8.445005E-2,1.144017E0,-6.1278146E-2,1.91196E-2,7.6709606E-2,1.6903339E-2,1.9077812E-1,-4.419258E-1,7.568558E-2,-2.6852393E-3,4.3522894E-2,-9.164174E-1,9.3474877E-1,-6.8044E-1,-3.164455E-2,5.0634842E-2,5.9878703E-2,-1.374156E-2,3.2746486E-2,-5.4840326E-2,7.2989166E-2,1.1730314E-2,4.043017E-2,5.386435E-3,-7.771242E-2,-6.6647157E-3,-7.010253E-2,-9.720692E-3,5.8719303E-2,-1.7557891E-2,-6.688623E-2,1.1510261E-2],"categories":[],"categories_nodes":[],"categories_segments":[],"categories_sizes":[],"default_left":[0,0,0,0,0,0,0,0,0,0,0,0,0,0,0,0,0,0,0,0,0,0,0,0,0,0,0,0,0,0,0,0,0,0,0,0,0,0,0,0,0,0,0,0,0,0,0,0,0,0,0,0,0,0,0,0,0,0,0,0,0,0,0,0,0],"id":9,"left_children":[1,3,5,7,9,11,13,15,-1,17,19,21,23,25,27,-1,-1,29,31,33,35,-1,37,39,41,43,45,-1,-1,47,49,-1,-1,51,53,-1,-1,-1,-1,55,57,-1,-1,-1,59,61,63,-1,-1,-1,-1,-1,-1,-1,-1,-1,-1,-1,-1,-1,-1,-1,-1,-1,-1],"loss_changes":[7.3682194E0,8.306404E0,8.798788E0,3.6334095E0,7.0087614E0,8.33795E0,1.0739559E1,4.328432E0,0E0,6.390952E0,4.9283004E0,1.219655E0,8.753859E0,9.941569E0,1.2681303E0,0E0,0E0,6.7957325E0,4.6293793E0,3.5993352E0,3.1157374E0,0E0,9.206476E-1,8.138585E0,3.0570965E0,7.473715E0,1.260532E1,0E0,0E0,7.447363E0,4.7496953E0,0E0,0E0,4.0393267E0,1.6497917E0,0E0,0E0,0E0,0E0,7.992263E0,7.8204784E0,0E0,0E0,0E0,4.7852135E0,4.773941E0,4.77827E0,0E0,0E0,0E0,0E0,0E0,0E0,0E0,0E0,0E0,0E0,0E0,0E0,0E0,0E0,0E0,0E0,0E0,0E0],"parents":[2147483647,0,0,1,1,2,2,3,3,4,4,5,5,6,6,7,7,9,9,10,10,11,11,12,12,13,13,14,14,17,17,18,18,19,19,20,20,22,22,23,23,24,24,25,25,26,26,29,29,30,30,33,33,34,34,39,39,40,40,44,44,45,45,46,46],"right_children":[2,4,6,8,10,12,14,16,-1,18,20,22,24,26,28,-1,-1,30,32,34,36,-1,38,40,42,44,46,-1,-1,48,50,-1,-1,52,54,-1,-1,-1,-1,56,58,-1,-1,-1,60,62,64,-1,-1,-1,-1,-1,-1,-1,-1,-1,-1,-1,-1,-1,-1,-1,-1,-1,-1],"split_conditions":[5.2931067E-2,2.9567164E-1,1.8304062E-1,1.2726624E-1,1.8852164E-1,7.907064E-2,8.09172E-1,3.1004196E-1,7.0558034E-2,7.7207685E-1,1.04201935E-1,3.7029928E-1,7.998256E-1,3.4305915E-1,6.8763465E-2,5.168909E-2,-3.6357727E-2,6.5130305E-1,1.5314953E-1,5.168945E-1,1.14776306E-1,6.7768246E-3,1.0752008E-1,2.0494059E-1,9.647993E-1,1.07594356E-1,7.827392E-1,-7.932291E-2,-1.2069314E-2,1.8947998E-1,7.184871E-1,6.028099E-2,-2.6103115E-2,4.9915358E-1,6.2306374E-1,-6.1278146E-2,1.91196E-2,7.6709606E-2,1.6903339E-2,2.951059E-1,3.4598053E-1,7.568558E-2,-2.6852393E-3,4.3522894E-2,1.3373806E-1,1.10116616E-1,5.7547325E-1,-3.164455E-2,5.0634842E-2,5.9878703E-2,-1.374156E-2,3.2746486E-2,-5.4840326E-2,7.2989166E-2,1.1730314E-2,4.043017E-2,5.386435E-3,-7.771242E-2,-6.6647157E-3,-7.010253E-2,-9.720692E-3,5.8719303E-2,-1.7557891E-2,-6.688623E-2,1.1510261E-2],"split_indices":[77,100,37,115,115,11,28,126,0,113,12,6,35,66,12,0,0,6,114,73,129,0,90,24,8,76,73,0,0,76,58,0,0,35,70,0,0,0,0,31,20,0,0,0,89,116,91,0,0,0,0,0,0,0,0,0,0,0,0,0,0,0,0,0,0],"split_type":[0,0,0,0,0,0,0,0,0,0,0,0,0,0,0,0,0,0,0,0,0,0,0,0,0,0,0,0,0,0,0,0,0,0,0,0,0,0,0,0,0,0,0,0,0,0,0,0,0,0,0,0,0,0,0,0,0,0,0,0,0,0,0,0,0],"sum_hessian":[3.3474457E2,1.0035598E2,2.343886E2,6.9080544E0,9.344793E1,1.9292621E2,4.1462383E1,3.6901424E0,3.2179122E0,8.083702E1,1.2610906E1,7.4407606E0,1.8548546E2,3.5020138E1,6.4422455E0,1.4587779E0,2.2313645E0,7.5883705E1,4.953318E0,9.374568E0,3.236338E0,1.2394055E0,6.201355E0,1.7884581E2,6.6396465E0,1.5397674E1,1.9622465E1,5.197791E0,1.2444546E0,6.8682434E1,7.2012696E0,3.2183053E0,1.7350128E0,3.4367738E0,5.937794E0,1.7425236E0,1.4938143E0,4.709753E0,1.491602E0,1.5646187E2,2.238393E1,5.1643887E0,1.4752581E0,1.9727602E0,1.3424913E1,1.3153922E1,6.4685435E0,6.6686485E1,1.9959525E0,2.9829993E0,4.2182703E0,2.190208E0,1.2465656E0,3.9582207E0,1.9795734E0,1.7504576E1,1.389573E2,3.985188E0,1.8398743E1,7.4631624E0,5.9617515E0,1.1160765E1,1.9931574E0,3.4845114E0,2.9840322E0],"tree_param":{"num_deleted":"0","num_feature":"130","num_nodes":"65","size_leaf_vector":"1"}},{"base_weights":[1.7983735E-2,-4.3501493E-2,3.098785E-1,3.937562E-3,-7.2846717E-1,7.031407E-1,-1.9378683E-2,5.3609725E-2,-4.199329E-1,5.1923033E-2,-9.167148E-1,-6.4710873E-1,8.8062763E-1,-1.2067451E0,1.9352645E-1,-3.4143943E-2,5.7130593E-1,-6.9419545E-1,5.154352E-1,3.1657156E-2,-1.0770005E0,1.0836243E-2,-5.8199752E-2,1.4618972E-1,1.3321861E0,-8.708544E-3,-7.40712E-2,-6.570541E-1,4.8800504E-1,1.1285322E0,-6.243241E-2,7.0523417E-1,-6.2335502E-2,-9.114724E-1,6.223293E-1,9.5324886E-1,-2.580437E-2,-1.3658469E0,-1.0485089E-1,6.9938004E-1,-6.0086745E-1,1.473657E0,7.7525796E-3,3.4604203E-2,-1.0726508E0,6.359579E-1,-5.5838622E-2,1.0215803E-2,6.889337E-2,2.7841057E-3,-1.4252675E-2,4.6018433E-2,2.4634039E-3,-5.510521E-2,1.38708195E-2,5.706785E-2,-1.1677072E-2,-1.1766511E-3,6.758281E-2,8.703654E-3,-7.783495E-2,-4.186421E-2,5.4121714E-2,5.752507E-2,-3.3044778E-2,2.4364753E-2,-6.678818E-2,1.0071099E-2,7.93485E-2,-7.191012E-2,-1.734248E-2,-1.344796E-2,4.755553E-2],"categories":[],"categories_nodes":[],"categories_segments":[],"categories_sizes":[],"default_left":[0,0,0,0,0,0,0,0,0,0,0,0,0,0,0,0,0,0,0,0,0,0,0,0,0,0,0,0,0,0,0,0,0,0,0,0,0,0,0,0,0,0,0,0,0,0,0,0,0,0,0,0,0,0,0,0,0,0,0,0,0,0,0,0,0,0,0,0,0,0,0,0,0],"id":10,"left_children":[1,3,5,7,9,11,13,15,17,-1,19,21,23,25,27,29,31,33,35,-1,37,-1,-1,39,41,-1,-1,43,45,47,49,51,-1,53,55,57,-1,59,61,63,65,67,-1,-1,69,71,-1,-1,-1,-1,-1,-1,-1,-1,-1,-1,-1,-1,-1,-1,-1,-1,-1,-1,-1,-1,-1,-1,-1,-1,-1,-1,-1],"loss_changes":[6.158028E0,9.2206545E0,7.742846E0,5.6292577E0,7.065359E0,7.09534E0,8.692931E0,1.0888557E1,7.5527034E0,0E0,4.940071E0,1.9220997E0,7.9268913E0,1.2242522E0,7.6438947E0,6.8299613E0,9.336176E0,6.8927774E0,3.6229548E0,0E0,4.322857E0,0E0,0E0,4.7377505E0,2.2764416E0,0E0,0E0,5.197211E0,6.003024E0,8.554616E-1,5.3164425E0,4.610056E0,0E0,4.6995125E0,1.9220836E0,2.0625691E0,0E0,3.8501644E0,5.016339E0,4.727379E0,4.6355095E0,1.5991936E0,0E0,0E0,1.216775E0,6.2582464E0,0E0,0E0,0E0,0E0,0E0,0E0,0E0,0E0,0E0,0E0,0E0,0E0,0E0,0E0,0E0,0E0,0E0,0E0,0E0,0E0,0E0,0E0,0E0,0E0,0E0,0E0,0E0],"parents":[2147483647,0,0,1,1,2,2,3,3,4,4,5,5,6,6,7,7,8,8,10,10,11,11,12,12,13,13,14,14,15,15,16,16,17,17,18,18,20,20,23,23,24,24,27,27,28,28,29,29,30,30,31,31,33,33,34,34,35,35,37,37,38,38,39,39,40,40,41,41,44,44,45,45],"right_children":[2,4,6,8,10,12,14,16,18,-1,20,22,24,26,28,30,32,34,36,-1,38,-1,-1,40,42,-1,-1,44,46,48,50,52,-1,54,56,58,-1,60,62,64,66,68,-1,-1,70,72,-1,-1,-1,-1,-1,-1,-1,-1,-1,-1,-1,-1,-1,-1,-1,-1,-1,-1,-1,-1,-1,-1,-1,-1,-1,-1,-1],"split_conditions":[7.1608573E-1,7.1608573E-1,1.329583E-1,8.330214E-1,9.72593E-2,3.138038E-2,4.5193246E-1,6.731696E-1,9.384294E-1,5.1923033E-2,1.663938E-1,5.1341313E-1,6.890144E-2,3.7497744E-1,5.797937E-2,6.399692E-2,7.701959E-1,8.988517E-1,8.503774E-2,3.1657156E-2,7.0363325E-1,1.0836243E-2,-5.8199752E-2,8.3269536E-1,2.8773627E-1,-8.708544E-3,-7.40712E-2,6.059821E-1,9.544392E-1,6.253667E-2,9.200404E-2,1.343884E-1,-6.2335502E-2,9.448659E-1,8.753659E-1,5.671776E-1,-2.580437E-2,9.6849054E-2,6.37969E-1,1.1159129E-1,1.2475253E-1,8.554044E-2,7.7525796E-3,3.4604203E-2,8.141614E-1,1.04289144E-1,-5.5838622E-2,1.0215803E-2,6.889337E-2,2.7841057E-3,-1.4252675E-2,4.6018433E-2,2.4634039E-3,-5.510521E-2,1.38708195E-2,5.706785E-2,-1.1677072E-2,-1.1766511E-3,6.758281E-2,8.703654E-3,-7.783495E-2,-4.186421E-2,5.4121714E-2,5.752507E-2,-3.3044778E-2,2.4364753E-2,-6.678818E-2,1.0071099E-2,7.93485E-2,-7.191012E-2,-1.734248E-2,-1.344796E-2,4.755553E-2],"split_indices":[22,9,115,94,125,77,46,120,28,0,60,97,38,96,17,11,59,60,51,0,22,0,0,99,10,0,0,5,125,77,38,108,0,1,119,61,0,115,113,121,50,115,0,0,9,50,0,0,0,0,0,0,0,0,0,0,0,0,0,0,0,0,0,0,0,0,0,0,0,0,0,0,0],"split_type":[0,0,0,0,0,0,0,0,0,0,0,0,0,0,0,0,0,0,0,0,0,0,0,0,0,0,0,0,0,0,0,0,0,0,0,0,0,0,0,0,0,0,0,0,0,0,0,0,0,0,0,0,0,0,0,0,0,0,0,0,0,0,0,0,0,0,0,0,0,0,0,0,0],"sum_hessian":[3.4136774E2,2.8267545E2,5.8692287E1,2.6529596E2,1.73795E1,2.622902E1,3.246327E1,2.3824968E2,2.7046272E1,1.2384753E0,1.6141026E1,2.7397962E0,2.3489222E1,4.226149E0,2.823712E1,2.0451653E2,3.373315E1,2.1113382E1,5.9328904E0,1.2363391E0,1.4904686E1,1.243065E0,1.496731E0,9.447335E0,1.4041887E1,1.2313478E0,2.994801E0,6.945189E0,2.1291931E1,3.9339666E0,2.0058257E2,3.1988714E1,1.7444346E0,1.8386564E1,2.7268183E0,4.218357E0,1.7145336E0,1.1178375E1,3.7263107E0,5.4646344E0,3.9827013E0,1.231048E1,1.7314063E0,1.4789248E0,5.4662642E0,2.0047369E1,1.244562E0,1.2223823E0,2.7115846E0,1.3154143E2,6.904114E1,2.3784979E1,8.203736E0,1.5908689E1,2.4778748E0,1.4897957E0,1.2370226E0,1.4947026E0,2.7236543E0,1.2423325E0,9.936043E0,2.4869246E0,1.2393863E0,4.2194967E0,1.2451378E0,1.7412894E0,2.2414122E0,1.2339313E0,1.107655E1,2.9825554E0,2.4837086E0,5.216239E0,1.483113E1],"tree_param":{"num_deleted":"0","num_feature":"130","num_nodes":"73","size_leaf_vector":"1"}},{"base_weights":[1.881942E-2,-1.0106561E-2,8.023278E-1,1.0537287E0,-2.9980676E-2,1.0982391E0,-1.8099718E-1,-9.8671075E-3,7.045185E-2,-6.2725544E-1,3.9896416E-3,-2.0562136E-3,1.3120499E0,-5.2478135E-2,3.3884805E-2,-7.127837E-2,-2.7661893E-1,7.057749E-1,-2.2474457E-2,7.4687265E-2,8.654452E-3,4.6229786E-1,-7.536159E-1,-4.3201845E-2,1.0793265E0,-5.7256866E-2,-8.415436E-3,6.1612546E-2,-1.6362341E-2,-5.170345E-2,1.7782347E-2,-1.0226722E-2,6.4533845E-2,2.8501044E-3,-1.3534958E-2],"categories":[],"categories_nodes":[],"categories_segments":[],"categories_sizes":[],"default_left":[0,0,0,0,0,0,0,0,0,0,0,0,0,0,0,0,0,0,0,0,0,0,0,0,0,0,0,0,0,0,0,0,0,0,0],"id":11,"left_children":[1,3,5,7,9,11,13,-1,-1,15,17,-1,19,-1,-1,-1,21,23,25,-1,-1,27,29,-1,31,-1,33,-1,-1,-1,-1,-1,-1,-1,-1],"loss_changes":[7.8204646E0,7.0810547E0,3.773551E0,3.0084004E0,6.6631646E0,2.388958E0,3.4711277E0,0E0,0E0,4.5525303E0,5.803059E0,0E0,1.4178896E0,0E0,0E0,0E0,5.11368E0,7.590889E0,4.7451925E0,0E0,0E0,4.004302E0,3.0420694E0,0E0,2.873376E0,0E0,5.1376595E0,0E0,0E0,0E0,0E0,0E0,0E0,0E0,0E0],"parents":[2147483647,0,0,1,1,2,2,3,3,4,4,5,5,6,6,9,9,10,10,12,12,16,16,17,17,18,18,21,21,22,22,24,24,26,26],"right_children":[2,4,6,8,10,12,14,-1,-1,16,18,-1,20,-1,-1,-1,22,24,26,-1,-1,28,30,-1,32,-1,34,-1,-1,-1,-1,-1,-1,-1,-1],"split_conditions":[8.166067E-1,4.290845E-2,9.633744E-1,3.7153076E-2,2.3115942E-2,4.1082464E-2,8.8122827E-1,-9.8671075E-3,7.045185E-2,4.1160288E-1,7.37753E-2,-2.0562136E-3,3.4232664E-1,-5.2478135E-2,3.3884805E-2,-7.127837E-2,4.654335E-1,1.2000468E-1,7.885323E-2,7.4687265E-2,8.654452E-3,4.4986293E-1,8.47966E-1,-4.3201845E-2,3.9031893E-2,-5.7256866E-2,6.931249E-1,6.1612546E-2,-1.6362341E-2,-5.170345E-2,1.7782347E-2,-1.0226722E-2,6.4533845E-2,2.8501044E-3,-1.3534958E-2],"split_indices":[35,101,34,77,12,43,47,0,0,6,11,0,38,0,0,0,58,115,83,0,0,100,34,0,25,0,87,0,0,0,0,0,0,0,0],"split_type":[0,0,0,0,0,0,0,0,0,0,0,0,0,0,0,0,0,0,0,0,0,0,0,0,0,0,0,0,0,0,0,0,0,0,0],"sum_hessian":[3.4370712E2,3.324217E2,1.1285421E1,5.142276E0,3.2727942E2,8.585063E0,2.7003589E0,1.2357352E0,3.9065406E0,1.6672607E1,3.106068E2,1.484115E0,7.1009474E0,1.2319582E0,1.4684007E0,4.1525736E0,1.2520034E1,1.0354446E1,3.0025238E2,5.8553596E0,1.2455882E0,4.9236364E0,7.596397E0,1.7379324E0,8.616514E0,2.7184978E0,2.9753387E2,2.208868E0,2.7147684E0,6.117506E0,1.478891E0,1.2225156E0,7.393998E0,2.3876495E2,5.876892E1],"tree_param":{"num_deleted":"0","num_feature":"130","num_nodes":"35","size_leaf_vector":"1"}},{"base_weights":[5.2237893E-3,3.6852655E-1,-6.9703E-2,5.549015E-1,-2.9485646E-1,-2.260975E-1,1.494302E-1,-6.930246E-1,6.556065E-1,-1.0878843E0,6.227624E-1,9.472389E-1,-2.7098963E-1,-1.0207276E0,1.952371E-1,-5.6027103E-2,6.764556E-3,2.0597795E-1,9.158593E-1,-1.3222667E0,4.2588874E-3,-3.2172553E-2,6.311538E-2,-1.8111877E-2,7.07925E-2,-7.118936E-2,-5.4794663E-1,-6.412653E-2,-7.498619E-3,-6.7558986E-1,2.6108515E-1,5.348305E-1,-8.5719496E-1,1.0370337E0,-2.7511338E-2,-1.1309381E-2,-7.700206E-2,1.7501077E-2,-1.1161164E0,-8.2938004E-1,-2.5762308E-1,-2.1646738E-2,-6.259187E-2,5.498415E-1,7.1484214E-3,4.2456135E-2,-1.9109387E-2,-5.79758E-2,-1.2111193E-2,5.6783684E-2,-1.0272382E-2,-3.839482E-3,4.479707E-2,1.8043431E-3,-7.713853E-2,2.8416304E-2,-4.498583E-2,1.120925E-3,-5.662328E-2,-3.8632657E-2,4.367754E-2,3.061575E-2,-5.3569134E-2,-1.0084235E-2,4.3308552E-2],"categories":[],"categories_nodes":[],"categories_segments":[],"categories_sizes":[],"default_left":[0,0,0,0,0,0,0,0,0,0,0,0,0,0,0,0,0,0,0,0,0,0,0,0,0,0,0,0,0,0,0,0,0,0,0,0,0,0,0,0,0,0,0,0,0,0,0,0,0,0,0,0,0,0,0,0,0,0,0,0,0,0,0,0,0],"id":12,"left_children":[1,3,5,7,9,11,13,15,17,19,21,23,25,27,29,-1,-1,31,33,35,-1,-1,-1,-1,-1,37,39,-1,-1,41,43,45,47,49,-1,-1,-1,51,53,55,57,59,-1,61,63,-1,-1,-1,-1,-1,-1,-1,-1,-1,-1,-1,-1,-1,-1,-1,-1,-1,-1,-1,-1],"loss_changes":[9.384712E0,7.451236E0,9.830962E0,6.2808228E0,1.0560245E1,9.064443E0,6.613106E0,1.5496984E0,4.8915634E0,2.2156944E0,6.42562E0,4.430525E0,8.915999E0,8.718538E-1,6.8274984E0,0E0,0E0,6.4742966E0,5.404125E0,1.1878672E0,0E0,0E0,0E0,0E0,0E0,8.8384E0,5.315468E0,0E0,0E0,3.1506567E0,7.9561E0,4.289564E0,5.463028E-1,3.3557835E0,0E0,0E0,0E0,7.415601E0,3.7231312E0,3.8450928E0,8.541252E0,4.014728E0,0E0,5.7994757E0,1.0718334E1,0E0,0E0,0E0,0E0,0E0,0E0,0E0,0E0,0E0,0E0,0E0,0E0,0E0,0E0,0E0,0E0,0E0,0E0,0E0,0E0],"parents":[2147483647,0,0,1,1,2,2,3,3,4,4,5,5,6,6,7,7,8,8,9,9,10,10,11,11,12,12,13,13,14,14,17,17,18,18,19,19,25,25,26,26,29,29,30,30,31,31,32,32,33,33,37,37,38,38,39,39,40,40,41,41,43,43,44,44],"right_children":[2,4,6,8,10,12,14,16,18,20,22,24,26,28,30,-1,-1,32,34,36,-1,-1,-1,-1,-1,38,40,-1,-1,42,44,46,48,50,-1,-1,-1,52,54,56,58,60,-1,62,64,-1,-1,-1,-1,-1,-1,-1,-1,-1,-1,-1,-1,-1,-1,-1,-1,-1,-1,-1,-1],"split_conditions":[3.240176E-1,4.1233215E-1,7.022004E-1,7.885323E-2,5.557081E-1,6.399692E-2,6.685446E-2,1.0853341E-1,6.1826725E-2,2.4248189E-1,1.14917874E-1,3.6556665E-2,8.392786E-2,1.7302541E-1,4.432191E-1,-5.6027103E-2,6.764556E-3,1.7209335E-1,1.8294793E-1,1.0660906E-1,4.2588874E-3,-3.2172553E-2,6.311538E-2,-1.8111877E-2,7.07925E-2,6.005895E-1,1.9836381E-1,-6.412653E-2,-7.498619E-3,5.3350527E-2,6.9375145E-1,4.985079E-2,6.3750885E-2,9.209271E-1,-2.7511338E-2,-1.1309381E-2,-7.700206E-2,1.1858095E-1,1.11519426E-1,2.4320522E-1,3.7715808E-1,6.0661936E-1,-6.259187E-2,1.9108914E-1,8.166067E-1,4.2456135E-2,-1.9109387E-2,-5.79758E-2,-1.2111193E-2,5.6783684E-2,-1.0272382E-2,-3.839482E-3,4.479707E-2,1.8043431E-3,-7.713853E-2,2.8416304E-2,-4.498583E-2,1.120925E-3,-5.662328E-2,-3.8632657E-2,4.367754E-2,3.061575E-2,-5.3569134E-2,-1.0084235E-2,4.3308552E-2],"split_indices":[122,83,21,83,48,63,102,77,77,114,89,77,38,49,32,0,0,50,17,114,0,0,0,0,0,22,114,0,0,25,31,77,95,2,0,0,0,43,89,35,23,87,0,95,35,0,0,0,0,0,0,0,0,0,0,0,0,0,0,0,0,0,0,0,0],"split_type":[0,0,0,0,0,0,0,0,0,0,0,0,0,0,0,0,0,0,0,0,0,0,0,0,0,0,0,0,0,0,0,0,0,0,0,0,0,0,0,0,0,0,0,0,0,0,0,0,0,0,0,0,0,0,0,0,0,0,0,0,0,0,0,0,0],"sum_hessian":[3.42815E2,5.794321E1,2.848718E2,4.5362354E1,1.2580855E1,1.6621385E2,1.1865794E2,2.9480991E0,4.2414257E1,6.6490436E0,5.931812E0,5.3843317E0,1.6082951E2,3.6682246E0,1.14989716E2,1.711796E0,1.2363031E0,1.6206453E1,2.6207804E1,5.435764E0,1.2132797E0,1.9885814E0,3.9432302E0,1.4788538E0,3.905478E0,9.415904E1,6.667048E1,2.4566956E0,1.2115293E0,7.4327874E0,1.0755693E2,1.2757384E1,3.4490683E0,2.4477362E1,1.7304423E0,1.2388997E0,4.196864E0,8.769868E1,6.4603624E0,3.291075E1,3.3759727E1,3.9676943E0,3.4650934E0,4.9782738E1,5.777419E1,9.5562E0,3.201184E0,1.718681E0,1.7303873E0,2.2756683E1,1.7206783E0,8.002181E1,7.676861E0,1.9931551E0,4.4672074E0,1.2375927E0,3.1673157E1,2.6311617E1,7.44811E0,2.232053E0,1.7356412E0,4.8534775E1,1.2479624E0,4.7091263E1,1.0682929E1],"tree_param":{"num_deleted":"0","num_feature":"130","num_nodes":"65","size_leaf_vector":"1"}},{"base_weights":[-1.1919234E-2,-1.150142E0,1.658617E-2,1.3156243E-2,-7.165619E-2,-1.3378535E-1,1.585258E-1,-6.0288943E-3,-5.573026E-1,2.1030167E-1,-5.627302E-1,-4.6774182E-1,9.813028E-2,3.368077E-1,-7.2653586E-1,3.7793052E-1,-4.3264683E-2,-1.2253151E0,8.496974E-2,-6.9130546E-1,8.9908296E-1,8.780326E-1,-2.071248E-2,8.2746094E-1,-5.0727714E-2,1.9778852E-1,-9.123775E-1,-8.4691846E-1,4.4573253E-1,-2.5630724E-1,5.7600987E-1,-7.259746E-2,-9.720092E-3,5.8097698E-2,-4.9281454E-1,7.119722E-3,-6.1786365E-2,5.812295E-2,1.0088368E-2,6.5074146E-2,4.849112E-3,-3.1642124E-2,6.2905587E-3,-1.3166352E-2,6.0490903E-2,-5.418968E-2,3.695936E-2,3.1980164E-2,-5.060739E-2,1.2976268E-2,-6.1577376E-2,-2.7026672E-2,2.6102765E-2,1.6147412E-2,-2.4467075E-2,4.976278E-2,-1.898646E-2,2.9352972E-2,-4.875276E-2],"categories":[],"categories_nodes":[],"categories_segments":[],"categories_sizes":[],"default_left":[0,0,0,0,0,0,0,0,0,0,0,0,0,0,0,0,0,0,0,0,0,0,0,0,0,0,0,0,0,0,0,0,0,0,0,0,0,0,0,0,0,0,0,0,0,0,0,0,0,0,0,0,0,0,0,0,0,0,0],"id":13,"left_children":[1,3,5,-1,-1,7,9,11,13,15,17,19,21,23,25,27,29,31,33,35,37,39,41,43,-1,45,47,49,51,53,55,-1,-1,-1,57,-1,-1,-1,-1,-1,-1,-1,-1,-1,-1,-1,-1,-1,-1,-1,-1,-1,-1,-1,-1,-1,-1,-1,-1],"loss_changes":[1.1125451E1,3.7274818E0,7.169871E0,0E0,0E0,8.825681E0,6.569607E0,6.123346E0,5.965102E0,6.898393E0,5.1864843E0,7.7824883E0,9.651728E0,5.2819424E0,5.6953926E0,8.480903E0,8.767444E0,1.1006384E0,4.881045E0,9.573925E0,4.5029163E-1,4.4269934E0,8.256862E0,2.5983372E0,0E0,5.10035E0,4.8139763E0,2.6444495E0,7.2912292E0,6.81339E0,7.2022247E0,0E0,0E0,0E0,3.2847521E0,0E0,0E0,0E0,0E0,0E0,0E0,0E0,0E0,0E0,0E0,0E0,0E0,0E0,0E0,0E0,0E0,0E0,0E0,0E0,0E0,0E0,0E0,0E0,0E0],"parents":[2147483647,0,0,1,1,2,2,5,5,6,6,7,7,8,8,9,9,10,10,11,11,12,12,13,13,14,14,15,15,16,16,17,17,18,18,19,19,20,20,21,21,22,22,23,23,25,25,26,26,27,27,28,28,29,29,30,30,34,34],"right_children":[2,4,6,-1,-1,8,10,12,14,16,18,20,22,24,26,28,30,32,34,36,38,40,42,44,-1,46,48,50,52,54,56,-1,-1,-1,58,-1,-1,-1,-1,-1,-1,-1,-1,-1,-1,-1,-1,-1,-1,-1,-1,-1,-1,-1,-1,-1,-1,-1,-1],"split_conditions":[1.4129354E-2,1.0879961E-1,7.501394E-2,1.3156243E-2,-7.165619E-2,1.19062535E-1,8.7941533E-1,2.0102562E-1,3.5346046E-2,1.5176235E-1,7.540834E-2,4.6878356E-1,3.5784996E-1,1.6805325E-1,4.1483905E-2,2.2416012E-2,8.422376E-1,8.471409E-1,1.307174E-1,3.240176E-1,7.335503E-2,4.9583235E-1,3.697382E-2,2.6226145E-1,-5.0727714E-2,1.14170566E-1,6.0966916E-2,1.3178794E-1,6.159886E-2,4.286779E-1,8.6572313E-1,-7.259746E-2,-9.720092E-3,5.8097698E-2,3.7785802E-2,7.119722E-3,-6.1786365E-2,5.812295E-2,1.0088368E-2,6.5074146E-2,4.849112E-3,-3.1642124E-2,6.2905587E-3,-1.3166352E-2,6.0490903E-2,-5.418968E-2,3.695936E-2,3.1980164E-2,-5.060739E-2,1.2976268E-2,-6.1577376E-2,-2.7026672E-2,2.6102765E-2,1.6147412E-2,-2.4467075E-2,4.976278E-2,-1.898646E-2,2.9352972E-2,-4.875276E-2],"split_indices":[77,115,129,0,0,103,120,86,51,89,25,113,96,11,90,69,112,8,102,122,43,55,103,112,0,63,94,11,53,22,109,0,0,0,103,0,0,0,0,0,0,0,0,0,0,0,0,0,0,0,0,0,0,0,0,0,0,0,0],"split_type":[0,0,0,0,0,0,0,0,0,0,0,0,0,0,0,0,0,0,0,0,0,0,0,0,0,0,0,0,0,0,0,0,0,0,0,0,0,0,0,0,0,0,0,0,0,0,0,0,0,0,0,0,0,0,0,0,0,0,0],"sum_hessian":[3.413086E2,7.3774705E0,3.3393112E2,1.2424754E0,6.134995E0,1.6217723E2,1.7175389E2,1.2537221E2,3.6805027E1,1.609112E2,1.0842704E1,2.2434544E1,1.0293766E2,5.7000036E0,3.1105024E1,9.657588E1,6.4335304E1,4.918933E0,5.923771E0,1.9705633E1,2.7289114E0,1.2766918E1,9.0170746E1,4.4661245E0,1.2338792E0,5.196214E0,2.590881E1,4.4628606E0,9.211302E1,4.830393E1,1.603138E1,3.69764E0,1.221293E0,1.7153409E0,4.2084303E0,8.076358E0,1.1629275E1,1.496598E0,1.2323134E0,7.8465495E0,4.920369E0,1.6774227E1,7.3396515E1,1.2399893E0,3.226135E0,1.2456678E0,3.9505465E0,1.2381392E0,2.4670671E1,1.235117E0,3.2277434E0,6.1793528E0,8.593367E1,1.374701E1,3.455692E1,1.1114522E1,4.9168577E0,1.2320845E0,2.9763458E0],"tree_param":{"num_deleted":"0","num_feature":"130","num_nodes":"59","size_leaf_vector":"1"}},{"base_weights":[-5.042311E-3,-7.0455533E-1,4.279175E-2,8.077556E-2,-1.0462035E0,3.1111217E-1,-6.1385956E-2,-5.6061006E-1,9.1397196E-1,-1.216372E0,1.6785169E-2,1.7128864E-1,9.5013624E-1,-6.0890734E-1,1.1971333E-2,1.5324699E-2,-5.1053345E-2,1.2324861E-2,5.699308E-2,-1.386479E0,1.4818232E-2,2.680859E-1,-6.8526876E-1,1.1300353E0,-3.2345086E-2,5.178385E-1,-8.078788E-1,-9.320228E-1,6.1885867E-2,-5.332627E-3,-7.56953E-2,8.280295E-1,3.990583E-2,-6.980911E-2,2.9321037E-2,1.2814823E0,-1.4477138E-2,-1.6702017E-2,5.0730098E-2,-9.829234E-1,5.033434E-1,3.0313855E-2,-1.2073057E0,-8.487909E-1,9.483507E-2,5.0777346E-2,-2.8838038E-2,-3.373158E-2,1.5513914E-2,5.1941372E-2,-3.468443E-2,2.2112574E-2,7.486665E-2,-5.4804873E-2,8.956868E-3,5.0535817E-2,-1.1679183E-2,-7.5132854E-2,-3.823798E-3,1.3846399E-2,-6.763881E-2,2.5972798E-2,3.1310727E-4],"categories":[],"categories_nodes":[],"categories_segments":[],"categories_sizes":[],"default_left":[0,0,0,0,0,0,0,0,0,0,0,0,0,0,0,0,0,0,0,0,0,0,0,0,0,0,0,0,0,0,0,0,0,0,0,0,0,0,0,0,0,0,0,0,0,0,0,0,0,0,0,0,0,0,0,0,0,0,0,0,0,0,0],"id":14,"left_children":[1,3,5,7,9,11,13,15,17,19,-1,21,23,25,27,-1,-1,-1,-1,29,-1,31,33,35,-1,37,39,41,43,-1,-1,45,47,-1,49,51,-1,-1,-1,53,55,-1,57,59,61,-1,-1,-1,-1,-1,-1,-1,-1,-1,-1,-1,-1,-1,-1,-1,-1,-1,-1],"loss_changes":[1.1452941E1,5.96241E0,8.977293E0,4.5575976E0,4.0151196E0,7.860277E0,9.312678E0,2.26813E0,2.7277756E-1,3.9806538E0,0E0,6.3932204E0,5.299238E0,6.559495E0,9.730665E0,0E0,0E0,0E0,0E0,1.9009495E0,0E0,8.65609E0,4.0467486E0,3.5216274E0,0E0,2.3366027E0,5.927985E0,5.124139E0,5.9591775E0,0E0,0E0,5.7590866E0,9.746813E0,0E0,4.305735E0,1.7699223E0,0E0,0E0,0E0,2.9874496E0,1.5257659E0,0E0,2.9350615E0,4.312817E0,7.1416883E0,0E0,0E0,0E0,0E0,0E0,0E0,0E0,0E0,0E0,0E0,0E0,0E0,0E0,0E0,0E0,0E0,0E0,0E0],"parents":[2147483647,0,0,1,1,2,2,3,3,4,4,5,5,6,6,7,7,8,8,9,9,11,11,12,12,13,13,14,14,19,19,21,21,22,22,23,23,25,25,26,26,27,27,28,28,31,31,32,32,34,34,35,35,39,39,40,40,42,42,43,43,44,44],"right_children":[2,4,6,8,10,12,14,16,18,20,-1,22,24,26,28,-1,-1,-1,-1,30,-1,32,34,36,-1,38,40,42,44,-1,-1,46,48,-1,50,52,-1,-1,-1,54,56,-1,58,60,62,-1,-1,-1,-1,-1,-1,-1,-1,-1,-1,-1,-1,-1,-1,-1,-1,-1,-1],"split_conditions":[2.4734985E-2,3.768935E-1,2.2950236E-1,2.6199633E-2,9.418517E-1,1.7539878E-1,8.708589E-2,2.0117851E-2,3.5017908E-1,1.2342037E-1,1.6785169E-2,1.63978E-1,1.2895294E-1,2.1815848E-2,2.5791642E-1,1.5324699E-2,-5.1053345E-2,1.2324861E-2,5.699308E-2,1.7897604E-2,1.4818232E-2,4.0435094E-1,7.560667E-1,1.23909354E-1,-3.2345086E-2,1.0135097E-1,6.8233496E-1,2.3309125E-1,4.6488117E-2,-5.332627E-3,-7.56953E-2,1.075814E-1,4.7306076E-1,-6.980911E-2,8.193675E-1,6.1844982E-2,-1.4477138E-2,-1.6702017E-2,5.0730098E-2,9.433568E-1,1.20106325E-1,3.0313855E-2,1.6364747E-1,5.4226086E-2,3.2745084E-1,5.0777346E-2,-2.8838038E-2,-3.373158E-2,1.5513914E-2,5.1941372E-2,-3.468443E-2,2.2112574E-2,7.486665E-2,-5.4804873E-2,8.956868E-3,5.0535817E-2,-1.1679183E-2,-7.5132854E-2,-3.823798E-3,1.3846399E-2,-6.763881E-2,2.5972798E-2,3.1310727E-4],"split_indices":[12,70,94,95,99,115,76,82,18,25,0,116,30,4,80,0,0,0,0,116,0,122,99,4,0,88,33,80,99,0,0,108,8,0,86,108,0,0,0,8,4,0,128,51,122,0,0,0,0,0,0,0,0,0,0,0,0,0,0,0,0,0,0],"split_type":[0,0,0,0,0,0,0,0,0,0,0,0,0,0,0,0,0,0,0,0,0,0,0,0,0,0,0,0,0,0,0,0,0,0,0,0,0,0,0,0,0,0,0,0,0,0,0,0,0,0,0,0,0,0,0,0,0,0,0,0,0,0,0],"sum_hessian":[3.4038086E2,2.090739E1,3.1947348E2,6.5696373E0,1.4337753E1,8.879261E1,2.3068086E2,3.896958E0,2.6726792E0,1.2872425E1,1.4653282E0,7.389241E1,1.4900196E1,2.6392551E1,2.0428831E2,1.4676118E0,2.4293466E0,1.2045671E0,1.4681121E0,1.1646268E1,1.2261578E0,6.700713E1,6.885277E0,1.3654497E1,1.2456989E0,3.7206254E0,2.2671926E1,9.371936E0,1.9491638E2,1.2209085E0,1.0425359E1,1.8639006E1,4.8368126E1,2.9733753E0,3.9119015E0,1.2426104E1,1.2283936E0,1.4911247E0,2.2295008E0,2.0222635E1,2.449291E0,1.2400532E0,8.131883E0,5.941441E0,1.8897493E2,1.6688444E1,1.9505625E0,1.2867319E1,3.550081E1,1.4502172E0,2.4616842E0,3.165903E0,9.2602005E0,1.847965E1,1.742985E0,1.2305388E0,1.2187521E0,6.187115E0,1.9447671E0,1.9767118E0,3.9647295E0,3.177587E1,1.5719907E2],"tree_param":{"num_deleted":"0","num_feature":"130","num_nodes":"63","size_leaf_vector":"1"}},{"base_weights":[1.146549E-3,-2.965298E-2,7.337296E-1,1.756869E-1,-1.14674374E-1,-2.5947541E-2,9.564429E-1,3.480018E-1,-2.232685E-1,-3.5662037E-1,9.744701E-3,1.1250592E0,-1.4373603E-2,9.7487174E-2,7.495328E-1,-4.1626978E-1,7.7007365E-1,-9.634254E-1,-2.2289732E-1,2.0901154E-1,-2.2107366E-1,7.37161E-2,1.2356366E-1,2.666943E-1,-7.1619785E-1,-1.0841535E-1,9.6599793E-1,1.3924016E-1,-8.322105E-1,6.759778E-2,-3.005146E-2,-1.324722E0,4.0050378E-1,2.3356523E-1,-4.1294727E-1,-1.4768493E-1,5.072446E-1,7.657101E-1,-3.6716336E-1,-2.8810536E-2,4.6087135E-2,2.7674058E-2,-1.4377284E-2,1.3323138E-2,-5.4899137E-2,-3.8380638E-2,3.2111835E-2,7.187622E-2,2.3061851E-2,3.678019E-2,-3.844916E-2,6.273178E-3,-6.588894E-2,-7.6662906E-2,1.1642501E-2,5.3739488E-2,-2.6767297E-2,-2.566178E-2,3.445098E-2,-3.613794E-3,-4.6023905E-2,3.460933E-2,-1.8793749E-2,7.699854E-3,4.499465E-2,5.981804E-2,-2.2909982E-2,-2.2634557E-2,1.8643478E-2],"categories":[],"categories_nodes":[],"categories_segments":[],"categories_sizes":[],"default_left":[0,0,0,0,0,0,0,0,0,0,0,0,0,0,0,0,0,0,0,0,0,0,0,0,0,0,0,0,0,0,0,0,0,0,0,0,0,0,0,0,0,0,0,0,0,0,0,0,0,0,0,0,0,0,0,0,0,0,0,0,0,0,0,0,0,0,0,0,0],"id":15,"left_children":[1,3,5,7,9,-1,11,13,15,17,19,21,-1,23,25,27,29,31,33,35,37,-1,39,41,43,45,47,49,51,-1,-1,53,55,57,59,61,63,65,67,-1,-1,-1,-1,-1,-1,-1,-1,-1,-1,-1,-1,-1,-1,-1,-1,-1,-1,-1,-1,-1,-1,-1,-1,-1,-1,-1,-1,-1,-1],"loss_changes":[7.7101307E0,5.74579E0,4.342682E0,6.7066054E0,7.003415E0,0E0,2.852378E0,6.7400017E0,6.013504E0,6.1953373E0,7.1541324E0,3.6030378E0,0E0,6.0918474E0,4.9097176E0,6.010857E0,4.9466934E0,7.4117956E0,5.8248153E0,8.952423E0,1.0673097E1,0E0,2.7036238E0,5.914549E0,3.162419E0,3.517258E0,4.2782555E0,6.9462833E0,7.016178E0,0E0,0E0,4.018223E0,2.905275E0,7.173229E0,8.056847E0,7.691559E0,6.196805E0,5.618687E0,4.1858177E0,0E0,0E0,0E0,0E0,0E0,0E0,0E0,0E0,0E0,0E0,0E0,0E0,0E0,0E0,0E0,0E0,0E0,0E0,0E0,0E0,0E0,0E0,0E0,0E0,0E0,0E0,0E0,0E0,0E0,0E0],"parents":[2147483647,0,0,1,1,2,2,3,3,4,4,6,6,7,7,8,8,9,9,10,10,11,11,13,13,14,14,15,15,16,16,17,17,18,18,19,19,20,20,22,22,23,23,24,24,25,25,26,26,27,27,28,28,31,31,32,32,33,33,34,34,35,35,36,36,37,37,38,38],"right_children":[2,4,6,8,10,-1,12,14,16,18,20,22,-1,24,26,28,30,32,34,36,38,-1,40,42,44,46,48,50,52,-1,-1,54,56,58,60,62,64,66,68,-1,-1,-1,-1,-1,-1,-1,-1,-1,-1,-1,-1,-1,-1,-1,-1,-1,-1,-1,-1,-1,-1,-1,-1,-1,-1,-1,-1,-1,-1],"split_conditions":[8.166067E-1,4.2262697E-1,4.6305135E-1,1.58408E-1,4.489015E-1,-2.5947541E-2,9.609983E-1,2.222565E-1,6.023658E-1,3.2655045E-2,8.459027E-2,5.6379145E-1,-1.4373603E-2,9.835466E-2,1.6496202E-1,5.9322968E-2,6.711876E-1,9.5852114E-2,6.395636E-2,1.3148484E-1,3.7153076E-2,7.37161E-2,8.888882E-1,1.6783197E-1,1.2881897E-1,4.334959E-1,3.8649336E-1,4.560592E-1,1.3584283E-1,6.759778E-2,-3.005146E-2,6.3846326E-1,1.5552416E-1,4.2206976E-1,4.0439874E-1,5.532663E-2,7.266104E-1,5.8251864E-1,9.609983E-1,-2.8810536E-2,4.6087135E-2,2.7674058E-2,-1.4377284E-2,1.3323138E-2,-5.4899137E-2,-3.8380638E-2,3.2111835E-2,7.187622E-2,2.3061851E-2,3.678019E-2,-3.844916E-2,6.273178E-3,-6.588894E-2,-7.6662906E-2,1.1642501E-2,5.3739488E-2,-2.6767297E-2,-2.566178E-2,3.445098E-2,-3.613794E-3,-4.6023905E-2,3.460933E-2,-1.8793749E-2,7.699854E-3,4.499465E-2,5.981804E-2,-2.2909982E-2,-2.2634557E-2,1.8643478E-2],"split_indices":[35,126,59,89,46,0,99,36,5,103,90,46,0,30,47,4,18,64,103,50,51,0,47,76,24,127,44,110,73,0,0,109,63,60,59,25,99,123,112,0,0,0,0,0,0,0,0,0,0,0,0,0,0,0,0,0,0,0,0,0,0,0,0,0,0,0,0,0,0],"split_type":[0,0,0,0,0,0,0,0,0,0,0,0,0,0,0,0,0,0,0,0,0,0,0,0,0,0,0,0,0,0,0,0,0,0,0,0,0,0,0,0,0,0,0,0,0,0,0,0,0,0,0,0,0,0,0,0,0,0,0,0,0,0,0,0,0,0,0,0,0],"sum_hessian":[3.3974817E2,3.2696146E2,1.2786713E1,9.542613E1,2.3153532E2,1.7293916E0,1.1057321E1,6.67315E1,2.8694635E1,7.799654E1,1.5353879E2,9.821533E0,1.2357875E0,4.18587E1,2.4872795E1,2.4512854E1,4.1817813E0,1.2964037E1,6.50325E1,8.245198E1,7.10868E1,6.9319544E0,2.8895788E0,3.520914E1,6.6495595E0,5.1117597E0,1.9761036E1,1.0780367E1,1.3732487E1,2.945645E0,1.2361364E0,1.0271835E1,2.6922016E0,1.904976E1,4.5982742E1,3.777575E1,4.467623E1,8.620053E0,6.246675E1,1.6878825E0,1.2016963E0,2.3203863E1,1.2005278E1,1.9451299E0,4.704429E0,2.7096453E0,2.4021142E0,9.261448E0,1.0499588E1,6.6221495E0,4.1582174E0,4.869705E0,8.862782E0,9.07274E0,1.1990963E0,1.4784817E0,1.21372E0,7.168625E0,1.1881136E1,2.8197834E1,1.7784906E1,7.6363144E0,3.0139433E1,2.4250965E1,2.0425266E1,6.393067E0,2.2269862E0,5.6343277E1,6.123473E0],"tree_param":{"num_deleted":"0","num_feature":"130","num_nodes":"69","size_leaf_vector":"1"}},{"base_weights":[2.5530279E-2,-8.1326365E-2,2.502168E-1,3.173812E-1,-1.6862497E-1,-5.152641E-1,3.2720682E-1,4.6723616E-1,-6.849498E-2,-1.2214731E-1,-1.2178661E0,3.3561945E-2,-7.811951E-1,7.594185E-1,1.6847856E-1,7.4892193E-1,-1.5083474E-1,4.4327724E-1,-1.9620125E-1,-7.4337944E-3,-7.42381E-2,-1.0599141E0,2.868687E-2,4.444111E-2,1.050284E0,2.4857561E-1,-5.9023E-2,-1.6857646E-1,9.918889E-1,-3.7977314E-1,5.0892062E-2,7.982274E-1,-4.860133E-1,-3.8498032E-1,3.4324348E-2,-1.1732319E-3,-1.2962279E0,5.95197E-1,-5.559894E-2,1.1501383E0,-1.1635356E-2,3.732717E-1,-3.7287575E-1,3.0869225E-2,-5.3240795E-2,-1.0922569E-2,6.53644E-2,1.8508893E-2,-5.3363558E-2,4.748036E-2,-2.0994255E-2,-5.6690156E-2,1.6943684E-2,3.2831576E-2,-2.2640731E-2,-9.055635E-3,2.4102468E-2,-7.4533336E-2,-1.3083785E-2,5.030886E-2,-3.3590518E-2,6.677457E-2,3.612979E-3,3.1087056E-2,-1.390846E-3,5.51339E-3,-5.3730268E-2],"categories":[],"categories_nodes":[],"categories_segments":[],"categories_sizes":[],"default_left":[0,0,0,0,0,0,0,0,0,0,0,0,0,0,0,0,0,0,0,0,0,0,0,0,0,0,0,0,0,0,0,0,0,0,0,0,0,0,0,0,0,0,0,0,0,0,0,0,0,0,0,0,0,0,0,0,0,0,0,0,0,0,0,0,0,0,0],"id":16,"left_children":[1,3,5,7,9,11,13,15,-1,17,19,-1,21,23,25,27,29,31,33,-1,-1,35,-1,37,39,41,-1,43,45,47,-1,49,51,53,55,-1,57,59,-1,61,-1,63,65,-1,-1,-1,-1,-1,-1,-1,-1,-1,-1,-1,-1,-1,-1,-1,-1,-1,-1,-1,-1,-1,-1,-1,-1],"loss_changes":[8.297954E0,8.212302E0,6.7317743E0,1.1373823E1,9.260778E0,3.8580813E0,6.8558645E0,7.030799E0,0E0,7.8700686E0,2.0829973E0,0E0,4.042109E0,5.580432E0,8.47687E0,6.2891912E0,3.9375288E0,7.5893555E0,7.195773E0,0E0,0E0,1.902792E0,0E0,6.3104277E0,2.7260532E0,5.7435327E0,0E0,5.309711E0,8.629618E0,6.4925513E0,0E0,3.3816338E0,3.9407387E0,6.7144833E0,7.343272E0,0E0,8.991556E-1,4.143384E0,0E0,3.4941216E0,0E0,6.069996E0,4.3857946E0,0E0,0E0,0E0,0E0,0E0,0E0,0E0,0E0,0E0,0E0,0E0,0E0,0E0,0E0,0E0,0E0,0E0,0E0,0E0,0E0,0E0,0E0,0E0,0E0],"parents":[2147483647,0,0,1,1,2,2,3,3,4,4,5,5,6,6,7,7,9,9,10,10,12,12,13,13,14,14,15,15,16,16,17,17,18,18,21,21,23,23,24,24,25,25,27,27,28,28,29,29,31,31,32,32,33,33,34,34,36,36,37,37,39,39,41,41,42,42],"right_children":[2,4,6,8,10,12,14,16,-1,18,20,-1,22,24,26,28,30,32,34,-1,-1,36,-1,38,40,42,-1,44,46,48,-1,50,52,54,56,-1,58,60,-1,62,-1,64,66,-1,-1,-1,-1,-1,-1,-1,-1,-1,-1,-1,-1,-1,-1,-1,-1,-1,-1,-1,-1,-1,-1,-1,-1],"split_conditions":[7.779725E-1,2.9669827E-1,4.4803065E-1,2.1901271E-1,2.602194E-1,3.681573E-2,6.3483614E-1,4.286779E-1,-6.849498E-2,8.517512E-2,4.4886045E-2,3.3561945E-2,3.472204E-1,4.4169277E-2,9.190067E-1,2.3158088E-1,5.122496E-1,3.3851075E-1,2.0669506E-1,-7.4337944E-3,-7.42381E-2,8.193675E-1,2.868687E-2,1.2889136E-1,3.1036207E-1,7.334265E-1,-5.9023E-2,1.2835598E-1,1.353832E-1,4.2998645E-1,5.0892062E-2,9.3674296E-1,1.4562367E-1,1.6864963E-2,1.5039489E-1,-1.1732319E-3,7.246692E-1,1.6856293E-1,-5.559894E-2,7.55831E-1,-1.1635356E-2,1.4430489E-1,3.3700275E-1,3.0869225E-2,-5.3240795E-2,-1.0922569E-2,6.53644E-2,1.8508893E-2,-5.3363558E-2,4.748036E-2,-2.0994255E-2,-5.6690156E-2,1.6943684E-2,3.2831576E-2,-2.2640731E-2,-9.055635E-3,2.4102468E-2,-7.4533336E-2,-1.3083785E-2,5.030886E-2,-3.3590518E-2,6.677457E-2,3.612979E-3,3.1087056E-2,-1.390846E-3,5.51339E-3,-5.3730268E-2],"split_indices":[21,70,111,115,11,116,31,22,0,88,129,0,49,4,29,84,58,28,88,0,0,21,0,116,36,126,0,89,127,71,0,73,63,56,76,0,35,64,0,9,0,76,1,0,0,0,0,0,0,0,0,0,0,0,0,0,0,0,0,0,0,0,0,0,0,0,0],"split_type":[0,0,0,0,0,0,0,0,0,0,0,0,0,0,0,0,0,0,0,0,0,0,0,0,0,0,0,0,0,0,0,0,0,0,0,0,0,0,0,0,0,0,0,0,0,0,0,0,0,0,0,0,0,0,0,0,0,0,0,0,0,0,0,0,0,0,0],"sum_hessian":[3.4376736E2,2.3340326E2,1.1036411E2,4.1451527E1,1.9195174E2,9.565506E0,1.007986E2,3.8734432E1,2.7170944E0,1.8487868E2,7.073056E0,1.4723266E0,8.09318E0,2.6058311E1,7.4740295E1,2.6462458E1,1.2271973E1,2.0832243E1,1.6404643E2,1.7239466E0,5.3491096E0,6.8929825E0,1.2001973E0,7.8687954E0,1.8189516E1,7.132112E1,3.4191687E0,5.6045566E0,2.08579E1,1.0826207E1,1.4457657E0,1.5176493E1,5.6557508E0,8.98212E1,7.4225235E1,1.4839251E0,5.409057E0,5.6589684E0,2.2098267E0,1.6972137E1,1.2173784E0,5.973456E1,1.1586565E1,3.1517527E0,2.4528039E0,4.3752623E0,1.648264E1,5.398672E0,5.427535E0,1.3694988E1,1.4815041E0,2.9581773E0,2.6975737E0,4.9611773E0,8.4860016E1,5.051421E1,2.3711027E1,4.182161E0,1.2268965E0,4.428391E0,1.2305773E0,1.4277894E1,2.6942427E0,3.6545155E1,2.3189402E1,7.361208E0,4.225357E0],"tree_param":{"num_deleted":"0","num_feature":"130","num_nodes":"67","size_leaf_vector":"1"}},{"base_weights":[2.2215543E-2,-4.3940675E-1,5.5908054E-2,2.3940825E-1,-7.597725E-1,1.0603894E0,3.7344523E-2,-2.8660491E-2,6.2573004E-1,-1.0824531E0,4.4311833E-2,6.520887E-2,3.5462484E-3,1.1549559E-2,6.886733E-1,5.6839075E-2,-1.5478158E-2,-1.2559742E0,3.066185E-3,4.100603E-2,-7.028579E-1,1.9736621E-1,-7.648977E-2,-3.3828586E-1,1.054356E0,-1.7549854E-3,-7.0493616E-2,-4.657798E-2,-7.6007354E-3,5.7630426E-1,8.516315E-3,-4.7967106E-2,-9.9870837E-1,-4.593481E-2,2.6587322E-2,5.606271E-4,1.2093894E0,-3.440318E-4,4.5345824E-2,-2.1118699E-2,1.4834399E-2,-2.3138981E-2,4.8166217E-4,-9.67899E-3,-6.9743924E-2,7.025289E-2,3.6687907E-3],"categories":[],"categories_nodes":[],"categories_segments":[],"categories_sizes":[],"default_left":[0,0,0,0,0,0,0,0,0,0,0,0,0,0,0,0,0,0,0,0,0,0,0,0,0,0,0,0,0,0,0,0,0,0,0,0,0,0,0,0,0,0,0,0,0,0,0],"id":17,"left_children":[1,3,5,7,9,11,13,-1,15,17,19,-1,-1,21,23,-1,-1,25,-1,-1,27,29,31,33,35,-1,-1,-1,-1,37,39,41,43,-1,-1,-1,45,-1,-1,-1,-1,-1,-1,-1,-1,-1,-1],"loss_changes":[5.3482265E0,5.269813E0,5.925315E0,2.9523296E0,4.234189E0,1.2988639E0,5.2864237E0,0E0,3.256994E0,2.3699503E0,3.8116064E0,0E0,0E0,4.9904976E0,4.858478E0,0E0,0E0,1.8440323E0,0E0,0E0,2.843926E-1,7.0119877E0,5.3992176E0,2.4603405E0,1.4553165E0,0E0,0E0,0E0,0E0,6.291396E0,8.377034E0,4.8290095E0,1.6954966E0,0E0,0E0,0E0,1.6525135E0,0E0,0E0,0E0,0E0,0E0,0E0,0E0,0E0,0E0,0E0],"parents":[2147483647,0,0,1,1,2,2,3,3,4,4,5,5,6,6,8,8,9,9,10,10,13,13,14,14,17,17,20,20,21,21,22,22,23,23,24,24,29,29,30,30,31,31,32,32,36,36],"right_children":[2,4,6,8,10,12,14,-1,16,18,20,-1,-1,22,24,-1,-1,26,-1,-1,28,30,32,34,36,-1,-1,-1,-1,38,40,42,44,-1,-1,-1,46,-1,-1,-1,-1,-1,-1,-1,-1,-1,-1],"split_conditions":[2.4734985E-2,3.8079035E-1,4.290845E-2,4.0578827E-1,8.5646707E-1,1.5605423E-1,8.141614E-1,-2.8660491E-2,1.06136546E-1,1.2342037E-1,5.408876E-2,6.520887E-2,3.5462484E-3,1.2193661E-1,7.3913264E-1,5.6839075E-2,-1.5478158E-2,3.240176E-1,3.066185E-3,4.100603E-2,1.2929398E-1,3.9983466E-1,3.0627745E-1,1.4984542E-1,4.9939984E-1,-1.7549854E-3,-7.0493616E-2,-4.657798E-2,-7.6007354E-3,7.3111825E-2,5.027015E-1,1.0232602E-1,4.8780718E-1,-4.593481E-2,2.6587322E-2,5.606271E-4,1.6964948E-1,-3.440318E-4,4.5345824E-2,-2.1118699E-2,1.4834399E-2,-2.3138981E-2,4.8166217E-4,-9.67899E-3,-6.9743924E-2,7.025289E-2,3.6687907E-3],"split_indices":[12,70,49,6,86,25,35,0,64,25,43,0,0,102,57,0,0,122,0,0,89,5,12,24,32,0,0,0,0,77,71,101,7,0,0,0,115,0,0,0,0,0,0,0,0,0,0],"split_type":[0,0,0,0,0,0,0,0,0,0,0,0,0,0,0,0,0,0,0,0,0,0,0,0,0,0,0,0,0,0,0,0,0,0,0,0,0,0,0,0,0,0,0,0,0,0,0],"sum_hessian":[3.4128683E2,2.2396053E1,3.1889078E2,7.261835E0,1.5134217E1,4.768035E0,3.1412274E2,2.1840272E0,5.077808E0,1.0553061E1,4.5811567E0,3.5703058E0,1.1977292E0,3.0313522E2,1.0987513E1,3.1443067E0,1.9335011E0,9.077786E0,1.4752742E0,2.199605E0,2.3815517E0,9.705282E1,2.060824E2,2.9047952E0,8.082717E0,1.1536833E0,7.9241033E0,1.1944733E0,1.1870786E0,3.1597996E1,6.545483E1,2.0092029E2,5.162113E0,1.7088587E0,1.1959363E0,1.1845812E0,6.8981357E0,1.178644E1,1.9811556E1,2.6045076E1,3.9409748E1,2.3640125E1,1.7728017E2,2.193314E0,2.9687994E0,5.682538E0,1.215598E0],"tree_param":{"num_deleted":"0","num_feature":"130","num_nodes":"47","size_leaf_vector":"1"}},{"base_weights":[-5.407943E-3,-1.0691269E-1,2.562693E-1,-5.3434785E-2,-6.5693223E-1,6.017409E-1,5.3584173E-2,6.409808E-1,-9.770305E-2,5.433458E-2,-8.186831E-1,-6.280903E-1,7.25132E-1,2.359907E-1,-5.4737407E-1,7.849177E-2,6.5912835E-2,-8.9326394E-1,-5.914058E-2,-1.1303988E0,1.1963319E-1,-5.5233102E-2,9.395435E-3,8.6238587E-1,-4.8265767E-1,-6.1771894E-1,4.0814996E-1,5.740863E-1,-9.555205E-1,4.4638437E-1,-5.0505158E-2,8.751395E-3,-1.142104E0,-3.1536736E-2,-6.3770674E-2,-1.2594572E0,9.05485E-3,-5.6036044E-2,6.8759394E-1,9.7263E-1,-3.572491E-2,-5.7210047E-2,2.7471391E-2,-1.0301085E0,2.5808802E-2,2.356176E-1,1.206808E0,4.9436744E-2,-1.39752375E-2,-7.697219E-2,-3.595932E-1,-2.2668999E-2,5.0088357E-2,-6.4663716E-2,-1.3640021E-2,-3.968414E-3,3.6886524E-2,6.873708E-3,-7.0139356E-2,-8.266822E-3,6.1737843E-2,7.5116986E-3,5.5596966E-2,1.0665899E-2,-6.826373E-2,4.7398295E-2,2.739136E-3,1.2838419E-2,7.0857845E-2,5.1943976E-2,-4.3197207E-2],"categories":[],"categories_nodes":[],"categories_segments":[],"categories_sizes":[],"default_left":[0,0,0,0,0,0,0,0,0,0,0,0,0,0,0,0,0,0,0,0,0,0,0,0,0,0,0,0,0,0,0,0,0,0,0,0,0,0,0,0,0,0,0,0,0,0,0,0,0,0,0,0,0,0,0,0,0,0,0,0,0,0,0,0,0,0,0,0,0,0,0],"id":18,"left_children":[1,3,5,7,9,11,13,15,17,-1,19,21,23,25,27,29,-1,31,33,35,37,-1,-1,39,41,43,45,47,49,51,-1,-1,53,55,-1,57,-1,-1,59,61,-1,-1,-1,63,-1,65,67,-1,-1,-1,69,-1,-1,-1,-1,-1,-1,-1,-1,-1,-1,-1,-1,-1,-1,-1,-1,-1,-1,-1,-1],"loss_changes":[8.953833E0,7.107944E0,6.565278E0,6.899796E0,6.933856E0,5.727417E0,6.758879E0,5.024745E0,6.388303E0,0E0,6.038187E0,1.6478623E0,5.727207E0,7.17397E0,7.132373E0,3.8218377E0,0E0,2.7613444E0,6.718804E0,2.8084297E0,4.953034E0,0E0,0E0,5.7584553E0,3.2985513E0,4.4134903E0,5.199093E0,1.8559091E0,3.2467327E0,3.9444695E0,0E0,0E0,6.9166183E-1,7.3394523E0,0E0,2.9969234E0,0E0,0E0,2.393883E0,3.0004234E0,0E0,0E0,0E0,2.9673166E0,0E0,4.3236713E0,1.0004005E0,0E0,0E0,0E0,5.630105E0,0E0,0E0,0E0,0E0,0E0,0E0,0E0,0E0,0E0,0E0,0E0,0E0,0E0,0E0,0E0,0E0,0E0,0E0,0E0,0E0],"parents":[2147483647,0,0,1,1,2,2,3,3,4,4,5,5,6,6,7,7,8,8,10,10,11,11,12,12,13,13,14,14,15,15,17,17,18,18,19,19,20,20,23,23,24,24,25,25,26,26,27,27,28,28,29,29,32,32,33,33,35,35,38,38,39,39,43,43,45,45,46,46,50,50],"right_children":[2,4,6,8,10,12,14,16,18,-1,20,22,24,26,28,30,-1,32,34,36,38,-1,-1,40,42,44,46,48,50,52,-1,-1,54,56,-1,58,-1,-1,60,62,-1,-1,-1,64,-1,66,68,-1,-1,-1,70,-1,-1,-1,-1,-1,-1,-1,-1,-1,-1,-1,-1,-1,-1,-1,-1,-1,-1,-1,-1],"split_conditions":[6.2403363E-1,6.4318013E-1,7.2972864E-2,7.37753E-2,3.6458763E-1,4.2748663E-1,2.3752315E-1,1.0851223E-1,2.4269791E-2,5.433458E-2,1.2342037E-1,1.1060155E-1,1.6234761E-1,5.0910756E-2,4.7027424E-1,8.2364047E-1,6.5912835E-2,1.2510988E-1,2.012878E-1,8.30331E-1,4.7975305E-1,-5.5233102E-2,9.395435E-3,2.291593E-1,1.3138111E-1,1.3016015E-1,2.0128655E-1,1.4762601E-1,1.3305104E-1,4.5735054E-2,-5.0505158E-2,8.751395E-3,8.214533E-2,1.4622416E-1,-6.3770674E-2,6.361212E-1,9.05485E-3,-5.6036044E-2,6.570759E-1,4.1877747E-2,-3.572491E-2,-5.7210047E-2,2.7471391E-2,1.1106099E-1,2.5808802E-2,5.9228864E-2,1.1690852E-1,4.9436744E-2,-1.39752375E-2,-7.697219E-2,8.3269536E-1,-2.2668999E-2,5.0088357E-2,-6.4663716E-2,-1.3640021E-2,-3.968414E-3,3.6886524E-2,6.873708E-3,-7.0139356E-2,-8.266822E-3,6.1737843E-2,7.5116986E-3,5.5596966E-2,1.0665899E-2,-6.826373E-2,4.7398295E-2,2.739136E-3,1.2838419E-2,7.0857845E-2,5.1943976E-2,-4.3197207E-2],"split_indices":[18,44,90,11,9,59,23,129,12,0,129,89,89,95,107,53,0,128,56,74,22,0,0,11,51,129,11,11,63,25,0,0,17,43,0,48,0,0,74,12,0,0,0,37,0,95,102,0,0,0,47,0,0,0,0,0,0,0,0,0,0,0,0,0,0,0,0,0,0,0,0],"split_type":[0,0,0,0,0,0,0,0,0,0,0,0,0,0,0,0,0,0,0,0,0,0,0,0,0,0,0,0,0,0,0,0,0,0,0,0,0,0,0,0,0,0,0,0,0,0,0,0,0,0,0,0,0,0,0,0,0,0,0,0,0,0,0,0,0,0,0,0,0,0,0],"sum_hessian":[3.350668E2,2.4184604E2,9.322077E1,2.2141519E2,2.043085E1,3.37411E1,5.9479675E1,1.246129E1,2.089539E2,1.2489759E0,1.9181873E1,2.7036586E0,3.103744E1,4.6095726E1,1.3383948E1,7.4171314E0,5.0441585E0,8.635505E0,2.003184E2,1.4244902E1,4.9369717E0,1.4834931E0,1.2201656E0,2.8127047E1,2.9103928E0,7.301368E0,3.8794357E1,3.462766E0,9.921182E0,5.984577E0,1.4325544E0,1.6875087E0,6.947996E0,1.9687614E2,3.4422615E0,1.3004832E1,1.2400697E0,1.2449414E0,3.6920304E0,2.664726E1,1.4797868E0,1.7073747E0,1.2030181E0,5.421235E0,1.8801334E0,3.2967484E1,5.826877E0,2.2240608E0,1.2387049E0,4.21137E0,5.709812E0,2.3542182E0,3.630359E0,5.503274E0,1.4447224E0,1.8619568E2,1.068046E1,1.2139735E0,1.1790858E1,1.7155776E0,1.9764528E0,4.161103E0,2.2486158E1,1.2282221E0,4.1930127E0,5.81576E0,2.7151722E1,1.4588171E0,4.36806E0,1.2324948E0,4.4773173E0],"tree_param":{"num_deleted":"0","num_feature":"130","num_nodes":"71","size_leaf_vector":"1"}},{"base_weights":[3.914592E-3,3.6219528E-1,-6.559026E-2,5.023034E-1,-2.0652337E-1,2.3993189E-2,-4.7061485E-1,-3.595455E-2,5.838202E-1,-1.0002719E0,3.7900445E-1,-6.541959E-1,8.586925E-2,-6.4977187E-1,2.0615967E-1,-4.6464702E-1,6.9536173E-1,6.3100136E-3,-6.8735205E-2,-3.487959E-2,9.0787643E-1,7.282065E-1,-9.907759E-1,1.0578059E0,5.577614E-2,-4.1178676E-1,-1.1507804E0,-4.3731928E-2,4.8456654E-1,2.5612462E-2,-5.9526768E-2,7.792501E-1,-2.314764E-2,-2.8176922E-3,6.415393E-2,-1.5865088E-2,6.110052E-2,-1.2892816E0,1.6559483E-1,5.500022E-3,6.284314E-2,-1.314319E-2,4.2990473E-1,1.2048725E-2,-8.841162E-1,1.2177365E-2,-1.3236852E0,9.4720376E-1,-3.6030686E-1,4.2586334E-2,-1.6448284E-2,-7.2878E-2,1.0070283E-2,4.2934712E-2,-3.3624202E-2,5.726177E-4,-6.293114E-2,4.688811E-2,-2.9742524E-3,-2.435338E-2,5.2182652E-2,-7.676729E-2,2.2431067E-3,7.415642E-4,-7.7954255E-2,-1.0256138E-2,6.233675E-2,-4.776973E-2,3.0876895E-2],"categories":[],"categories_nodes":[],"categories_segments":[],"categories_sizes":[],"default_left":[0,0,0,0,0,0,0,0,0,0,0,0,0,0,0,0,0,0,0,0,0,0,0,0,0,0,0,0,0,0,0,0,0,0,0,0,0,0,0,0,0,0,0,0,0,0,0,0,0,0,0,0,0,0,0,0,0,0,0,0,0,0,0,0,0,0,0,0,0],"id":19,"left_children":[1,3,5,7,9,11,13,-1,15,17,19,21,23,25,27,29,31,-1,-1,-1,33,35,37,39,41,43,45,-1,47,-1,-1,49,-1,-1,-1,-1,-1,51,53,-1,-1,55,57,59,61,-1,63,65,67,-1,-1,-1,-1,-1,-1,-1,-1,-1,-1,-1,-1,-1,-1,-1,-1,-1,-1,-1,-1],"loss_changes":[8.383584E0,4.4621434E0,1.024354E1,4.818285E0,5.733278E0,9.786814E0,6.3329124E0,0E0,5.2308207E0,2.3521628E0,4.8210764E0,9.796242E0,6.1820354E0,4.374771E0,3.872278E0,3.8963516E0,4.0852966E0,0E0,0E0,0E0,2.0138311E0,2.6568775E0,5.7738094E0,1.0602655E0,5.369547E0,5.8415475E0,3.3452759E0,0E0,4.154792E0,0E0,0E0,3.18091E0,0E0,0E0,0E0,0E0,0E0,3.5338154E0,3.0120165E0,0E0,0E0,5.42537E0,8.105923E0,8.920623E0,8.4107895E0,0E0,3.586979E0,2.5268354E0,3.0203514E0,0E0,0E0,0E0,0E0,0E0,0E0,0E0,0E0,0E0,0E0,0E0,0E0,0E0,0E0,0E0,0E0,0E0,0E0,0E0,0E0],"parents":[2147483647,0,0,1,1,2,2,3,3,4,4,5,5,6,6,8,8,9,9,10,10,11,11,12,12,13,13,14,14,15,15,16,16,20,20,21,21,22,22,23,23,24,24,25,25,26,26,28,28,31,31,37,37,38,38,41,41,42,42,43,43,44,44,46,46,47,47,48,48],"right_children":[2,4,6,8,10,12,14,-1,16,18,20,22,24,26,28,30,32,-1,-1,-1,34,36,38,40,42,44,46,-1,48,-1,-1,50,-1,-1,-1,-1,-1,52,54,-1,-1,56,58,60,62,-1,64,66,68,-1,-1,-1,-1,-1,-1,-1,-1,-1,-1,-1,-1,-1,-1,-1,-1,-1,-1,-1,-1],"split_conditions":[3.551102E-1,7.2653997E-1,1.370113E-1,2.545442E-2,2.594342E-1,1.662127E-1,9.3674296E-1,-3.595455E-2,3.189296E-2,1.9572787E-1,4.9868852E-2,9.72593E-2,2.6227626E-1,1.043347E-1,5.089674E-2,1.5653798E-1,5.836389E-1,6.3100136E-3,-6.8735205E-2,-3.487959E-2,1.2107241E-1,3.0633554E-1,4.8009717E-1,2.3137768E-1,7.334285E-1,4.954815E-1,5.299085E-2,-4.3731928E-2,6.194004E-1,2.5612462E-2,-5.9526768E-2,8.4169644E-1,-2.314764E-2,-2.8176922E-3,6.415393E-2,-1.5865088E-2,6.110052E-2,2.3777324E-1,1.4822751E-1,5.500022E-3,6.284314E-2,9.844588E-1,1.7192881E-1,4.5606577E-1,5.790628E-1,1.2177365E-2,1.7130125E-1,5.961505E-1,6.95309E-1,4.2586334E-2,-1.6448284E-2,-7.2878E-2,1.0070283E-2,4.2934712E-2,-3.3624202E-2,5.726177E-4,-6.293114E-2,4.688811E-2,-2.9742524E-3,-2.435338E-2,5.2182652E-2,-7.676729E-2,2.2431067E-3,7.415642E-4,-7.7954255E-2,-1.0256138E-2,6.233675E-2,-4.776973E-2,3.0876895E-2],"split_indices":[126,8,64,34,126,86,34,0,90,126,90,73,48,103,43,102,86,0,0,0,128,57,113,83,22,6,90,0,0,0,0,106,0,0,0,0,0,25,11,0,0,8,75,7,6,0,53,5,22,0,0,0,0,0,0,0,0,0,0,0,0,0,0,0,0,0,0,0,0],"split_type":[0,0,0,0,0,0,0,0,0,0,0,0,0,0,0,0,0,0,0,0,0,0,0,0,0,0,0,0,0,0,0,0,0,0,0,0,0,0,0,0,0,0,0,0,0,0,0,0,0,0,0,0,0,0,0,0,0,0,0,0,0,0,0,0,0,0,0,0,0],"sum_hessian":[3.3470575E2,5.3697426E1,2.810083E2,4.317718E1,1.0520245E1,2.3088243E2,5.0125877E1,2.21204E0,4.096514E1,4.1653376E0,6.3549066E0,1.8503475E1,2.1237897E2,3.9665462E1,1.0460415E1,3.6346345E0,3.7330505E1,1.2045193E0,2.9608183E0,1.9883373E0,4.3665695E0,3.3951905E0,1.5108285E1,5.352567E0,2.070264E2,2.8126806E1,1.1538655E1,1.7039516E0,8.756463E0,1.6748906E0,1.9597439E0,3.5114662E1,2.2158463E0,1.4612119E0,2.9053576E0,1.2038237E0,2.191367E0,1.1917071E1,3.1912131E0,1.1985074E0,4.15406E0,1.756367E2,3.1389687E1,1.5338024E1,1.2788782E1,1.2279267E0,1.0310729E1,5.5798955E0,3.1765678E0,3.3176388E1,1.9382713E0,1.0728223E1,1.188848E0,1.7332227E0,1.4579905E0,1.7320705E2,2.4296618E0,1.4954586E1,1.64351E1,1.0692552E1,4.645473E0,7.134589E0,5.6541934E0,1.6822441E0,8.628485E0,1.2162085E0,4.363687E0,1.9890494E0,1.1875182E0],"tree_param":{"num_deleted":"0","num_feature":"130","num_nodes":"69","size_leaf_vector":"1"}},{"base_weights":[-3.6959127E-2,-8.487578E-1,-1.5462233E-2,1.4392276E-2,-1.1697536E0,3.01883E-1,-6.980548E-2,-3.175087E-3,-6.929651E-2,-2.0449947E-1,5.34577E-1,5.207354E-1,-1.0020782E-1,-5.5064565E-1,7.555337E-1,6.5282464E-1,-3.8989257E-2,-3.7077185E-2,8.152514E-1,-1.337951E-1,4.673612E-1,-9.386276E-1,6.0472333E-1,5.964036E-2,-5.953221E-3,9.927261E-2,8.77726E-1,-2.1735316E-2,1.0313872E0,-9.79304E-2,-7.2414273E-1,8.195584E-1,-6.7533153E-1,-6.613605E-2,3.5980172E-2,5.2903276E-2,-8.625193E-3,2.825343E-2,-4.263268E-2,2.5010003E-2,6.934853E-2,6.760738E-2,4.649514E-3,5.1314414E-2,-6.01754E-3,-4.6555784E-2,3.2832254E-2,-1.1142653E-2,5.9213158E-2,-6.1733633E-2,1.2203536E-2],"categories":[],"categories_nodes":[],"categories_segments":[],"categories_sizes":[],"default_left":[0,0,0,0,0,0,0,0,0,0,0,0,0,0,0,0,0,0,0,0,0,0,0,0,0,0,0,0,0,0,0,0,0,0,0,0,0,0,0,0,0,0,0,0,0,0,0,0,0,0,0],"id":20,"left_children":[1,3,5,-1,7,9,11,-1,-1,13,15,17,19,21,23,25,-1,-1,27,29,31,33,35,-1,-1,37,39,-1,41,43,45,47,49,-1,-1,-1,-1,-1,-1,-1,-1,-1,-1,-1,-1,-1,-1,-1,-1,-1,-1],"loss_changes":[5.853494E0,3.4940267E0,5.686586E0,0E0,1.5729952E0,5.7911305E0,5.1025977E0,0E0,0E0,5.701432E0,5.686821E0,5.784772E0,5.178418E0,6.0670977E0,1.9151914E0,3.785781E0,0E0,0E0,3.6293573E0,5.3101006E0,6.677391E0,7.051013E0,1.483514E0,0E0,0E0,4.966917E0,3.5346317E0,0E0,2.985158E0,6.1917267E0,4.7265472E0,4.857624E0,2.4269109E0,0E0,0E0,0E0,0E0,0E0,0E0,0E0,0E0,0E0,0E0,0E0,0E0,0E0,0E0,0E0,0E0,0E0,0E0],"parents":[2147483647,0,0,1,1,2,2,4,4,5,5,6,6,9,9,10,10,11,11,12,12,13,13,14,14,15,15,18,18,19,19,20,20,21,21,22,22,25,25,26,26,28,28,29,29,30,30,31,31,32,32],"right_children":[2,4,6,-1,8,10,12,-1,-1,14,16,18,20,22,24,26,-1,-1,28,30,32,34,36,-1,-1,38,40,-1,42,44,46,48,50,-1,-1,-1,-1,-1,-1,-1,-1,-1,-1,-1,-1,-1,-1,-1,-1,-1,-1],"split_conditions":[1.4129354E-2,3.6556665E-2,3.577992E-2,1.4392276E-2,1.6784345E-1,4.2952982E-1,2.515216E-1,-3.175087E-3,-6.929651E-2,1.6465612E-1,7.2786134E-1,5.1745564E-2,9.633744E-1,1.1446701E-1,1.9202816E-1,2.8678851E-2,-3.8989257E-2,-3.7077185E-2,2.3570676E-1,8.8817567E-1,1.3021244E-1,1.9843121E-1,1.19436234E-1,5.964036E-2,-5.953221E-3,5.533271E-1,9.839456E-2,-2.1735316E-2,3.0808672E-1,5.058727E-2,7.6632947E-1,6.481636E-2,7.637421E-1,-6.613605E-2,3.5980172E-2,5.2903276E-2,-8.625193E-3,2.825343E-2,-4.263268E-2,2.5010003E-2,6.934853E-2,6.760738E-2,4.649514E-3,5.1314414E-2,-6.01754E-3,-4.6555784E-2,3.2832254E-2,-1.1142653E-2,5.9213158E-2,-6.1733633E-2,1.2203536E-2],"split_indices":[77,25,51,0,1,33,48,0,0,115,7,90,73,103,115,121,0,0,9,120,38,128,115,0,0,74,103,0,74,11,9,129,48,0,0,0,0,0,0,0,0,0,0,0,0,0,0,0,0,0,0],"split_type":[0,0,0,0,0,0,0,0,0,0,0,0,0,0,0,0,0,0,0,0,0,0,0,0,0,0,0,0,0,0,0,0,0,0,0,0,0,0,0,0,0,0,0,0,0,0,0,0,0,0,0],"sum_hessian":[3.3517368E2,7.653866E0,3.275198E2,1.7082946E0,5.9455714E0,4.7219517E1,2.803003E2,1.1834077E0,4.7621636E0,1.49049425E1,3.2314575E1,1.2934278E1,2.6736603E2,1.1268457E1,3.6364849E0,3.01091E1,2.2054746E0,2.1597733E0,1.0774505E1,2.5314955E2,1.4216473E1,8.576123E0,2.6923344E0,2.1818092E0,1.4546756E0,9.1151905E0,2.099391E1,1.4393255E0,9.335179E0,2.3975017E2,1.3399375E1,1.10832205E1,3.1332521E0,7.1275187E0,1.4486048E0,1.4722594E0,1.2200751E0,6.3932457E0,2.7219448E0,1.3194483E1,7.799427E0,6.628523E0,2.706656E0,3.8123825E0,2.3593779E2,1.1935907E1,1.4634669E0,2.9734251E0,8.109796E0,1.7348845E0,1.3983678E0],"tree_param":{"num_deleted":"0","num_feature":"130","num_nodes":"51","size_leaf_vector":"1"}},{"base_weights":[2.1743998E-2,4.217309E-1,-3.9951358E-2,1.0829079E0,1.793335E-1,3.402645E-1,-8.705093E-2,1.3224456E0,1.4455586E-3,-4.9211687E-1,5.9878415E-1,-6.732783E-1,5.555584E-1,1.8397106E-1,-1.6084805E-1,1.3984727E-2,7.347509E-2,3.7736382E-2,-7.0730746E-1,8.719653E-1,-1.719295E-1,-6.211541E-2,4.5038756E-2,-7.6856095E-1,7.797349E-1,4.1648746E-1,-4.1289485E-1,-2.801471E-1,1.3816871E-1,-9.94047E-1,3.0193594E-1,-2.3425752E-1,1.1423732E0,3.4337088E-1,-5.614623E-2,9.141829E-3,-5.975762E-2,-1.5478563E-1,9.404007E-1,-2.894123E-1,7.1223485E-1,-6.429036E-1,5.5360533E-2,-1.9470736E-1,-8.575625E-1,8.761836E-1,-5.940472E-2,-6.481394E-2,2.9279104E-2,-2.7232802E-2,5.0053935E-2,-5.074349E-2,2.4840636E-2,6.719332E-2,5.9773163E-3,-2.9336033E-2,4.0202774E-2,4.3755468E-2,-4.567905E-2,5.8341216E-2,4.5514326E-3,-4.9859866E-2,2.0309282E-2,-4.0450305E-2,4.2491984E-2,-4.5013472E-2,1.7948363E-2,-5.226449E-2,-6.8549714E-3,-6.050697E-2,9.006483E-3,5.599907E-2,-1.3741388E-2,-4.053467E-2,5.7842764E-3],"categories":[],"categories_nodes":[],"categories_segments":[],"categories_sizes":[],"default_left":[0,0,0,0,0,0,0,0,0,0,0,0,0,0,0,0,0,0,0,0,0,0,0,0,0,0,0,0,0,0,0,0,0,0,0,0,0,0,0,0,0,0,0,0,0,0,0,0,0,0,0,0,0,0,0,0,0,0,0,0,0,0,0,0,0,0,0,0,0,0,0,0,0,0,0],"id":21,"left_children":[1,3,5,7,9,11,13,15,-1,17,19,21,23,25,27,-1,-1,-1,29,31,33,-1,-1,35,37,39,41,43,45,47,49,51,53,55,-1,-1,-1,57,59,61,63,65,-1,67,69,71,73,-1,-1,-1,-1,-1,-1,-1,-1,-1,-1,-1,-1,-1,-1,-1,-1,-1,-1,-1,-1,-1,-1,-1,-1,-1,-1,-1,-1],"loss_changes":[8.224944E0,6.94326E0,5.206504E0,2.9279633E0,9.810182E0,7.371357E0,5.190061E0,1.0535126E0,0E0,4.166623E0,4.6232367E0,6.556082E0,8.612868E0,7.9001417E0,7.291947E0,0E0,0E0,0E0,3.7910438E0,5.009164E0,3.5196185E0,0E0,0E0,2.0093396E0,3.6866274E0,8.676344E0,6.3457837E0,7.0196486E0,8.6049385E0,5.3551407E0,2.5789652E0,2.754639E0,2.4995174E0,2.5771585E0,0E0,0E0,0E0,4.174315E0,3.7912445E0,6.6530137E0,6.73337E0,4.0951138E0,0E0,6.138002E0,6.9802523E0,3.8015594E0,6.303487E0,0E0,0E0,0E0,0E0,0E0,0E0,0E0,0E0,0E0,0E0,0E0,0E0,0E0,0E0,0E0,0E0,0E0,0E0,0E0,0E0,0E0,0E0,0E0,0E0,0E0,0E0,0E0,0E0],"parents":[2147483647,0,0,1,1,2,2,3,3,4,4,5,5,6,6,7,7,9,9,10,10,11,11,12,12,13,13,14,14,18,18,19,19,20,20,23,23,24,24,25,25,26,26,27,27,28,28,29,29,30,30,31,31,32,32,33,33,37,37,38,38,39,39,40,40,41,41,43,43,44,44,45,45,46,46],"right_children":[2,4,6,8,10,12,14,16,-1,18,20,22,24,26,28,-1,-1,-1,30,32,34,-1,-1,36,38,40,42,44,46,48,50,52,54,56,-1,-1,-1,58,60,62,64,66,-1,68,70,72,74,-1,-1,-1,-1,-1,-1,-1,-1,-1,-1,-1,-1,-1,-1,-1,-1,-1,-1,-1,-1,-1,-1,-1,-1,-1,-1,-1,-1],"split_conditions":[3.577992E-2,3.406188E-1,1.4673464E-1,4.6148223E-1,5.376706E-1,1.7528346E-1,4.093707E-2,9.72593E-2,1.4455586E-3,5.791366E-2,2.7282998E-1,1.1486174E-1,1.1178826E-1,1.02762245E-1,8.3788323E-1,1.3984727E-2,7.347509E-2,3.7736382E-2,1.7548475E-1,2.4800332E-2,9.1471426E-2,-6.211541E-2,4.5038756E-2,3.442572E-2,4.6488117E-2,3.1434333E-1,1.9891353E-1,6.931249E-1,6.711876E-1,2.3427072E-1,4.1132262E-1,8.149105E-2,5.8251864E-1,4.1833687E-1,-5.614623E-2,9.141829E-3,-5.975762E-2,2.2028808E-1,1.1723437E-1,6.582462E-2,1.6799847E-2,7.589435E-1,5.5360533E-2,2.1661958E-2,8.47966E-1,1.20567374E-1,5.7839406E-1,-6.481394E-2,2.9279104E-2,-2.7232802E-2,5.0053935E-2,-5.074349E-2,2.4840636E-2,6.719332E-2,5.9773163E-3,-2.9336033E-2,4.0202774E-2,4.3755468E-2,-4.567905E-2,5.8341216E-2,4.5514326E-3,-4.9859866E-2,2.0309282E-2,-4.0450305E-2,4.2491984E-2,-4.5013472E-2,1.7948363E-2,-5.226449E-2,-6.8549714E-3,-6.050697E-2,9.006483E-3,5.599907E-2,-1.3741388E-2,-4.053467E-2,5.7842764E-3],"split_indices":[51,122,21,87,125,18,121,99,0,37,49,77,88,103,60,0,0,0,89,30,77,0,0,38,60,60,88,87,57,62,87,103,123,22,0,0,0,74,77,25,103,100,0,77,34,12,18,0,0,0,0,0,0,0,0,0,0,0,0,0,0,0,0,0,0,0,0,0,0,0,0,0,0,0,0],"split_type":[0,0,0,0,0,0,0,0,0,0,0,0,0,0,0,0,0,0,0,0,0,0,0,0,0,0,0,0,0,0,0,0,0,0,0,0,0,0,0,0,0,0,0,0,0,0,0,0,0,0,0,0,0,0,0,0,0,0,0,0,0,0,0,0,0,0,0,0,0,0,0,0,0,0,0],"sum_hessian":[3.3161676E2,4.3534657E1,2.880821E2,1.074862E1,3.2786037E1,3.1066933E1,2.5701517E2,8.550651E0,2.1979687E0,1.2539597E1,2.024644E1,5.0702715E0,2.599666E1,5.468608E1,2.0232909E2,1.4155042E0,7.1351466E0,1.4766172E0,1.106298E1,1.4851071E1,5.395369E0,3.878815E0,1.1914566E0,3.412434E0,2.2584227E1,3.9572384E1,1.5113695E1,1.4467218E2,5.765691E1,8.626993E0,2.4359865E0,2.9434164E0,1.1907655E1,3.913668E0,1.481701E0,1.2332975E0,2.1791368E0,3.3185155E0,1.926571E1,1.1690509E1,2.7881876E1,1.3628603E1,1.4850923E0,1.2718928E2,1.7482903E1,1.1450403E1,4.620651E1,7.392044E0,1.2349489E0,1.2017516E0,1.2342348E0,1.2357386E0,1.7076777E0,9.685727E0,2.2219272E0,1.2057515E0,2.7079163E0,1.3427478E0,1.9757677E0,1.4915754E1,4.3499565E0,5.5795846E0,6.1109242E0,1.9081203E0,2.5973755E1,1.0923841E1,2.7047613E0,6.980286E0,1.2020899E2,1.292514E1,4.557761E0,9.471241E0,1.9791614E0,8.047145E0,3.8159363E1],"tree_param":{"num_deleted":"0","num_feature":"130","num_nodes":"75","size_leaf_vector":"1"}},{"base_weights":[1.2750708E-2,-1.3825199E-1,1.3478729E-1,-3.350664E-3,-4.9279615E-1,3.1116673E-1,-1.16684094E-1,6.2489722E-2,-6.791798E-1,-6.3436514E-1,5.3375345E-1,-2.8537866E-1,4.8275244E-1,1.0565879E0,-2.0230505E-1,-8.960229E-2,5.446036E-1,-9.5184314E-1,3.1957068E-2,-7.02902E-1,2.3830205E-2,-4.9680028E-2,6.0648825E-2,-6.049364E-1,4.0018243E-1,5.209538E-1,-4.1430216E-2,7.034752E-3,6.413572E-2,8.459412E-2,-6.273773E-1,9.102237E-2,-5.7094145E-1,1.1598934E0,1.2276579E-1,1.8299863E-2,-1.2862692E0,2.989297E-2,-7.6802284E-1,5.6265223E-1,-8.577792E-1,7.8333855E-1,-5.0452214E-2,-1.5141504E-1,6.043549E-1,-6.987649E-1,2.8288743E-1,7.0668155E-1,-7.7679545E-1,-2.2375775E-3,5.0191384E-2,-3.6812004E-2,4.013072E-2,-9.3714725E-3,6.914579E-2,-4.3165352E-2,3.1684387E-2,-7.380213E-2,-1.1790924E-2,-2.281206E-2,-5.5874057E-2,-1.1814832E-2,5.1979233E-2,-5.152045E-2,2.813214E-2,6.8968765E-2,1.5929189E-3,3.0864963E-2,-5.5701163E-2,3.22656E-2,-2.9108642E-2,-5.523323E-2,2.6058871E-2,2.5531596E-2,-1.8770648E-2,5.34382E-3,4.8950035E-2,2.2079643E-2,-4.7798138E-2],"categories":[],"categories_nodes":[],"categories_segments":[],"categories_sizes":[],"default_left":[0,0,0,0,0,0,0,0,0,0,0,0,0,0,0,0,0,0,0,0,0,0,0,0,0,0,0,0,0,0,0,0,0,0,0,0,0,0,0,0,0,0,0,0,0,0,0,0,0,0,0,0,0,0,0,0,0,0,0,0,0,0,0,0,0,0,0,0,0,0,0,0,0,0,0,0,0,0,0],"id":22,"left_children":[1,3,5,7,9,11,13,15,17,19,21,23,25,27,29,31,33,35,-1,37,-1,-1,-1,39,41,43,-1,-1,-1,45,47,49,51,53,55,-1,57,-1,59,61,63,65,-1,67,69,71,73,75,77,-1,-1,-1,-1,-1,-1,-1,-1,-1,-1,-1,-1,-1,-1,-1,-1,-1,-1,-1,-1,-1,-1,-1,-1,-1,-1,-1,-1,-1,-1],"loss_changes":[6.0283594E0,6.993541E0,8.058508E0,4.801447E0,6.195919E0,1.1046906E1,7.776977E0,7.262051E0,4.051496E0,3.0667334E0,6.8359904E0,5.5954037E0,4.596695E0,9.13322E-1,8.712595E0,6.628264E0,6.017447E0,4.1458545E0,0E0,3.3557987E0,0E0,0E0,0E0,5.520529E0,5.3102446E0,4.656248E0,0E0,0E0,0E0,6.9197826E0,6.276206E0,6.9683647E0,5.3082333E0,3.1241646E0,8.203927E0,0E0,1.0219402E0,0E0,3.0860271E0,1.633242E0,4.1165104E0,3.1560616E0,0E0,7.9265256E0,3.9047642E0,5.0469985E0,5.4758186E0,4.535905E-1,6.1664953E0,0E0,0E0,0E0,0E0,0E0,0E0,0E0,0E0,0E0,0E0,0E0,0E0,0E0,0E0,0E0,0E0,0E0,0E0,0E0,0E0,0E0,0E0,0E0,0E0,0E0,0E0,0E0,0E0,0E0,0E0],"parents":[2147483647,0,0,1,1,2,2,3,3,4,4,5,5,6,6,7,7,8,8,9,9,10,10,11,11,12,12,13,13,14,14,15,15,16,16,17,17,19,19,23,23,24,24,25,25,29,29,30,30,31,31,32,32,33,33,34,34,36,36,38,38,39,39,40,40,41,41,43,43,44,44,45,45,46,46,47,47,48,48],"right_children":[2,4,6,8,10,12,14,16,18,20,22,24,26,28,30,32,34,36,-1,38,-1,-1,-1,40,42,44,-1,-1,-1,46,48,50,52,54,56,-1,58,-1,60,62,64,66,-1,68,70,72,74,76,78,-1,-1,-1,-1,-1,-1,-1,-1,-1,-1,-1,-1,-1,-1,-1,-1,-1,-1,-1,-1,-1,-1,-1,-1,-1,-1,-1,-1,-1,-1],"split_conditions":[1.3147387E-1,6.053401E-1,1.13746434E-1,9.568575E-1,3.3491752E-1,3.189296E-2,1.9900158E-1,6.1662567E-1,1.7133725E-1,1.9406646E-1,3.586699E-1,6.901047E-1,9.818285E-1,2.1985671E-1,1.4314142E-1,5.3794324E-1,5.532663E-2,1.0378377E-1,3.1957068E-2,1.7850597E-1,2.3830205E-2,-4.9680028E-2,6.0648825E-2,1.2910609E-1,9.771156E-2,3.3170708E-2,-4.1430216E-2,7.034752E-3,6.413572E-2,2.377131E-1,1.1899609E-1,6.3896066E-1,1.2782358E-1,4.3997416E-1,1.283312E-1,1.8299863E-2,9.633744E-1,2.989297E-2,2.2660437E-1,3.1725523E-1,6.9702965E-1,1.442445E-1,-5.0452214E-2,8.054847E-2,9.7602576E-1,1.560713E-1,9.919588E-2,1.2107241E-1,8.397948E-2,-2.2375775E-3,5.0191384E-2,-3.6812004E-2,4.013072E-2,-9.3714725E-3,6.914579E-2,-4.3165352E-2,3.1684387E-2,-7.380213E-2,-1.1790924E-2,-2.281206E-2,-5.5874057E-2,-1.1814832E-2,5.1979233E-2,-5.152045E-2,2.813214E-2,6.8968765E-2,1.5929189E-3,3.0864963E-2,-5.5701163E-2,3.22656E-2,-2.9108642E-2,-5.523323E-2,2.6058871E-2,2.5531596E-2,-1.8770648E-2,5.34382E-3,4.8950035E-2,2.2079643E-2,-4.7798138E-2],"split_indices":[76,3,77,86,10,64,31,96,115,116,45,125,34,0,37,122,25,62,0,31,0,0,0,86,95,25,0,0,0,125,86,18,56,6,115,0,47,0,23,57,5,11,0,77,125,129,121,102,75,0,0,0,0,0,0,0,0,0,0,0,0,0,0,0,0,0,0,0,0,0,0,0,0,0,0,0,0,0,0],"split_type":[0,0,0,0,0,0,0,0,0,0,0,0,0,0,0,0,0,0,0,0,0,0,0,0,0,0,0,0,0,0,0,0,0,0,0,0,0,0,0,0,0,0,0,0,0,0,0,0,0,0,0,0,0,0,0,0,0,0,0,0,0,0,0,0,0,0,0,0,0,0,0,0,0,0,0,0,0,0,0],"sum_hessian":[3.251218E2,1.452558E2,1.79866E2,1.0595151E2,3.9304283E1,1.0557758E2,7.4288414E1,9.737282E1,8.578685E0,3.487658E1,4.4277043E0,2.3435858E1,8.214172E1,4.2812834E0,7.0007126E1,7.4640274E1,2.273255E1,7.338814E0,1.2398707E0,3.319599E1,1.6805893E0,1.220452E0,3.2072525E0,1.6065102E1,7.3707557E0,8.040225E1,1.7394723E0,1.1689233E0,3.1123602E0,4.2274963E1,2.7732166E1,5.4863426E1,1.9776846E1,8.534527E0,1.4198023E1,1.4663005E0,5.8725133E0,1.192644E0,3.2003345E1,2.6415467E0,1.3423555E1,6.144309E0,1.2264465E0,8.782602E0,7.161965E1,8.029696E0,3.4245266E1,2.4175818E0,2.5314585E1,4.8587345E1,6.276081E0,1.8066633E1,1.7102127E0,1.2347492E0,7.299777E0,4.610368E0,9.587655E0,4.6307716E0,1.241742E0,1.8131895E1,1.3871451E1,1.1760304E0,1.4655163E0,1.2213744E1,1.2098112E0,2.9605794E0,3.1837296E0,5.082539E0,3.7000635E0,6.967085E1,1.9487971E0,6.095946E0,1.9337509E0,2.5609697E1,8.635569E0,1.1896805E0,1.2279012E0,3.0575664E0,2.2257019E1],"tree_param":{"num_deleted":"0","num_feature":"130","num_nodes":"79","size_leaf_vector":"1"}}]},"name":"gbtree"},"learner_model_param":{"base_score":"[5.1050174E-1]","boost_from_average":"1","num_class":"0","num_feature":"130","num_target":"1"},"objective":{"name":"binary:logistic","reg_loss_param":{"scale_pos_weight":"1"}}},"version":[3,1,2]}