{"learner":{"attributes":{"best_iteration":"3","best_score":"0.6922787922650135","scikit_learn":"{\"_estimator_type\": \"classifier\"}"},"feature_names":[],"feature_types":[],"gradient_booster":{"model":{"cats":{"enc":[],"feature_segments":[],"sorted_idx":[]},"gbtree_model_param":{"num_parallel_tree":"1","num_trees":"14"},"iteration_indptr":[0,1,2,3,4,5,6,7,8,9,10,11,12,13,14],"tree_info":[0,0,0,0,0,0,0,0,0,0,0,0,0,0],"trees":[{"base_weights":[-1.335629E-2,1.4282328E-1,-1.7022072E-1,-1.7820413E-1,2.6375255E-1,-8.151512E-1,-1.288475E-1,1.07034825E-1,-1.0165734E0,-9.1562796E-1,2.8418997E-1,4.3490106E-1,-1.1456646E0,4.753546E-1,-1.7189854E-1,5.417679E-1,-1.15097016E-1,-4.6566972E-1,-1.3274348E0,7.868155E-3,-7.0738435E-2,8.2498693E-1,2.3563671E-1,-2.356726E-2,4.9905017E-2,-1.2557774E0,-3.5259046E-3,6.4415216E-1,-5.892613E-2,-5.003583E-1,-8.3832525E-2,-9.953302E-2,7.48986E-1,-8.4438187E-1,7.532353E-2,4.998593E-1,-1.025304E0,-1.6773202E0,-5.3318715E-1,1.119688E0,-4.4379887E-1,-1.2055595E0,2.6524052E-1,-4.4379887E-1,-1.4597676E0,6.812082E-2,3.324077E-1,-9.817249E-2,-9.197515E-1,2.1085747E-1,-1.6833322E-1,2.1745054E-2,-4.9294304E-2,4.4646088E-2,-2.356726E-2,-5.5297732E-2,1.651545E-2,-2.759936E-3,5.8251966E-2,-2.356726E-2,6.0035873E-2,7.868155E-3,-6.68382E-2,-9.202341E-2,-3.1072607E-2,1.9062353E-2,-6.1482735E-2,6.2611595E-2,-3.5259046E-3,-5.892613E-2,1.2786395E-2,-1.4396607E-2,-7.346564E-2,3.6002878E-2,1.0761036E-2,-4.9294304E-2,1.651545E-2,-7.917492E-2,-1.4396607E-2,-4.1044652E-2,5.281016E-2,6.150623E-3,-4.311436E-2,-7.668122E-2,-3.4758806E-2,1.6419621E-2,-5.757713E-2,-7.9603605E-2,-6.7205145E-3],"categories":[],"categories_nodes":[],"categories_segments":[],"categories_sizes":[],"default_left":[0,0,0,0,0,0,0,0,0,0,0,0,0,0,0,0,0,0,0,0,0,0,0,0,0,0,0,0,0,0,0,0,0,0,0,0,0,0,0,0,0,0,0,0,0,0,0,0,0,0,0,0,0,0,0,0,0,0,0,0,0,0,0,0,0,0,0,0,0,0,0,0,0,0,0,0,0,0,0,0,0,0,0,0,0,0,0,0,0],"id":0,"left_children":[1,3,5,7,9,11,13,15,17,19,21,23,25,27,29,31,33,35,37,-1,-1,39,41,-1,-1,43,-1,45,-1,47,49,51,53,55,57,59,61,63,65,67,69,71,73,75,77,-1,79,81,83,85,87,-1,-1,-1,-1,-1,-1,-1,-1,-1,-1,-1,-1,-1,-1,-1,-1,-1,-1,-1,-1,-1,-1,-1,-1,-1,-1,-1,-1,-1,-1,-1,-1,-1,-1,-1,-1,-1,-1],"loss_changes":[1.5784126E1,1.2582077E1,8.470689E0,2.1379084E1,5.9231586E0,8.4256315E0,7.9685955E0,6.558615E0,3.2650871E0,2.4928336E0,5.889553E0,2.888254E0,1.7405453E0,6.4634213E0,8.166545E0,3.1209445E0,6.3609715E0,5.764593E0,2.9837914E0,0E0,0E0,7.484953E0,9.450687E0,0E0,0E0,1.6636524E0,0E0,3.8434305E0,0E0,9.995921E0,5.637762E0,3.4988356E0,3.4847698E0,3.2753644E0,5.3092895E0,3.4512196E0,2.5976868E0,4.4478035E-1,4.1204224E0,2.5256329E0,2.4799619E0,6.631465E-1,4.634489E0,2.104401E0,1.0978622E0,0E0,1.3140175E1,5.4542875E0,2.952896E0,8.47734E0,8.257283E0,0E0,0E0,0E0,0E0,0E0,0E0,0E0,0E0,0E0,0E0,0E0,0E0,0E0,0E0,0E0,0E0,0E0,0E0,0E0,0E0,0E0,0E0,0E0,0E0,0E0,0E0,0E0,0E0,0E0,0E0,0E0,0E0,0E0,0E0,0E0,0E0,0E0,0E0],"parents":[2147483647,0,0,1,1,2,2,3,3,4,4,5,5,6,6,7,7,8,8,9,9,10,10,11,11,12,12,13,13,14,14,15,15,16,16,17,17,18,18,21,21,22,22,25,25,27,27,29,29,30,30,31,31,32,32,33,33,34,34,35,35,36,36,37,37,38,38,39,39,40,40,41,41,42,42,43,43,44,44,46,46,47,47,48,48,49,49,50,50],"right_children":[2,4,6,8,10,12,14,16,18,20,22,24,26,28,30,32,34,36,38,-1,-1,40,42,-1,-1,44,-1,46,-1,48,50,52,54,56,58,60,62,64,66,68,70,72,74,76,78,-1,80,82,84,86,88,-1,-1,-1,-1,-1,-1,-1,-1,-1,-1,-1,-1,-1,-1,-1,-1,-1,-1,-1,-1,-1,-1,-1,-1,-1,-1,-1,-1,-1,-1,-1,-1,-1,-1,-1,-1,-1,-1],"split_conditions":[1.1723178E-1,1.2350034E-4,2.1812426E-2,2.8019676E-3,1.5666863E-3,1.6243994E-2,3.4005877E-2,3.6482666E-5,3.0902945E-3,1.1397732E-3,3.0824656E-3,1.2111714E-1,4.708481E-2,4.586971E-2,5.3138755E-2,2.3088338E-5,3.259193E-5,3.0130846E-3,1.480047E-4,7.868155E-3,-7.0738435E-2,2.453081E-4,3.5605065E-3,-2.356726E-2,4.9905017E-2,1.2152543E-1,-3.5259046E-3,2.2894915E-2,-5.892613E-2,4.519032E-2,6.922983E-2,3.9883318E-5,1.00830934E-4,6.500028E-5,2.263189E-3,3.0130846E-3,2.9346684E-3,4.304767E-3,1.5367682E-4,2.9508444E-4,2.393274E-3,2.804691E-3,1.7788858E-4,1.5721232E-2,2.5359826E-2,6.812082E-2,2.3409117E-2,4.166714E-1,4.4544373E-2,1.0118947E-1,4.586971E-2,2.1745054E-2,-4.9294304E-2,4.4646088E-2,-2.356726E-2,-5.5297732E-2,1.651545E-2,-2.759936E-3,5.8251966E-2,-2.356726E-2,6.0035873E-2,7.868155E-3,-6.68382E-2,-9.202341E-2,-3.1072607E-2,1.9062353E-2,-6.1482735E-2,6.2611595E-2,-3.5259046E-3,-5.892613E-2,1.2786395E-2,-1.4396607E-2,-7.346564E-2,3.6002878E-2,1.0761036E-2,-4.9294304E-2,1.651545E-2,-7.917492E-2,-1.4396607E-2,-4.1044652E-2,5.281016E-2,6.150623E-3,-4.311436E-2,-7.668122E-2,-3.4758806E-2,1.6419621E-2,-5.757713E-2,-7.9603605E-2,-6.7205145E-3],"split_indices":[8,39,9,38,18,9,49,29,48,27,46,10,29,14,29,34,39,7,9,0,0,9,23,0,0,30,0,34,0,24,34,49,9,49,17,47,32,7,49,39,37,0,44,49,14,0,49,0,14,24,14,0,0,0,0,0,0,0,0,0,0,0,0,0,0,0,0,0,0,0,0,0,0,0,0,0,0,0,0,0,0,0,0,0,0,0,0,0,0],"split_type":[0,0,0,0,0,0,0,0,0,0,0,0,0,0,0,0,0,0,0,0,0,0,0,0,0,0,0,0,0,0,0,0,0,0,0,0,0,0,0,0,0,0,0,0,0,0,0,0,0,0,0,0,0,0,0,0,0,0,0,0,0,0,0,0,0,0,0,0,0,0,0,0,0,0,0,0,0,0,0,0,0,0,0,0,0,0,0,0,0],"sum_hessian":[6.422835E2,3.218892E2,3.2039435E2,8.79465E1,2.3394267E2,1.8187237E1,3.022071E2,6.62713E1,2.16752E1,3.238823E0,2.3070386E2,3.7371035E0,1.4450133E1,1.9432938E1,2.8277417E2,2.1924341E1,4.4346962E1,8.719908E0,1.2955292E1,1.2457012E0,1.9931219E0,1.7688957E1,2.130149E2,1.4948413E0,2.2422621E0,1.2955292E1,1.4948413E0,1.8187237E1,1.2457012E0,5.8797096E1,2.2397707E2,5.4810853E0,1.6443254E1,8.470768E0,3.5876194E1,3.238823E0,5.4810853E0,8.221627E0,4.7336645E0,1.4450133E1,3.238823E0,3.4879632E0,2.0952693E2,3.238823E0,9.716469E0,4.4845243E0,1.3702713E1,3.0644249E1,2.8152845E1,4.9578907E1,1.7439816E2,3.7371035E0,1.7439816E0,1.4948414E1,1.4948413E0,6.9759264E0,1.4948413E0,3.288651E1,2.9896827E0,1.4948413E0,1.7439816E0,1.2457012E0,4.235384E0,6.477646E0,1.7439816E0,2.2422621E0,2.4914024E0,1.2955292E1,1.4948413E0,1.2457012E0,1.9931219E0,1.2457012E0,2.2422621E0,1.9432938E1,1.90094E2,1.7439816E0,1.4948413E0,8.470768E0,1.2457012E0,5.231945E0,8.470768E0,2.4415743E1,6.2285056E0,5.9793653E0,2.2173481E1,4.6340084E1,3.238823E0,2.9896827E0,1.7140848E2],"tree_param":{"num_deleted":"0","num_feature":"50","num_nodes":"89","size_leaf_vector":"1"}},{"base_weights":[-1.1883529E-3,1.2925386E-1,-1.3979429E-1,1.07286066E-1,6.903216E-2,-8.314408E-1,-9.6725084E-2,-4.7658485E-1,1.4804219E-1,-9.710746E-1,3.0462423E-2,-6.300232E-2,-7.957112E-1,4.316614E-1,-8.852026E-1,1.6081014E-1,-6.7345865E-2,7.815054E-3,-1.0687404E0,-1.2608066E-1,3.227036E-1,-9.239293E-2,-1.1868787E0,6.0133226E-2,-4.407798E-1,1.8978579E-2,-1.1286324E0,-6.9008976E-1,1.8196185E-1,-1.2189307E0,-3.1284234E-1,-1.5766284E-1,8.737492E-1,8.170368E-1,-8.4574595E-2,-5.3795952E-2,6.685914E-1,-8.463057E-2,-4.0407196E-1,-4.3750197E-2,5.719988E-3,-2.5372235E-2,-8.253053E-2,5.026437E-3,-4.6861608E-2,6.101456E-2,7.4900165E-3,-2.747485E-2,-7.403594E-2,3.6940563E-2,-6.1893877E-2,3.95282E-2,-9.516494E-3,6.952082E-2,-2.039454E-2,-6.926644E-4,5.7359707E-2,3.6124554E-2,-1.9555572E-2,5.6786504E-2,-3.323768E-3,1.9289672E-2,-6.343404E-2],"categories":[],"categories_nodes":[],"categories_segments":[],"categories_sizes":[],"default_left":[0,0,0,0,0,0,0,0,0,0,0,0,0,0,0,0,0,0,0,0,0,0,0,0,0,0,0,0,0,0,0,0,0,0,0,0,0,0,0,0,0,0,0,0,0,0,0,0,0,0,0,0,0,0,0,0,0,0,0,0,0,0,0],"id":1,"left_children":[1,3,5,7,-1,9,11,13,15,17,-1,19,21,23,25,27,-1,-1,29,31,33,35,37,-1,39,-1,41,43,45,47,49,51,53,55,57,-1,59,-1,61,-1,-1,-1,-1,-1,-1,-1,-1,-1,-1,-1,-1,-1,-1,-1,-1,-1,-1,-1,-1,-1,-1,-1,-1],"loss_changes":[1.18305025E1,9.118893E0,9.369686E0,7.979744E0,0E0,4.306198E0,7.0160494E0,8.518572E0,6.161362E0,2.062954E0,0E0,7.0248265E0,3.6624498E0,5.5582457E0,5.184799E0,5.6995907E0,0E0,0E0,1.4321442E0,7.950923E0,8.248914E0,5.198596E0,2.770728E0,0E0,1.1219177E0,0E0,3.4446926E0,1.6027734E0,9.935059E0,1.4612198E0,4.799039E0,7.606468E0,5.685378E0,5.0762672E0,6.017687E0,0E0,1.4458609E0,0E0,3.7255106E0,0E0,0E0,0E0,0E0,0E0,0E0,0E0,0E0,0E0,0E0,0E0,0E0,0E0,0E0,0E0,0E0,0E0,0E0,0E0,0E0,0E0,0E0,0E0,0E0],"parents":[2147483647,0,0,1,1,2,2,3,3,5,5,6,6,7,7,8,8,9,9,11,11,12,12,13,13,14,14,15,15,18,18,19,19,20,20,21,21,22,22,24,24,26,26,27,27,28,28,29,29,30,30,31,31,32,32,33,33,34,34,36,36,38,38],"right_children":[2,4,6,8,-1,10,12,14,16,18,-1,20,22,24,26,28,-1,-1,30,32,34,36,38,-1,40,-1,42,44,46,48,50,52,54,56,58,-1,60,-1,62,-1,-1,-1,-1,-1,-1,-1,-1,-1,-1,-1,-1,-1,-1,-1,-1,-1,-1,-1,-1,-1,-1,-1,-1],"split_conditions":[1.18519925E-1,1.2851217E-1,2.1812426E-2,8.763471E-4,6.903216E-2,3.0563692E-2,8.599236E-1,3.6482666E-5,1.1831649E-1,1.0999171E-1,3.0462423E-2,1.31955E-1,1.1020237E-1,8.5880846E-4,7.517282E-4,2.0282621E-5,-6.7345865E-2,7.815054E-3,1.6783608E-1,1.4912696E-1,1.3893038E-1,9.0839404E-1,1.6346885E-1,6.0133226E-2,1.0170434E-3,1.8978579E-2,7.7293353E-4,1.4864657E-5,9.79356E-4,1.2100548E-1,2.0056292E-2,2.6750175E-2,1.3893038E-1,9.224375E-2,5.0368446E-1,-5.3795952E-2,9.275575E-1,-8.463057E-2,1.9085614E-1,-4.3750197E-2,5.719988E-3,-2.5372235E-2,-8.253053E-2,5.026437E-3,-4.6861608E-2,6.101456E-2,7.4900165E-3,-2.747485E-2,-7.403594E-2,3.6940563E-2,-6.1893877E-2,3.95282E-2,-9.516494E-3,6.952082E-2,-2.039454E-2,-6.926644E-4,5.7359707E-2,3.6124554E-2,-1.9555572E-2,5.6786504E-2,-3.323768E-3,1.9289672E-2,-6.343404E-2],"split_indices":[8,48,9,0,0,44,16,44,17,27,0,29,19,13,48,49,0,0,48,44,44,33,4,0,22,0,13,49,0,42,44,9,9,4,37,0,36,0,4,0,0,0,0,0,0,0,0,0,0,0,0,0,0,0,0,0,0,0,0,0,0,0,0],"split_type":[0,0,0,0,0,0,0,0,0,0,0,0,0,0,0,0,0,0,0,0,0,0,0,0,0,0,0,0,0,0,0,0,0,0,0,0,0,0,0,0,0,0,0,0,0,0,0,0,0,0,0,0,0,0,0,0,0,0,0,0,0,0,0],"sum_hessian":[6.5234015E2,3.361018E2,3.1623834E2,3.3137042E2,4.7313824E0,1.746494E1,2.987734E2,2.0923754E1,3.104467E2,1.6218939E1,1.245999E0,2.8606238E2,1.2711018E1,6.47506E0,1.4448693E1,3.0870258E2,1.7440958E0,1.2451829E0,1.4973757E1,2.4643373E2,3.9628654E1,4.9847126E0,7.7263045E0,3.2364259E0,3.2386339E0,2.241806E0,1.2206887E1,6.720527E0,3.0198206E2,1.1980731E1,2.9930255E0,2.3970436E2,6.729362E0,1.7446682E1,2.218197E1,1.993885E0,2.9908276E0,3.98777E0,3.7385345E0,1.4940302E0,1.7446038E0,6.474259E0,5.7326283E0,1.7417699E0,4.9787574E0,7.96277E0,2.940193E2,4.239268E0,7.7414637E0,1.4948624E0,1.4981631E0,7.210295E0,2.3249406E2,4.735477E0,1.993885E0,5.2335963E0,1.2213086E1,5.7324195E0,1.644955E1,1.4954138E0,1.4954138E0,2.2431207E0,1.4954138E0],"tree_param":{"num_deleted":"0","num_feature":"50","num_nodes":"63","size_leaf_vector":"1"}},{"base_weights":[1.449871E-2,1.1774512E-1,-9.0931766E-2,-1.7461221E-1,2.2743857E-1,-2.499792E-1,2.0697353E-2,9.899118E-3,-1.0513074E0,-1.0647786E0,2.4826902E-1,1.9242391E-2,-4.4016862E-1,6.5735616E-2,-6.559128E-1,4.3435034E-1,-1.8530837E-1,-1.3188283E0,-8.752196E-2,-1.3575126E-2,-6.6310406E-2,8.0020624E-1,2.0431241E-1,-2.069563E-1,5.316001E-1,-5.0667626E-1,5.809932E-1,8.823112E-2,-1.0143327E0,-9.835948E-1,3.282329E-1,5.5966586E-1,-2.7319E-2,-5.399788E-1,2.8807464E-1,-7.509926E-2,-5.6479365E-1,3.599489E-2,-3.651336E-2,9.726601E-1,-1.1933501E-2,-1.081522E0,2.3296759E-1,-2.4015442E-2,-7.353932E-2,-2.2756256E-1,9.4737685E-1,-5.5939835E-1,4.6357818E-2,4.9999423E-2,-3.3330512E-3,-2.1945199E-2,3.3531475E-1,-1.4038274E-2,-6.340801E-2,-2.9204282E-1,-6.764891E-2,5.1883038E-2,-2.20203E-2,1.2429965E-2,7.523492E-2,-3.512275E-2,1.8767297E-2,2.5484538E-2,-2.8381506E-2,-4.2819407E-2,-2.3599584E-3,5.546201E-2,-1.4508438E-2,-7.706361E-2,8.2958145E-3,3.851397E-2,9.14555E-3,-2.0890726E-2,2.119082E-2,4.6475068E-2,-4.3787133E-2,-1.3664596E-2,5.615307E-2,-1.9436136E-2,-4.558138E-2,1.3114127E-2,-1.0860986E-2,2.3722447E-2,-1.775495E-2,-6.2433332E-2,3.01711E-2],"categories":[],"categories_nodes":[],"categories_segments":[],"categories_sizes":[],"default_left":[0,0,0,0,0,0,0,0,0,0,0,0,0,0,0,0,0,0,0,0,0,0,0,0,0,0,0,0,0,0,0,0,0,0,0,0,0,0,0,0,0,0,0,0,0,0,0,0,0,0,0,0,0,0,0,0,0,0,0,0,0,0,0,0,0,0,0,0,0,0,0,0,0,0,0,0,0,0,0,0,0,0,0,0,0,0,0],"id":2,"left_children":[1,3,5,7,9,11,13,15,17,19,21,23,25,27,29,31,33,35,37,-1,-1,39,41,43,45,47,49,51,53,55,57,59,-1,61,63,-1,65,-1,-1,67,-1,69,71,73,-1,75,77,79,-1,-1,-1,81,83,-1,-1,85,-1,-1,-1,-1,-1,-1,-1,-1,-1,-1,-1,-1,-1,-1,-1,-1,-1,-1,-1,-1,-1,-1,-1,-1,-1,-1,-1,-1,-1,-1,-1],"loss_changes":[7.093826E0,1.0596826E1,5.731138E0,1.4630454E1,6.7194824E0,6.8227053E0,5.8461094E0,6.3491435E0,3.9386902E0,4.6812677E-1,5.5820274E0,6.6061826E0,5.5937996E0,4.4495997E0,4.184879E0,3.271739E0,8.974116E0,8.41629E-1,2.8544855E0,0E0,0E0,3.3004513E0,8.383541E0,9.121571E0,5.722734E0,6.0970097E0,1.487832E0,4.8179283E0,3.4058714E-1,1.9638186E0,2.4970589E0,6.061662E0,0E0,4.7809954E0,4.6792855E0,0E0,5.6239057E-1,0E0,0E0,2.8892002E0,0E0,3.116507E0,5.6875734E0,6.457729E0,0E0,6.049249E0,2.7660475E0,3.962E0,0E0,0E0,0E0,6.8922887E0,5.409314E0,0E0,0E0,4.600089E0,0E0,0E0,0E0,0E0,0E0,0E0,0E0,0E0,0E0,0E0,0E0,0E0,0E0,0E0,0E0,0E0,0E0,0E0,0E0,0E0,0E0,0E0,0E0,0E0,0E0,0E0,0E0,0E0,0E0,0E0,0E0],"parents":[2147483647,0,0,1,1,2,2,3,3,4,4,5,5,6,6,7,7,8,8,9,9,10,10,11,11,12,12,13,13,14,14,15,15,16,16,17,17,18,18,21,21,22,22,23,23,24,24,25,25,26,26,27,27,28,28,29,29,30,30,31,31,33,33,34,34,36,36,39,39,41,41,42,42,43,43,45,45,46,46,47,47,51,51,52,52,55,55],"right_children":[2,4,6,8,10,12,14,16,18,20,22,24,26,28,30,32,34,36,38,-1,-1,40,42,44,46,48,50,52,54,56,58,60,-1,62,64,-1,66,-1,-1,68,-1,70,72,74,-1,76,78,80,-1,-1,-1,82,84,-1,-1,86,-1,-1,-1,-1,-1,-1,-1,-1,-1,-1,-1,-1,-1,-1,-1,-1,-1,-1,-1,-1,-1,-1,-1,-1,-1,-1,-1,-1,-1,-1,-1],"split_conditions":[1.1645252E-1,1.2350034E-4,6.4849004E-2,3.0958962E-3,1.4360681E-3,3.9912526E-2,8.695489E-1,3.500729E-5,1.796919E-4,5.788327E-5,3.0824656E-3,3.385279E-2,8.140401E-2,2.510289E-1,9.355912E-1,2.9458487E-3,5.495247E-5,4.1948E-3,1.6395286E-4,-1.3575126E-2,-6.6310406E-2,2.453081E-4,3.6233955E-3,4.323942E-2,3.9912526E-2,1.0753642E-1,5.9062846E-2,1.12610124E-1,1.704034E-1,1.0865504E-1,9.252449E-1,2.1917506E-3,-2.7319E-2,6.819977E-5,1.4784173E-4,-7.509926E-2,1.5367682E-4,3.599489E-2,-3.651336E-2,2.9508444E-4,-1.1933501E-2,3.7772078E-3,6.0797865E-3,2.2520686E-2,-7.353932E-2,3.4985915E-2,1.3212387E-1,6.7764446E-2,4.6357818E-2,4.9999423E-2,-3.3330512E-3,2.9478303E-1,1.972732E-1,-1.4038274E-2,-6.340801E-2,1.0361869E-1,-6.764891E-2,5.1883038E-2,-2.20203E-2,1.2429965E-2,7.523492E-2,-3.512275E-2,1.8767297E-2,2.5484538E-2,-2.8381506E-2,-4.2819407E-2,-2.3599584E-3,5.546201E-2,-1.4508438E-2,-7.706361E-2,8.2958145E-3,3.851397E-2,9.14555E-3,-2.0890726E-2,2.119082E-2,4.6475068E-2,-4.3787133E-2,-1.3664596E-2,5.615307E-2,-1.9436136E-2,-4.558138E-2,1.3114127E-2,-1.0860986E-2,2.3722447E-2,-1.775495E-2,-6.2433332E-2,3.01711E-2],"split_indices":[11,39,49,32,0,39,20,14,9,19,46,39,44,34,28,13,4,7,14,0,0,9,33,9,9,19,49,4,44,29,37,47,0,39,4,0,49,0,0,39,0,47,47,9,0,49,3,9,0,0,0,37,9,0,0,4,0,0,0,0,0,0,0,0,0,0,0,0,0,0,0,0,0,0,0,0,0,0,0,0,0,0,0,0,0,0,0],"split_type":[0,0,0,0,0,0,0,0,0,0,0,0,0,0,0,0,0,0,0,0,0,0,0,0,0,0,0,0,0,0,0,0,0,0,0,0,0,0,0,0,0,0,0,0,0,0,0,0,0,0,0,0,0,0,0,0,0,0,0,0,0,0,0,0,0,0,0,0,0,0,0,0,0,0,0,0,0,0,0,0,0,0,0,0,0,0,0],"sum_hessian":[6.4970386E2,3.281929E2,3.2151096E2,8.938098E1,2.3881194E2,1.320825E2,1.8942845E2,7.465717E1,1.4723813E1,2.9935036E0,2.3581842E2,5.505232E1,7.703018E1,1.7845268E2,1.097578E1,2.3132889E1,5.152428E1,1.1236484E1,3.487329E0,1.2472887E0,1.7462149E0,1.6126244E1,2.1969218E2,3.860488E1,1.6447437E1,7.279304E1,4.237141E0,1.757113E2,2.741379E0,8.234555E0,2.741224E0,2.0892616E1,2.2402732E0,2.9375065E1,2.2149216E1,8.242443E0,2.9940405E0,1.4924586E0,1.9948703E0,1.3885057E1,2.2411869E0,3.9882028E0,2.1570398E2,3.4613533E1,3.991347E0,5.9804583E0,1.046698E1,7.079959E1,1.9934466E0,2.2424123E0,1.9947288E0,1.2215342E2,5.355788E1,1.2461383E0,1.4952408E0,3.4904423E0,4.744113E0,1.2435093E0,1.4977148E0,1.6668934E1,4.223681E0,2.5144342E1,4.2307234E0,1.7914072E1,4.235144E0,1.496443E0,1.4975975E0,1.263965E1,1.2454067E0,2.7420537E0,1.2461492E0,1.715649E1,1.9854749E2,1.845353E1,1.6160004E1,1.9914719E0,3.9889865E0,1.2470188E0,9.219961E0,4.9107674E1,2.1691921E1,4.960653E1,7.254689E1,4.483534E1,8.722542E0,1.4968863E0,1.9935559E0],"tree_param":{"num_deleted":"0","num_feature":"50","num_nodes":"87","size_leaf_vector":"1"}},{"base_weights":[-1.0223373E-2,1.6020106E-1,-1.3965952E-1,-4.4790074E-2,3.4922475E-1,1.0027454E0,-1.5312111E-1,1.0196438E-2,-9.681246E-1,-4.4223106E-1,3.7988952E-1,7.1160304E-3,6.445971E-2,-8.650815E-1,-1.18146226E-1,7.108611E-1,-4.890639E-2,-1.1573646E0,-5.2915025E-3,1.7633833E-2,-1.0115857E0,1.0761873E0,2.9482833E-1,-1.2123469E0,-3.645334E-1,-9.574758E-2,-7.929774E-1,-2.0335738E-2,1.031901E0,-1.126112E0,9.426523E-3,-1.3209002E-2,-7.22672E-2,-6.286276E-2,-1.4392584E-2,1.7764913E-1,1.2380087E0,2.3702678E-1,7.9317236E-1,-1.4282609E0,7.1160304E-3,4.290068E-1,-6.818845E-2,-1.3816455E-1,5.036709E-1,-1.1629859E0,1.7084585E-1,6.443632E-2,-3.6869429E-3,-4.4562253E-3,-7.957871E-2,-3.8496617E-3,2.2540716E-2,5.1457215E-2,-3.7661687E-2,7.117936E-2,-4.624817E-3,1.3140607E-2,-5.9744716E-2,-2.4220722E-2,5.0107777E-2,-2.5398089E-2,-8.896391E-2,-3.74578E-2,4.7603834E-2,-8.449144E-3,1.2897737E-2,6.0709268E-2,-3.1268296E-3,-1.2148432E-2,-6.4628504E-2,3.5762876E-2,-2.2040656E-2],"categories":[],"categories_nodes":[],"categories_segments":[],"categories_sizes":[],"default_left":[0,0,0,0,0,0,0,0,0,0,0,0,0,0,0,0,0,0,0,0,0,0,0,0,0,0,0,0,0,0,0,0,0,0,0,0,0,0,0,0,0,0,0,0,0,0,0,0,0,0,0,0,0,0,0,0,0,0,0,0,0,0,0,0,0,0,0,0,0,0,0,0,0],"id":3,"left_children":[1,3,5,7,9,11,13,15,17,19,21,-1,-1,23,25,27,29,31,-1,-1,33,35,37,39,41,43,45,-1,47,49,51,-1,-1,-1,-1,53,55,57,59,61,-1,63,-1,65,67,69,71,-1,-1,-1,-1,-1,-1,-1,-1,-1,-1,-1,-1,-1,-1,-1,-1,-1,-1,-1,-1,-1,-1,-1,-1,-1,-1],"loss_changes":[1.449601E1,1.1008013E1,5.896573E0,6.964568E0,3.7527866E0,9.211178E-1,9.110105E0,5.4295073E0,1.1355534E0,3.059345E0,8.136555E0,0E0,0E0,2.541749E0,5.2718115E0,4.0787153E0,7.618485E0,1.2184296E0,0E0,0E0,3.0268598E-1,1.9845448E0,3.5155487E0,3.0416908E0,7.2939296E0,8.804979E0,4.203013E0,0E0,2.4249496E0,2.8642278E0,4.453615E0,0E0,0E0,0E0,0E0,3.5345979E0,3.2625046E0,4.620545E0,3.9394855E0,1.8293858E0,0E0,4.088202E0,0E0,3.9701738E0,9.296868E0,6.685209E-1,1.6428484E0,0E0,0E0,0E0,0E0,0E0,0E0,0E0,0E0,0E0,0E0,0E0,0E0,0E0,0E0,0E0,0E0,0E0,0E0,0E0,0E0,0E0,0E0,0E0,0E0,0E0,0E0],"parents":[2147483647,0,0,1,1,2,2,3,3,4,4,5,5,6,6,7,7,8,8,9,9,10,10,13,13,14,14,15,15,16,16,17,17,20,20,21,21,22,22,23,23,24,24,25,25,26,26,28,28,29,29,30,30,35,35,36,36,37,37,38,38,39,39,41,41,43,43,44,44,45,45,46,46],"right_children":[2,4,6,8,10,12,14,16,18,20,22,-1,-1,24,26,28,30,32,-1,-1,34,36,38,40,42,44,46,-1,48,50,52,-1,-1,-1,-1,54,56,58,60,62,-1,64,-1,66,68,70,72,-1,-1,-1,-1,-1,-1,-1,-1,-1,-1,-1,-1,-1,-1,-1,-1,-1,-1,-1,-1,-1,-1,-1,-1,-1,-1],"split_conditions":[9.361042E-2,2.0816307E-4,8.898263E-2,2.906167E-4,1.3975338E-4,8.076507E-2,9.767651E-2,2.9655316E-4,3.5913693E-4,1.1516126E-4,2.1998544E-4,7.1160304E-3,6.445971E-2,9.521881E-2,8.695489E-1,7.455913E-4,8.24442E-4,3.311453E-4,-5.2915025E-3,1.7633833E-2,1.7156651E-4,3.8197192E-3,9.167034E-2,9.639796E-2,9.690818E-2,1.5917876E-1,9.355912E-1,-2.0335738E-2,5.277132E-5,4.2020587E-5,1.8056351E-4,-1.3209002E-2,-7.22672E-2,-6.286276E-2,-1.4392584E-2,3.5367191E-3,3.709388E-4,9.349023E-2,8.9342475E-2,9.168893E-2,7.1160304E-3,9.406733E-2,-6.818845E-2,1.31955E-1,1.6346885E-1,8.7080973E-1,9.093374E-1,6.443632E-2,-3.6869429E-3,-4.4562253E-3,-7.957871E-2,-3.8496617E-3,2.2540716E-2,5.1457215E-2,-3.7661687E-2,7.117936E-2,-4.624817E-3,1.3140607E-2,-5.9744716E-2,-2.4220722E-2,5.0107777E-2,-2.5398089E-2,-8.896391E-2,-3.74578E-2,4.7603834E-2,-8.449144E-3,1.2897737E-2,6.0709268E-2,-3.1268296E-3,-1.2148432E-2,-6.4628504E-2,3.5762876E-2,-2.2040656E-2],"split_indices":[48,49,13,19,14,2,6,31,29,9,29,0,0,22,20,2,35,19,0,0,24,33,21,1,16,19,28,0,49,49,24,0,0,0,0,33,9,17,33,0,0,38,0,29,24,16,11,0,0,0,0,0,0,0,0,0,0,0,0,0,0,0,0,0,0,0,0,0,0,0,0,0,0],"split_type":[0,0,0,0,0,0,0,0,0,0,0,0,0,0,0,0,0,0,0,0,0,0,0,0,0,0,0,0,0,0,0,0,0,0,0,0,0,0,0,0,0,0,0,0,0,0,0,0,0,0,0,0,0,0,0,0,0,0,0,0,0,0,0,0,0,0,0,0,0,0,0,0,0],"sum_hessian":[6.551305E2,2.826874E2,3.724431E2,1.3598181E2,1.4670558E2,3.4817128E0,3.689614E2,1.2927234E2,6.7094817E0,4.971443E0,1.4173413E2,1.2434689E0,2.238244E0,1.6165096E1,3.527963E2,9.198343E0,1.2007399E2,5.2213974E0,1.4880841E0,2.2335825E0,2.7378607E0,1.4161161E1,1.27572975E2,8.704282E0,7.4608135E0,3.4256787E2,1.0228448E1,1.9931388E0,7.205205E0,5.2279043E0,1.14846085E2,1.7404985E0,3.480899E0,1.493663E0,1.2441977E0,2.4812825E0,1.1679878E1,1.1563627E2,1.1936703E1,7.4608135E0,1.2434689E0,4.476488E0,2.9843254E0,3.2064722E2,2.1920631E1,7.2417326E0,2.9867156E0,5.7126412E0,1.4925635E0,1.9887377E0,3.2391663E0,9.673233E1,1.8113754E1,1.2407703E0,1.2405121E0,1.0188789E1,1.4910895E0,1.143928E2,1.2434689E0,1.4927919E0,1.0443911E1,2.7356315E0,4.7251816E0,1.2434689E0,3.233019E0,2.9803345E2,2.2613785E1,9.213946E0,1.2706685E1,1.2490133E0,5.9927197E0,1.4906119E0,1.4961035E0],"tree_param":{"num_deleted":"0","num_feature":"50","num_nodes":"73","size_leaf_vector":"1"}},{"base_weights":[-2.9521856E-2,1.363677E-1,-1.5083157E-1,-1.6362308E-1,2.79474E-1,-8.28677E-1,-1.2168353E-1,5.967552E-2,-7.663497E-1,-1.0514596E0,3.066829E-1,8.0795527E-1,-1.2436556E0,2.5025934E-1,-1.6554436E-1,5.9466374E-1,-2.0091347E-1,-7.336588E-2,-5.4618216E-1,-1.3493898E-2,-6.537969E-2,2.5392467E-1,9.9073637E-1,5.4871142E-2,6.294115E-3,-1.4642088E0,-4.5629615E-1,-1.0629706E-1,7.84089E-1,-8.8667107E-1,-1.4987168E-1,-3.0539427E-2,7.279887E-1,-5.481527E-1,3.530814E-1,3.9302564E-1,-8.789921E-1,4.1657192E-1,-2.3700083E-2,1.1588696E0,-1.637047E-2,-2.3936389E-2,-1.5886037E0,2.8060606E-2,-5.3217202E-2,2.4006806E-1,-7.469367E-1,9.4809574E-1,-2.3059262E-2,-3.3694953E-3,-1.1075054E0,5.257879E-1,-1.6935323E-1,6.948675E-2,2.5535384E-2,2.5876442E-2,-3.914768E-2,-7.1555353E-3,4.128285E-2,4.9407538E-2,-1.142781E-2,-7.083167E-2,-1.2536368E-2,1.5507834E-2,4.5432165E-2,-1.5797177E-2,1.7338958E-2,3.1197486E-2,7.644503E-2,-8.793766E-2,-3.1124357E-2,3.9315935E-2,-8.492035E-3,-6.570073E-2,3.7252283E-4,1.3926322E-2,6.5388285E-2,-6.4999074E-2,-1.3632598E-2,-2.4818355E-2,4.6299256E-2,-1.8405091E-2,-5.1081656E-3],"categories":[],"categories_nodes":[],"categories_segments":[],"categories_sizes":[],"default_left":[0,0,0,0,0,0,0,0,0,0,0,0,0,0,0,0,0,0,0,0,0,0,0,0,0,0,0,0,0,0,0,0,0,0,0,0,0,0,0,0,0,0,0,0,0,0,0,0,0,0,0,0,0,0,0,0,0,0,0,0,0,0,0,0,0,0,0,0,0,0,0,0,0,0,0,0,0,0,0,0,0,0,0],"id":4,"left_children":[1,3,5,7,9,11,13,15,17,19,21,23,25,27,29,31,33,-1,35,-1,-1,37,39,-1,-1,41,43,45,47,49,51,-1,53,55,57,59,61,63,65,67,-1,-1,69,-1,-1,71,73,75,-1,-1,77,79,81,-1,-1,-1,-1,-1,-1,-1,-1,-1,-1,-1,-1,-1,-1,-1,-1,-1,-1,-1,-1,-1,-1,-1,-1,-1,-1,-1,-1,-1,-1],"loss_changes":[1.3191112E1,1.1936013E1,7.3775835E0,1.21696615E1,7.1263514E0,1.1486332E1,5.9807773E0,9.412379E0,2.9679365E0,4.4583845E-1,6.4211483E0,5.978615E-1,1.5381851E0,7.4689207E0,3.5545979E0,3.994257E0,8.960115E0,0E0,6.6530204E0,0E0,0E0,7.8216457E0,3.237136E0,0E0,0E0,4.0068245E-1,3.21617E0,5.536811E0,3.635066E0,1.1442146E0,4.3081727E0,0E0,2.2152462E0,7.5127897E0,4.378036E0,2.4345171E0,4.781945E0,5.4333324E0,7.131572E0,1.3532028E0,0E0,0E0,2.1686172E-1,0E0,0E0,3.8120337E0,3.738491E0,3.0464773E0,0E0,0E0,4.878316E-1,4.2339087E0,4.132889E0,0E0,0E0,0E0,0E0,0E0,0E0,0E0,0E0,0E0,0E0,0E0,0E0,0E0,0E0,0E0,0E0,0E0,0E0,0E0,0E0,0E0,0E0,0E0,0E0,0E0,0E0,0E0,0E0,0E0,0E0],"parents":[2147483647,0,0,1,1,2,2,3,3,4,4,5,5,6,6,7,7,8,8,9,9,10,10,11,11,12,12,13,13,14,14,15,15,16,16,18,18,21,21,22,22,25,25,26,26,27,27,28,28,29,29,30,30,32,32,33,33,34,34,35,35,36,36,37,37,38,38,39,39,42,42,45,45,46,46,47,47,50,50,51,51,52,52],"right_children":[2,4,6,8,10,12,14,16,18,20,22,24,26,28,30,32,34,-1,36,-1,-1,38,40,-1,-1,42,44,46,48,50,52,-1,54,56,58,60,62,64,66,68,-1,-1,70,-1,-1,72,74,76,-1,-1,78,80,82,-1,-1,-1,-1,-1,-1,-1,-1,-1,-1,-1,-1,-1,-1,-1,-1,-1,-1,-1,-1,-1,-1,-1,-1,-1,-1,-1,-1,-1,-1],"split_conditions":[9.361042E-2,1.2733751E-4,9.48094E-2,2.804691E-3,1.6462635E-3,8.535874E-2,1.1723178E-1,3.6482666E-5,3.0959844E-5,1.3334128E-3,9.167034E-2,4.519032E-2,9.595117E-2,1.11167625E-1,1.178946E-1,7.014252E-4,6.3499545E-5,-7.336588E-2,2.467063E-3,-1.3493898E-2,-6.537969E-2,3.310915E-3,1.0678746E-1,5.4871142E-2,6.294115E-3,9.651572E-3,1.0427068E-1,5.9940107E-2,1.16157465E-1,1.0999171E-1,1.2089461E-1,-3.0539427E-2,8.0096483E-4,7.7293353E-4,5.042919E-5,5.800636E-5,3.9951564E-3,1.489952E-2,1.5656667E-2,9.4238095E-2,-1.637047E-2,-2.3936389E-2,9.455673E-2,2.8060606E-2,-5.3217202E-2,1.0113602E-1,7.9390354E-2,1.05415374E-1,-2.3059262E-2,-3.3694953E-3,1.213361E-1,1.2152989E-1,4.9972787E-2,6.948675E-2,2.5535384E-2,2.5876442E-2,-3.914768E-2,-7.1555353E-3,4.128285E-2,4.9407538E-2,-1.142781E-2,-7.083167E-2,-1.2536368E-2,1.5507834E-2,4.5432165E-2,-1.5797177E-2,1.7338958E-2,3.1197486E-2,7.644503E-2,-8.793766E-2,-3.1124357E-2,3.9315935E-2,-8.492035E-3,-6.570073E-2,3.7252283E-4,1.3926322E-2,6.5388285E-2,-6.4999074E-2,-1.3632598E-2,-2.4818355E-2,4.6299256E-2,-1.8405091E-2,-5.1081656E-3],"split_indices":[48,39,6,5,22,13,8,29,39,18,21,14,23,37,16,5,24,0,46,0,0,34,31,0,0,24,48,24,7,27,0,0,28,13,39,44,5,25,44,32,0,0,18,0,0,12,44,0,0,0,2,28,44,0,0,0,0,0,0,0,0,0,0,0,0,0,0,0,0,0,0,0,0,0,0,0,0,0,0,0,0,0,0],"split_type":[0,0,0,0,0,0,0,0,0,0,0,0,0,0,0,0,0,0,0,0,0,0,0,0,0,0,0,0,0,0,0,0,0,0,0,0,0,0,0,0,0,0,0,0,0,0,0,0,0,0,0,0,0,0,0,0,0,0,0,0,0,0,0,0,0,0,0,0,0,0,0,0,0,0,0,0,0,0,0,0,0,0,0],"sum_hessian":[6.5346906E2,2.7596545E2,3.7750357E2,8.908179E1,1.8688368E2,1.4432886E1,3.6307068E2,6.565782E1,2.3423967E1,2.9898598E0,1.8389381E2,2.7277892E0,1.1705096E1,3.780193E1,3.2526874E2,2.1086113E1,4.457171E1,4.2448125E0,1.9179155E1,1.2448666E0,1.7449932E0,1.719994E2,1.1894411E1,1.4875358E0,1.2402533E0,8.472231E0,3.2328653E0,2.3144257E1,1.4657672E1,5.73675E0,3.1953198E2,1.7432632E0,1.934285E1,2.7405024E1,1.7166687E1,4.9706836E0,1.4208471E1,1.0814302E2,6.3856384E1,1.0656036E1,1.2383746E0,1.4929827E0,6.9792485E0,1.2380826E0,1.9947827E0,1.5428192E1,7.7160635E0,1.3162741E1,1.4949313E0,1.4951183E0,4.241632E0,8.226635E0,3.1130536E2,3.447424E0,1.5895426E1,4.7305484E0,2.2674475E1,8.714186E0,8.4525E0,2.2381048E0,2.7325788E0,6.980248E0,7.2282233E0,9.025484E1,1.7888184E1,3.577967E1,2.8076714E1,5.4555926E0,5.2004437E0,5.2365656E0,1.742683E0,6.220449E0,9.207744E0,3.9813926E0,3.734671E0,5.2198143E0,7.9429264E0,2.9941833E0,1.2474487E0,2.247057E0,5.9795775E0,7.752044E1,2.3378491E2],"tree_param":{"num_deleted":"0","num_feature":"50","num_nodes":"83","size_leaf_vector":"1"}},{"base_weights":[1.8079752E-3,7.8186244E-2,-1.6381794E-1,-2.3187073E-1,1.6483502E-1,-1.0147712E0,-1.2652366E-1,8.6018205E-1,-2.9941446E-1,3.107154E-1,4.39037E-3,-1.2383167E0,7.885112E-3,2.142948E-1,-1.9272166E-1,-7.062025E-3,6.9660604E-2,7.3878005E-2,-4.8814705E-1,-1.0270122E0,3.4633258E-1,-5.4278797E-1,9.395169E-2,-3.1936138E-3,-7.6650195E-2,-3.7937358E-1,5.535703E-1,-4.3120226E-1,-3.001321E-2,-4.3031296E-1,5.821514E-1,-6.1754495E-1,4.966297E-1,-1.2295638E-2,-6.106099E-2,1.0379944E0,2.8441933E-1,7.127546E-1,-7.229202E-1,4.7690913E-2,9.644402E-1,-6.9506943E-1,5.8004584E-2,7.897524E-1,-4.999881E-1,-4.7772664E-1,4.201897E-2,8.308421E-2,-6.1931837E-1,5.9308093E-3,-5.048877E-2,3.597395E-2,-2.3592612E-2,1.1401305E-2,-3.826881E-2,5.0703622E-2,-2.6613751E-2,6.0222235E-2,8.728618E-3,1.0938603E-2,3.8860787E-2,5.6398734E-3,4.972664E-2,-5.1193535E-2,-1.664482E-2,2.4007916E-2,-3.65588E-3,7.175767E-2,-3.5993014E-2,7.935048E-3,-5.5708557E-2,4.6512365E-2,-2.1889186E-2,-4.0705312E-2,8.805649E-3,-1.9702276E-2,-7.977434E-2,-1.9771336E-2,1.0204188E-2,-7.677355E-2,-1.4776717E-2],"categories":[],"categories_nodes":[],"categories_segments":[],"categories_sizes":[],"default_left":[0,0,0,0,0,0,0,0,0,0,0,0,0,0,0,0,0,0,0,0,0,0,0,0,0,0,0,0,0,0,0,0,0,0,0,0,0,0,0,0,0,0,0,0,0,0,0,0,0,0,0,0,0,0,0,0,0,0,0,0,0,0,0,0,0,0,0,0,0,0,0,0,0,0,0,0,0,0,0,0,0],"id":5,"left_children":[1,3,5,7,9,11,13,15,17,19,21,23,-1,25,27,-1,-1,29,31,33,35,37,39,-1,-1,41,43,45,47,49,51,53,55,-1,-1,57,59,61,63,65,67,69,-1,71,73,75,-1,77,79,-1,-1,-1,-1,-1,-1,-1,-1,-1,-1,-1,-1,-1,-1,-1,-1,-1,-1,-1,-1,-1,-1,-1,-1,-1,-1,-1,-1,-1,-1,-1,-1],"loss_changes":[8.235096E0,1.20074005E1,6.3919897E0,7.465864E0,8.162278E0,2.4189606E0,4.5079103E0,3.373056E0,6.5722466E0,9.0592575E0,8.2407255E0,2.4072628E0,0E0,6.7908196E0,6.440055E0,0E0,0E0,8.456926E0,8.175555E0,4.566002E-1,7.3564663E0,5.86484E0,5.7714663E0,0E0,0E0,6.869276E0,5.669464E0,4.387151E0,6.7117233E0,5.4161944E0,2.7092218E0,7.0528126E0,4.653053E0,0E0,0E0,1.8453093E0,5.18009E0,4.7466278E-1,2.145481E0,7.2567983E0,6.771438E0,4.1047597E0,0E0,3.460414E0,1.0978101E0,5.5101547E0,0E0,4.9860725E0,4.3542714E0,0E0,0E0,0E0,0E0,0E0,0E0,0E0,0E0,0E0,0E0,0E0,0E0,0E0,0E0,0E0,0E0,0E0,0E0,0E0,0E0,0E0,0E0,0E0,0E0,0E0,0E0,0E0,0E0,0E0,0E0,0E0,0E0],"parents":[2147483647,0,0,1,1,2,2,3,3,4,4,5,5,6,6,7,7,8,8,9,9,10,10,11,11,13,13,14,14,17,17,18,18,19,19,20,20,21,21,22,22,25,25,26,26,27,27,28,28,29,29,30,30,31,31,32,32,35,35,36,36,37,37,38,38,39,39,40,40,41,41,43,43,44,44,45,45,47,47,48,48],"right_children":[2,4,6,8,10,12,14,16,18,20,22,24,-1,26,28,-1,-1,30,32,34,36,38,40,-1,-1,42,44,46,48,50,52,54,56,-1,-1,58,60,62,64,66,68,70,-1,72,74,76,-1,78,80,-1,-1,-1,-1,-1,-1,-1,-1,-1,-1,-1,-1,-1,-1,-1,-1,-1,-1,-1,-1,-1,-1,-1,-1,-1,-1,-1,-1,-1,-1,-1,-1],"split_conditions":[2.414735E-1,1.3746766E-4,2.5039887E-1,6.8588636E-4,9.361042E-2,9.755514E-2,4.9128357E-2,7.725204E-4,3.9883318E-5,1.7857125E-3,9.78181E-2,3.474616E-2,7.885112E-3,3.8948067E-2,8.509193E-2,-7.062025E-3,6.9660604E-2,3.779107E-5,4.0635136E-3,8.330547E-4,3.0824656E-3,8.535874E-2,2.2841525E-1,-3.1936138E-3,-7.6650195E-2,4.468765E-1,4.528934E-1,7.4688387E-1,8.3979446E-1,2.5120182E-5,1.1139818E-4,3.0959844E-5,1.7635249E-4,-1.2295638E-2,-6.106099E-2,2.4974305E-4,8.2399555E-2,8.5651815E-2,9.522047E-2,1.1645252E-1,8.816435E-2,3.474616E-2,5.8004584E-2,8.378769E-2,6.4849004E-2,6.9815403E-1,4.201897E-2,3.1288674E-1,8.34031E-1,5.9308093E-3,-5.048877E-2,3.597395E-2,-2.3592612E-2,1.1401305E-2,-3.826881E-2,5.0703622E-2,-2.6613751E-2,6.0222235E-2,8.728618E-3,1.0938603E-2,3.8860787E-2,5.6398734E-3,4.972664E-2,-5.1193535E-2,-1.664482E-2,2.4007916E-2,-3.65588E-3,7.175767E-2,-3.5993014E-2,7.935048E-3,-5.5708557E-2,4.6512365E-2,-2.1889186E-2,-4.0705312E-2,8.805649E-3,-1.9702276E-2,-7.977434E-2,-1.9771336E-2,1.0204188E-2,-7.677355E-2,-1.4776717E-2],"split_indices":[6,39,7,48,48,14,39,32,29,2,3,29,0,29,49,0,0,39,18,32,46,13,20,0,0,23,37,27,16,39,14,19,14,0,0,39,37,18,21,11,4,19,0,29,49,21,0,16,27,0,0,0,0,0,0,0,0,0,0,0,0,0,0,0,0,0,0,0,0,0,0,0,0,0,0,0,0,0,0,0,0],"split_type":[0,0,0,0,0,0,0,0,0,0,0,0,0,0,0,0,0,0,0,0,0,0,0,0,0,0,0,0,0,0,0,0,0,0,0,0,0,0,0,0,0,0,0,0,0,0,0,0,0,0,0,0,0,0,0,0,0,0,0,0,0,0,0,0,0,0,0,0,0,0,0,0,0,0,0,0,0,0,0,0,0],"sum_hessian":[6.489719E2,4.4451303E2,2.0445892E2,9.672482E1,3.477882E2,7.484031E0,1.9697488E2,4.9504447E0,9.1774376E1,1.8167137E2,1.6611684E2,6.2384434E0,1.2455878E0,3.1672546E1,1.6530234E2,1.9749881E0,2.9754567E0,3.1022942E1,6.0751434E1,3.989693E0,1.7768169E2,2.2653555E1,1.4346329E2,1.4954065E0,4.7430367E0,1.1475096E1,2.0197453E1,6.637169E1,9.893066E1,1.5651017E1,1.5371924E1,5.402549E1,6.7259445E0,1.245709E0,2.743984E0,1.3302942E1,1.6437874E2,2.4713206E0,2.0182234E1,1.3722543E2,6.2378488E0,9.97752E0,1.4975759E0,1.670336E1,3.4940917E0,6.463127E1,1.7404114E0,8.372202E1,1.5208629E1,8.44567E0,7.205347E0,1.3880765E1,1.4911596E0,7.9589686E0,4.606652E1,4.4848833E0,2.241061E0,1.0821761E1,2.4811811E0,1.4632957E2,1.8049173E1,1.2372645E0,1.234056E0,1.0474636E1,9.707598E0,2.9313854E1,1.0791158E2,4.9909472E0,1.2469014E0,3.4897428E0,6.4877768E0,1.5205259E1,1.4981008E0,2.246325E0,1.2477669E0,6.1387993E1,3.2432811E0,1.6439913E1,6.728211E1,2.9942055E0,1.2214423E1],"tree_param":{"num_deleted":"0","num_feature":"50","num_nodes":"81","size_leaf_vector":"1"}},{"base_weights":[-1.3873944E-3,5.506139E-2,-1.48529E-1,3.9258186E-2,6.1294224E-2,-7.1406865E-1,-6.63445E-2,-1.1718585E-1,1.14736184E-1,3.84618E-1,-9.336863E-1,-3.7739545E-1,2.7400404E-2,-2.8571993E-2,-5.42707E-1,4.3199706E-1,-1.942378E-4,-2.959587E-2,6.1010074E-2,6.043891E-3,-1.0459361E0,3.1156662E-1,-7.236779E-1,1.3093969E-1,-4.5951608E-1,-1.1103452E-1,6.618742E-1,-1.3317143E0,-2.939578E-1,3.5688353E-1,1.1767704E0,-7.215122E-1,4.836428E-2,-1.4844313E0,-5.685679E-1,-5.532012E-1,9.2204714E-1,-1.1300188E0,-3.1605232E-1,-7.4299145E-3,6.914937E-1,2.8768048E-2,-5.932391E-1,-2.3804277E-3,-3.593048E-2,4.4904914E-2,-6.872582E-3,-1.636611E-2,-7.630242E-2,1.4791562E-2,-2.9452136E-2,4.2659897E-2,1.046365E-2,1.0967246E-2,7.494997E-2,-7.549587E-3,-6.073114E-2,5.8550686E-3,-1.7058974E-2,-8.791997E-2,-1.9762862E-2,-6.706436E-2,1.4058533E-4,3.0946434E-2,-4.9600855E-2,6.4245604E-2,-1.1907444E-2,-6.5064184E-2,9.523021E-3,1.8176656E-2,-4.440517E-2,7.46746E-3,-1.515867E-2,4.9640518E-2,-1.7834833E-2,-6.5965734E-2,-1.4612086E-2],"categories":[],"categories_nodes":[],"categories_segments":[],"categories_sizes":[],"default_left":[0,0,0,0,0,0,0,0,0,0,0,0,0,0,0,0,0,0,0,0,0,0,0,0,0,0,0,0,0,0,0,0,0,0,0,0,0,0,0,0,0,0,0,0,0,0,0,0,0,0,0,0,0,0,0,0,0,0,0,0,0,0,0,0,0,0,0,0,0,0,0,0,0,0,0,0,0],"id":6,"left_children":[1,3,5,7,-1,9,11,13,15,17,19,21,23,25,27,29,31,-1,-1,-1,33,35,37,39,41,43,45,47,49,51,53,55,57,59,61,63,65,67,69,71,73,-1,75,-1,-1,-1,-1,-1,-1,-1,-1,-1,-1,-1,-1,-1,-1,-1,-1,-1,-1,-1,-1,-1,-1,-1,-1,-1,-1,-1,-1,-1,-1,-1,-1,-1,-1],"loss_changes":[5.385174E0,8.622309E0,8.307765E0,5.4852495E0,0E0,5.8379335E0,4.6191936E0,5.689743E0,1.1416269E1,4.386737E0,2.401041E0,8.974371E0,6.2302337E0,7.263471E0,4.7158456E0,4.23775E0,8.120023E0,0E0,0E0,0E0,2.8129692E0,7.3548136E0,3.735035E0,7.8935823E0,3.3419232E0,4.3459907E0,2.6945734E0,6.6269875E-1,3.8409264E0,5.467436E0,1.8901443E0,3.9302254E0,5.8559694E0,1.8369446E0,4.4124174E0,3.6950881E0,3.6634712E0,2.9580946E0,5.6573095E0,3.8731773E0,6.7167635E0,0E0,3.9184728E0,0E0,0E0,0E0,0E0,0E0,0E0,0E0,0E0,0E0,0E0,0E0,0E0,0E0,0E0,0E0,0E0,0E0,0E0,0E0,0E0,0E0,0E0,0E0,0E0,0E0,0E0,0E0,0E0,0E0,0E0,0E0,0E0,0E0,0E0],"parents":[2147483647,0,0,1,1,2,2,3,3,5,5,6,6,7,7,8,8,9,9,10,10,11,11,12,12,13,13,14,14,15,15,16,16,20,20,21,21,22,22,23,23,24,24,25,25,26,26,27,27,28,28,29,29,30,30,31,31,32,32,33,33,34,34,35,35,36,36,37,37,38,38,39,39,40,40,42,42],"right_children":[2,4,6,8,-1,10,12,14,16,18,20,22,24,26,28,30,32,-1,-1,-1,34,36,38,40,42,44,46,48,50,52,54,56,58,60,62,64,66,68,70,72,74,-1,76,-1,-1,-1,-1,-1,-1,-1,-1,-1,-1,-1,-1,-1,-1,-1,-1,-1,-1,-1,-1,-1,-1,-1,-1,-1,-1,-1,-1,-1,-1,-1,-1,-1,-1],"split_conditions":[2.8498536E-1,1.4536105E-1,3.2370046E-1,8.199599E-3,6.1294224E-2,2.8456488E-1,5.4491695E-2,5.9586824E-3,1.1063092E-2,2.8153178E-1,2.8205836E-1,4.0009344E-1,1.6346885E-1,4.1136644E-3,6.4079817E-3,9.433578E-2,1.2372266E-2,-2.959587E-2,6.1010074E-2,6.043891E-3,3.0308798E-1,3.859937E-1,4.3921056E-1,1.22037455E-1,4.7971758E-1,1.9506678E-4,2.3376926E-4,5.422433E-3,1.6395286E-4,5.052297E-4,8.984378E-3,1.2330466E-2,9.554394E-2,1.1020237E-1,7.5268716E-2,3.445608E-1,4.057604E-1,4.4294047E-1,4.528934E-1,6.4953E-1,8.551433E-1,2.8768048E-2,1.5917876E-1,-2.3804277E-3,-3.593048E-2,4.4904914E-2,-6.872582E-3,-1.636611E-2,-7.630242E-2,1.4791562E-2,-2.9452136E-2,4.2659897E-2,1.046365E-2,1.0967246E-2,7.494997E-2,-7.549587E-3,-6.073114E-2,5.8550686E-3,-1.7058974E-2,-8.791997E-2,-1.9762862E-2,-6.706436E-2,1.4058533E-4,3.0946434E-2,-4.9600855E-2,6.4245604E-2,-1.1907444E-2,-6.5064184E-2,9.523021E-3,1.8176656E-2,-4.440517E-2,7.46746E-3,-1.515867E-2,4.9640518E-2,-1.7834833E-2,-6.5965734E-2,-1.4612086E-2],"split_indices":[43,24,12,32,0,27,24,48,44,0,18,48,24,42,22,46,44,0,0,0,23,32,27,44,48,49,29,41,14,19,44,24,24,49,44,12,21,43,37,28,48,0,19,0,0,0,0,0,0,0,0,0,0,0,0,0,0,0,0,0,0,0,0,0,0,0,0,0,0,0,0,0,0,0,0,0,0],"split_type":[0,0,0,0,0,0,0,0,0,0,0,0,0,0,0,0,0,0,0,0,0,0,0,0,0,0,0,0,0,0,0,0,0,0,0,0,0,0,0,0,0,0,0,0,0,0,0,0,0,0,0,0,0,0,0,0,0,0,0,0,0,0,0,0,0,0,0,0,0,0,0,0,0,0,0,0,0],"sum_hessian":[6.463656E2,4.6760236E2,1.7876321E2,4.623947E2,5.2076507E0,2.1706278E1,1.5705695E2,1.5030447E2,3.1209024E2,3.49091E0,1.8215366E1,3.5671406E1,1.2138554E2,1.2528194E2,2.5022545E1,8.225894E1,2.298313E2,1.7441531E0,1.746757E0,1.7449594E0,1.6470407E1,1.1965384E1,2.3706024E1,1.0070287E2,2.0682657E1,1.1266511E2,1.2616824E1,4.9543166E0,2.006823E1,7.60665E1,6.192443E0,1.3622073E1,2.1620923E2,7.485162E0,8.985246E0,4.9902873E0,6.975096E0,1.09842205E1,1.2721804E1,8.155759E1,1.9145287E1,1.9887986E0,1.869386E1,1.02991936E2,9.673174E0,9.64336E0,2.9734645E0,1.2383552E0,3.7159617E0,6.6914454E0,1.3376783E1,1.6341387E1,5.972511E1,1.9825342E0,4.209909E0,6.920906E0,6.701167E0,1.8437471E2,3.1834518E1,5.4898295E0,1.9953321E0,3.2468436E0,5.7384024E0,1.247531E0,3.7427564E0,5.2314143E0,1.7436819E0,9.736007E0,1.2482138E0,5.981001E0,6.7408023E0,5.362499E1,2.79326E1,1.4911583E1,4.2337036E0,4.487009E0,1.420685E1],"tree_param":{"num_deleted":"0","num_feature":"50","num_nodes":"77","size_leaf_vector":"1"}},{"base_weights":[-2.6452791E-2,-1.4151324E-2,-7.3043823E-1,6.588985E-1,-2.4618343E-2,-9.627726E-1,3.1255603E-2,-2.4993477E-2,9.223579E-1,-6.3888505E-2,1.4992687E-1,-1.3304291E0,-1.5050867E-1,1.2290394E0,-2.237625E-3,5.4500047E-2,-1.8482347E-1,3.2312503E-1,-1.3334972E-1,-1.23371715E-2,-8.298505E-2,5.1203128E-2,-4.892709E-2,6.270086E-3,7.335941E-2,2.8268874E-3,8.7378085E-1,5.219884E-2,-2.020199E-1,1.4830846E-1,1.0559329E0,-1.1268014E0,5.4959297E-2,-1.5308448E-3,5.1516153E-2,5.3078026E-2,-5.431786E-4,-4.6141267E-2,-7.8627905E-3,2.9834718E-2,-8.53026E-3,-1.9700455E-2,6.662064E-2,8.949054E-3,-7.14521E-2,5.2938063E-2,-5.768682E-3],"categories":[],"categories_nodes":[],"categories_segments":[],"categories_sizes":[],"default_left":[0,0,0,0,0,0,0,0,0,0,0,0,0,0,0,0,0,0,0,0,0,0,0,0,0,0,0,0,0,0,0,0,0,0,0,0,0,0,0,0,0,0,0,0,0,0,0],"id":7,"left_children":[1,3,5,7,9,11,-1,-1,13,15,17,19,21,23,-1,25,27,29,31,-1,-1,-1,-1,-1,-1,33,35,-1,37,39,41,43,45,-1,-1,-1,-1,-1,-1,-1,-1,-1,-1,-1,-1,-1,-1],"loss_changes":[5.656714E0,4.5542936E0,4.135065E0,3.4835706E0,4.363989E0,2.7774038E0,0E0,0E0,2.5517297E0,7.4449916E0,5.7822337E0,1.9942303E0,5.1204247E0,1.5050554E0,0E0,1.1139322E1,5.6439466E0,9.180325E0,8.497403E0,0E0,0E0,0E0,0E0,0E0,0E0,8.573297E0,2.6048412E0,0E0,8.063474E0,8.682896E0,6.087061E0,3.1098032E0,6.7663836E0,0E0,0E0,0E0,0E0,0E0,0E0,0E0,0E0,0E0,0E0,0E0,0E0,0E0,0E0],"parents":[2147483647,0,0,1,1,2,2,3,3,4,4,5,5,8,8,9,9,10,10,11,11,12,12,13,13,15,15,16,16,17,17,18,18,25,25,26,26,28,28,29,29,30,30,31,31,32,32],"right_children":[2,4,6,8,10,12,-1,-1,14,16,18,20,22,24,-1,26,28,30,32,-1,-1,-1,-1,-1,-1,34,36,-1,38,40,42,44,46,-1,-1,-1,-1,-1,-1,-1,-1,-1,-1,-1,-1,-1,-1],"split_conditions":[1.972732E-1,2.9655316E-4,2.2356652E-1,2.6478734E-5,9.043242E-2,7.0510554E-1,3.1255603E-2,-2.4993477E-2,5.4989225E-5,9.211803E-2,5.503399E-1,1.4912696E-1,1.7493199E-1,6.8588636E-4,-2.237625E-3,2.632321E-2,8.918866E-2,1.3607307E-1,5.9101796E-1,-1.23371715E-2,-8.298505E-2,5.1203128E-2,-4.892709E-2,6.270086E-3,7.335941E-2,9.071302E-2,4.7636006E-2,5.219884E-2,9.597641E-2,1.056973E-1,9.831594E-2,8.816435E-2,6.346288E-1,-1.5308448E-3,5.1516153E-2,5.3078026E-2,-5.431786E-4,-4.6141267E-2,-7.8627905E-3,2.9834718E-2,-8.53026E-3,-1.9700455E-2,6.662064E-2,8.949054E-3,-7.14521E-2,5.2938063E-2,-5.768682E-3],"split_indices":[9,46,39,4,9,37,0,0,24,48,41,34,39,43,0,34,25,24,25,0,0,0,0,0,0,40,39,0,20,9,34,49,27,0,0,0,0,0,0,0,0,0,0,0,0,0,0],"split_type":[0,0,0,0,0,0,0,0,0,0,0,0,0,0,0,0,0,0,0,0,0,0,0,0,0,0,0,0,0,0,0,0,0,0,0,0,0,0,0,0,0,0,0,0,0,0,0],"sum_hessian":[6.533897E2,6.43171E2,1.0218692E1,8.900516E0,6.342705E2,8.970884E0,1.247808E0,1.4825442E0,7.417971E0,5.182955E2,1.1597505E2,5.736455E0,3.234429E0,5.426372E0,1.9915993E0,2.6218268E2,2.561128E2,7.1883865E1,4.4091187E1,1.744475E0,3.99198E0,1.2394783E0,1.9949504E0,1.234052E0,4.19232E0,2.4757146E2,1.461122E1,2.7106364E0,2.5340216E2,5.9009186E1,1.287468E1,6.231613E0,3.7859573E1,2.4070694E2,6.8645234E0,1.1887852E1,2.7233686E0,1.3669897E1,2.3973225E2,2.4164036E1,3.484515E1,1.9937539E0,1.0880926E1,1.2479334E0,4.98368E0,4.73566E0,3.3123913E1],"tree_param":{"num_deleted":"0","num_feature":"50","num_nodes":"47","size_leaf_vector":"1"}},{"base_weights":[-1.1037607E-2,1.00243926E-1,-9.1950044E-2,-2.1276459E-1,2.5260088E-1,-1.0894449E0,-7.8553244E-2,3.199758E-2,-1.0362501E0,2.0076077E-1,1.1384808E0,8.045762E-3,-7.744319E-2,7.454371E-1,-9.4266675E-2,6.0596623E-2,-1.9190658E-2,-1.1234115E0,9.418096E-3,-7.6582175E-1,2.3447663E-1,-6.2801405E-3,1.3702663E0,-1.6308112E-2,1.1433309E0,-6.2398785E-1,-6.563389E-2,3.0521277E-1,-2.3919292E-1,-1.3579388E-1,-1.2748777E0,2.2668976E-2,-6.692367E-2,5.2424854E-1,8.3010696E-2,1.603416E-2,7.714427E-2,6.89407E-2,9.687174E-3,3.1792313E-1,-8.95958E-1,7.33408E-1,-9.517227E-2,-3.7655618E-2,2.0659424E-2,-2.7346034E-2,9.072269E-3,3.1672083E-2,-3.8646847E-2,-7.86076E-2,-3.5829257E-2,4.299238E-2,1.4934962E-2,-4.6963902E-4,3.2012004E-2,-2.4556158E-2,5.798636E-2,-5.7930853E-2,2.0521998E-3,2.0743966E-2,6.92581E-2,-4.524272E-2,-3.1802417E-3],"categories":[],"categories_nodes":[],"categories_segments":[],"categories_sizes":[],"default_left":[0,0,0,0,0,0,0,0,0,0,0,0,0,0,0,0,0,0,0,0,0,0,0,0,0,0,0,0,0,0,0,0,0,0,0,0,0,0,0,0,0,0,0,0,0,0,0,0,0,0,0,0,0,0,0,0,0,0,0,0,0,0,0],"id":8,"left_children":[1,3,5,7,9,11,13,15,17,19,21,-1,-1,23,25,-1,27,29,-1,31,33,-1,35,-1,37,39,41,43,45,47,49,-1,-1,51,53,-1,-1,-1,-1,55,57,59,61,-1,-1,-1,-1,-1,-1,-1,-1,-1,-1,-1,-1,-1,-1,-1,-1,-1,-1,-1,-1],"loss_changes":[5.922462E0,1.32616005E1,5.00278E0,1.8418612E1,8.347369E0,3.1033187E0,4.949027E0,4.3288865E0,2.4456482E0,5.9684367E0,3.1341696E0,0E0,0E0,3.4272738E0,5.5807023E0,0E0,5.019417E0,2.7712517E0,0E0,4.9506383E0,7.5236607E0,0E0,1.0682545E0,0E0,9.5059824E-1,5.12372E0,8.395591E0,3.5619557E0,5.517646E0,2.3209076E0,1.6859379E0,0E0,0E0,4.2088146E0,5.897191E0,0E0,0E0,0E0,0E0,3.954577E0,3.7192907E0,2.0598497E0,8.659842E0,0E0,0E0,0E0,0E0,0E0,0E0,0E0,0E0,0E0,0E0,0E0,0E0,0E0,0E0,0E0,0E0,0E0,0E0,0E0,0E0],"parents":[2147483647,0,0,1,1,2,2,3,3,4,4,5,5,6,6,7,7,8,8,9,9,10,10,13,13,14,14,16,16,17,17,19,19,20,20,22,22,24,24,25,25,26,26,27,27,28,28,29,29,30,30,33,33,34,34,39,39,40,40,41,41,42,42],"right_children":[2,4,6,8,10,12,14,16,18,20,22,-1,-1,24,26,-1,28,30,-1,32,34,-1,36,-1,38,40,42,44,46,48,50,-1,-1,52,54,-1,-1,-1,-1,56,58,60,62,-1,-1,-1,-1,-1,-1,-1,-1,-1,-1,-1,-1,-1,-1,-1,-1,-1,-1,-1,-1],"split_conditions":[9.308109E-2,1.2350034E-4,9.22491E-2,2.804691E-3,9.022133E-2,9.349023E-2,1.0565774E-2,6.1326276E-4,6.616876E-3,2.1729602E-3,9.093309E-2,8.045762E-3,-7.744319E-2,9.741098E-3,1.4345385E-2,6.0596623E-2,3.9883318E-5,2.5120182E-5,9.418096E-3,6.3499545E-5,2.906167E-4,-6.2801405E-3,1.0715961E-2,-1.6308112E-2,1.3325902E-2,1.1253284E-2,1.8513208E-2,7.014252E-4,1.3852323E-3,2.5273012E-3,1.2655395E-4,2.2668976E-2,-6.692367E-2,1.6299522E-4,2.632321E-2,1.603416E-2,7.714427E-2,6.89407E-2,9.687174E-3,1.1529782E-2,1.5434753E-2,1.8900266E-2,2.2520686E-2,-3.7655618E-2,2.0659424E-2,-2.7346034E-2,9.072269E-3,3.1672083E-2,-3.8646847E-2,-7.86076E-2,-3.5829257E-2,4.299238E-2,1.4934962E-2,-4.6963902E-4,3.2012004E-2,-2.4556158E-2,5.798636E-2,-5.7930853E-2,2.0521998E-3,2.0743966E-2,6.92581E-2,-4.524272E-2,-3.1802417E-3],"split_indices":[37,39,36,40,31,17,19,48,27,13,32,0,0,29,29,0,29,49,0,14,19,0,49,0,29,4,14,5,42,31,9,0,0,4,34,0,0,0,0,9,9,49,9,0,0,0,0,0,0,0,0,0,0,0,0,0,0,0,0,0,0,0,0],"split_type":[0,0,0,0,0,0,0,0,0,0,0,0,0,0,0,0,0,0,0,0,0,0,0,0,0,0,0,0,0,0,0,0,0,0,0,0,0,0,0,0,0,0,0,0,0,0,0,0,0,0,0,0,0,0,0,0,0,0,0,0,0,0,0],"sum_hessian":[6.557309E2,2.7595795E2,3.7977295E2,9.021664E1,1.8574132E2,3.9684706E0,3.7580447E2,7.028668E1,1.9929958E1,1.7663176E2,9.109555E0,1.2409172E0,2.7275534E0,6.163429E0,3.6964105E2,1.9795805E0,6.83071E1,1.868285E1,1.2471074E0,5.2216277E0,1.7141013E2,1.4825134E0,7.627042E0,1.7176818E0,4.445747E0,1.7889183E1,3.5175186E2,2.7447372E1,4.0859726E1,2.7364788E0,1.5946371E1,1.7353244E0,3.4863033E0,5.7995964E1,1.1341417E2,1.4808315E0,6.1462107E0,3.200146E0,1.2456009E0,3.970216E0,1.3918966E1,1.1690249E1,3.400616E2,1.9879206E0,2.5459452E1,2.3423502E1,1.7436224E1,1.2423611E0,1.4941177E0,9.22065E0,6.725722E0,2.2180674E1,3.581529E1,9.8125496E1,1.5288676E1,2.236923E0,1.7332932E0,1.0686755E1,3.2322109E0,8.951825E0,2.7384243E0,1.1722548E1,3.2833908E2],"tree_param":{"num_deleted":"0","num_feature":"50","num_nodes":"63","size_leaf_vector":"1"}},{"base_weights":[1.5454285E-2,1.3268097E-1,-1.04535185E-1,1.0475786E-1,9.672183E-1,-1.2694731E0,-8.4677786E-2,9.360251E-2,5.100123E-2,1.1769745E0,-1.6122138E-2,-7.639059E-2,-1.227541E-2,-7.230238E-2,-5.799979E-2,1.120788E-1,-6.834215E-2,-6.691664E-3,7.2353415E-2,-2.076486E-1,2.2072498E-2,-3.0574994E-2,1.869469E-1,-3.937812E-2,-6.5734833E-1,5.517601E-1,-5.406656E-2,1.4832183E-2,-9.762685E-3,3.0681029E-2,6.4378045E-3,-7.2414093E-3,2.1954678E-2,-3.876537E-2,2.2187214E-2,4.0813398E-2,-3.6639515E-2,3.1716738E-2,-4.579042E-3],"categories":[],"categories_nodes":[],"categories_segments":[],"categories_sizes":[],"default_left":[0,0,0,0,0,0,0,0,0,0,0,0,0,0,0,0,0,0,0,0,0,0,0,0,0,0,0,0,0,0,0,0,0,0,0,0,0,0,0],"id":9,"left_children":[1,3,5,7,9,11,13,15,-1,17,-1,-1,-1,19,-1,21,-1,-1,-1,23,25,27,29,31,33,35,37,-1,-1,-1,-1,-1,-1,-1,-1,-1,-1,-1,-1],"loss_changes":[9.028833E0,7.4633946E0,7.23203E0,3.1231332E0,3.1897898E0,1.0126867E0,4.081828E0,8.586717E0,0E0,3.4332867E0,0E0,0E0,0E0,3.9711838E0,0E0,3.3119054E0,0E0,0E0,0E0,9.635267E0,7.4451327E0,5.8456216E0,4.965036E0,4.8049264E0,4.8511353E0,8.479933E0,4.2331715E0,0E0,0E0,0E0,0E0,0E0,0E0,0E0,0E0,0E0,0E0,0E0,0E0],"parents":[2147483647,0,0,1,1,2,2,3,3,4,4,5,5,6,6,7,7,9,9,13,13,15,15,19,19,20,20,21,21,22,22,23,23,24,24,25,25,26,26],"right_children":[2,4,6,8,10,12,14,16,-1,18,-1,-1,-1,20,-1,22,-1,-1,-1,24,26,28,30,32,34,36,38,-1,-1,-1,-1,-1,-1,-1,-1,-1,-1,-1,-1],"split_conditions":[1.1645252E-1,1.1209879E-1,1.1854284E-1,1.17486574E-1,1.0361869E-1,1.1738442E-1,2.510289E-1,1.0968946E-1,5.100123E-2,1.5091567E-2,-1.6122138E-2,-7.639059E-2,-1.227541E-2,6.4849004E-2,-5.799979E-2,1.525807E-4,-6.834215E-2,-6.691664E-3,7.2353415E-2,5.821856E-2,7.1908146E-2,4.2020587E-5,1.8840763E-4,5.0654158E-2,7.828709E-2,9.918231E-2,5.1239166E-2,1.4832183E-2,-9.762685E-3,3.0681029E-2,6.4378045E-3,-7.2414093E-3,2.1954678E-2,-3.876537E-2,2.2187214E-2,4.0813398E-2,-3.6639515E-2,3.1716738E-2,-4.579042E-3],"split_indices":[11,6,13,36,29,16,39,18,0,14,0,0,0,49,0,39,0,0,0,14,49,29,34,14,44,34,39,0,0,0,0,0,0,0,0,0,0,0,0],"split_type":[0,0,0,0,0,0,0,0,0,0,0,0,0,0,0,0,0,0,0,0,0,0,0,0,0,0,0,0,0,0,0,0,0,0,0,0,0,0,0],"sum_hessian":[6.39906E2,3.2362592E2,3.1628012E2,3.1423724E2,9.388658E0,4.2462063E0,3.120339E2,3.1154242E2,2.6948385E0,8.150414E0,1.2382436E0,2.9978235E0,1.2483829E0,3.095388E2,2.495121E0,3.08562E2,2.9804013E0,1.4786731E0,6.6717415E0,1.26672775E2,1.8286601E2,1.064065E2,2.021555E2,9.297178E1,3.3700996E1,2.219715E1,1.6066887E2,3.5354774E1,7.105173E1,2.3116072E1,1.7903943E2,7.675345E1,1.621833E1,3.0707233E1,2.9937642E0,1.87092E1,3.48795E0,7.4809756E0,1.531879E2],"tree_param":{"num_deleted":"0","num_feature":"50","num_nodes":"39","size_leaf_vector":"1"}},{"base_weights":[-1.0039708E-2,5.6377994E-3,-6.1553574E-1,-1.9942087E-3,6.0872495E-2,-6.763087E-2,-2.9188225E-1,1.0070862E-1,-8.243888E-2,-8.90465E-1,2.4578613E-1,4.7369253E-2,8.033202E-1,-6.4448565E-1,-5.294266E-2,-1.1301394E0,-8.607934E-3,4.6954058E-2,-1.7755362E-1,-1.01360366E-1,1.5437567E-1,1.0716286E0,2.6551634E-1,2.3952635E-2,-8.1504977E-1,9.3038607E-1,-6.809279E-2,-1.0512796E-2,-7.0942916E-2,5.418672E-1,-4.783443E-2,1.4370838E-2,-1.2655988E-2,1.5196348E-2,-5.810574E-3,4.982938E-3,5.8361154E-2,3.9032597E-2,-4.2403933E-2,-4.7826897E-2,1.5978878E-2,7.0675253E-3,6.428683E-2,-4.1645974E-2,-2.6417242E-3,-1.0634152E-2,5.281533E-2],"categories":[],"categories_nodes":[],"categories_segments":[],"categories_sizes":[],"default_left":[0,0,0,0,0,0,0,0,0,0,0,0,0,0,0,0,0,0,0,0,0,0,0,0,0,0,0,0,0,0,0,0,0,0,0,0,0,0,0,0,0,0,0,0,0,0,0],"id":10,"left_children":[1,3,5,7,-1,-1,9,11,13,15,17,19,21,23,25,27,-1,-1,29,31,33,35,37,-1,39,41,43,-1,-1,45,-1,-1,-1,-1,-1,-1,-1,-1,-1,-1,-1,-1,-1,-1,-1,-1,-1],"loss_changes":[6.1883965E0,5.8853865E0,3.53025E0,5.239006E0,0E0,0E0,4.3088346E0,1.040055E1,5.86073E0,8.779454E-1,2.36164E0,4.1526637E0,2.542327E0,3.771037E0,5.11268E0,8.945451E-1,0E0,0E0,3.5924165E0,6.5256915E0,6.1689806E0,1.0674677E0,5.1651917E0,0E0,2.8238344E0,1.2793288E0,3.8622274E0,0E0,0E0,1.5792783E0,0E0,0E0,0E0,0E0,0E0,0E0,0E0,0E0,0E0,0E0,0E0,0E0,0E0,0E0,0E0,0E0,0E0],"parents":[2147483647,0,0,1,1,2,2,3,3,6,6,7,7,8,8,9,9,10,10,11,11,12,12,13,13,14,14,15,15,18,18,19,19,20,20,21,21,22,22,24,24,25,25,26,26,29,29],"right_children":[2,4,6,8,-1,-1,10,12,14,16,18,20,22,24,26,28,-1,-1,30,32,34,36,38,-1,40,42,44,-1,-1,46,-1,-1,-1,-1,-1,-1,-1,-1,-1,-1,-1,-1,-1,-1,-1,-1,-1],"split_conditions":[8.47272E-1,8.47272E-1,1.0223717E-1,9.361042E-2,6.0872495E-2,-6.763087E-2,8.620989E-1,8.333917E-2,9.56604E-2,1.5917876E-1,8.551433E-1,1.525807E-4,9.52282E-2,8.535874E-2,1.15634035E-2,1.22037455E-1,-8.607934E-3,4.6954058E-2,1.2925076E-1,9.600419E-4,3.9833523E-3,7.880766E-2,1.3321634E-2,2.3952635E-2,1.0736899E-1,1.2160078E-2,1.3796509E-2,-1.0512796E-2,-7.0942916E-2,9.355912E-1,-4.783443E-2,1.4370838E-2,-1.2655988E-2,1.5196348E-2,-5.810574E-3,4.982938E-3,5.8361154E-2,3.9032597E-2,-4.2403933E-2,-4.7826897E-2,1.5978878E-2,7.0675253E-3,6.428683E-2,-4.1645974E-2,-2.6417242E-3,-1.0634152E-2,5.281533E-2],"split_indices":[48,43,29,48,0,0,42,40,1,14,13,39,3,13,24,49,0,0,29,28,49,22,24,0,27,49,24,0,0,23,0,0,0,0,0,0,0,0,0,0,0,0,0,0,0,0,0],"split_type":[0,0,0,0,0,0,0,0,0,0,0,0,0,0,0,0,0,0,0,0,0,0,0,0,0,0,0,0,0,0,0,0,0,0,0,0,0,0,0,0,0,0,0,0,0,0,0],"sum_hessian":[6.505477E2,6.3509454E2,1.5453182E1,6.321118E2,2.982694E0,3.7450564E0,1.1708126E1,2.7753458E2,3.5457727E2,5.229735E0,6.478391E0,2.5894403E2,1.8590542E1,1.6640717E1,3.3793655E2,3.4914265E0,1.7383084E0,1.9942232E0,4.4841676E0,1.08370804E2,1.5057323E2,1.17406E1,6.849942E0,1.9548849E0,1.4685832E1,4.210952E0,3.337256E2,1.246908E0,2.2445185E0,2.489757E0,1.9944109E0,3.0174892E1,7.8195915E1,9.689626E1,5.367697E1,1.2342019E0,1.0506397E1,4.8878584E0,1.9620838E0,1.3197109E1,1.4887224E0,1.7416017E0,2.4693503E0,5.479437E0,3.2824615E2,1.2471223E0,1.2426347E0],"tree_param":{"num_deleted":"0","num_feature":"50","num_nodes":"47","size_leaf_vector":"1"}},{"base_weights":[9.015415E-3,1.6659481E-2,-7.182719E-2,2.6388822E-2,-1.0080113E0,1.211153E-1,-4.4341598E-2,-8.449865E-3,-6.4766176E-2,8.78352E-2,1.0563111E0,-7.3707294E-1,-2.0622618E-2,-7.3834896E-2,2.1491155E-1,6.694158E-2,3.7184075E-1,2.6227936E-2,-9.217222E-1,-3.5814412E-2,7.348827E-1,3.0459666E-3,-3.468449E-2,3.0785084E-2,4.652466E-3,-3.976901E-2,5.661078E-2,-1.567675E-2,-6.9868E-2,3.782093E-2,-2.4795232E-3,6.154659E-2,-2.622242E-2],"categories":[],"categories_nodes":[],"categories_segments":[],"categories_sizes":[],"default_left":[0,0,0,0,0,0,0,0,0,0,0,0,0,0,0,0,0,0,0,0,0,0,0,0,0,0,0,0,0,0,0,0,0],"id":11,"left_children":[1,3,-1,5,7,9,11,-1,-1,13,15,17,19,21,23,-1,25,-1,27,29,31,-1,-1,-1,-1,-1,-1,-1,-1,-1,-1,-1,-1],"loss_changes":[7.336378E0,6.5991096E0,0E0,4.387493E0,1.2820382E0,8.617485E0,6.1493635E0,0E0,0E0,5.5903144E0,1.3443375E0,3.3703456E0,4.2017074E0,1.0078852E1,7.3752418E0,0E0,4.599558E0,0E0,2.793867E0,3.9399981E0,5.1541996E0,0E0,0E0,0E0,0E0,0E0,0E0,0E0,0E0,0E0,0E0,0E0,0E0],"parents":[2147483647,0,0,1,1,3,3,4,4,5,5,6,6,9,9,10,10,11,11,12,12,13,13,14,14,16,16,18,18,19,19,20,20],"right_children":[2,4,-1,6,8,10,12,-1,-1,14,16,18,20,22,24,-1,26,-1,28,30,32,-1,-1,-1,-1,-1,-1,-1,-1,-1,-1,-1,-1],"split_conditions":[2.510289E-1,9.0839404E-1,-7.182719E-2,9.308109E-2,1.0223717E-1,9.022133E-2,9.326122E-2,-8.449865E-3,-6.4766176E-2,1.7351942E-4,9.72967E-2,8.702905E-2,8.7080973E-1,1.5658284E-4,2.453081E-4,6.694158E-2,9.340647E-2,2.6227936E-2,1.289114E-2,1.1063092E-2,1.6346885E-1,3.0459666E-3,-3.468449E-2,3.0785084E-2,4.652466E-3,-3.976901E-2,5.661078E-2,-1.567675E-2,-6.9868E-2,3.782093E-2,-2.4795232E-3,6.154659E-2,-2.622242E-2],"split_indices":[34,48,0,37,44,31,0,0,0,39,23,11,41,4,9,0,36,0,49,44,29,0,0,0,0,0,0,0,0,0,0,0,0],"split_type":[0,0,0,0,0,0,0,0,0,0,0,0,0,0,0,0,0,0,0,0,0,0,0,0,0,0,0,0,0,0,0,0,0],"sum_hessian":[6.6076276E2,6.582703E2,2.492436E0,6.530439E2,5.2264624E0,2.7886224E2,3.741816E2,1.7383378E0,3.4881244E0,2.7033594E2,8.526315E0,1.139207E1,3.6278955E2,1.1915833E2,1.511776E2,5.3585296E0,3.1677856E0,1.2194228E0,1.0172647E1,3.5657214E2,6.2174015E0,9.8620346E1,2.0537989E1,3.4303875E1,1.16873726E2,1.23143E0,1.9363556E0,5.192414E0,4.980233E0,5.173036E0,3.513991E2,4.476618E0,1.7407836E0],"tree_param":{"num_deleted":"0","num_feature":"50","num_nodes":"33","size_leaf_vector":"1"}},{"base_weights":[9.020792E-3,-6.226584E-1,2.7229197E-2,-7.323048E-1,1.8496504E-2,1.516916E-1,-5.9301697E-2,-3.2805815E-1,-1.294405E0,1.1587211E-1,1.1947572E0,-4.688782E-2,-6.0433008E-2,-9.764786E-1,3.9966378E-1,-7.2567396E-2,-2.225786E-2,8.880501E-2,1.0540241E0,6.83E-2,4.752697E-3,-7.843223E-2,4.4676885E-1,1.5556215E-3,-6.841894E-2,-2.1940513E-1,4.9530387E-2,1.09165736E-1,-8.8708276E-1,6.6812195E-2,1.4930318E-2,-4.2370763E-2,-6.400659E-1,6.4493734E-1,-3.8340598E-1,1.6471578E-2,-3.6504254E-2,4.3525137E-3,5.3327065E-2,-7.163523E-2,-9.968371E-3,-2.8826715E-3,6.620946E-2,-6.727394E-2,3.8894059E-3,1.2757937E-2,5.6788605E-2,-5.5057216E-2,7.576143E-3],"categories":[],"categories_nodes":[],"categories_segments":[],"categories_sizes":[],"default_left":[0,0,0,0,0,0,0,0,0,0,0,0,0,0,0,0,0,0,0,0,0,0,0,0,0,0,0,0,0,0,0,0,0,0,0,0,0,0,0,0,0,0,0,0,0,0,0,0,0],"id":12,"left_children":[1,3,5,7,-1,9,11,13,15,17,19,21,-1,23,25,-1,-1,27,29,-1,-1,31,33,-1,-1,35,-1,37,39,-1,-1,41,43,45,47,-1,-1,-1,-1,-1,-1,-1,-1,-1,-1,-1,-1,-1,-1],"loss_changes":[7.546281E0,2.271574E0,6.8719125E0,3.4131775E0,0E0,9.63618E0,5.3168845E0,5.6581492E0,2.5037575E-1,6.3572545E0,1.4856215E0,5.8532815E0,0E0,2.4884372E0,2.4013214E0,0E0,0E0,5.0247107E0,1.1001458E0,0E0,0E0,7.1029015E0,3.9637017E0,0E0,0E0,1.2871387E0,0E0,5.069724E0,1.6574025E0,0E0,0E0,7.0073967E0,1.0824435E1,3.2705708E0,2.0790398E0,0E0,0E0,0E0,0E0,0E0,0E0,0E0,0E0,0E0,0E0,0E0,0E0,0E0,0E0],"parents":[2147483647,0,0,1,1,2,2,3,3,5,5,6,6,7,7,8,8,9,9,10,10,11,11,13,13,14,14,17,17,18,18,21,21,22,22,25,25,27,27,28,28,31,31,32,32,33,33,34,34],"right_children":[2,4,6,8,-1,10,12,14,16,18,20,22,-1,24,26,-1,-1,28,30,-1,-1,32,34,-1,-1,36,-1,38,40,-1,-1,42,44,46,48,-1,-1,-1,-1,-1,-1,-1,-1,-1,-1,-1,-1,-1,-1],"split_conditions":[2.8828561E-5,2.9458487E-3,9.308109E-2,1.641135E-3,1.8496504E-2,3.738245E-2,2.510289E-1,5.014297E-4,3.9883318E-5,9.022133E-2,9.2333965E-2,1.5917876E-1,-6.0433008E-2,2.6478734E-5,2.6478734E-5,-7.2567396E-2,-2.225786E-2,2.8066434E-2,1.2134547E-2,6.83E-2,4.752697E-3,7.359241E-1,8.3979446E-1,1.5556215E-3,-6.841894E-2,5.277132E-5,4.9530387E-2,2.632321E-2,5.7916492E-2,6.6812195E-2,1.4930318E-2,1.8559249E-1,8.47272E-1,5.602954E-1,8.492038E-1,1.6471578E-2,-3.6504254E-2,4.3525137E-3,5.3327065E-2,-7.163523E-2,-9.968371E-3,-2.8826715E-3,6.620946E-2,-6.727394E-2,3.8894059E-3,1.2757937E-2,5.6788605E-2,-5.5057216E-2,7.576143E-3],"split_indices":[4,23,37,38,0,14,34,36,19,31,46,19,0,9,14,0,0,14,29,0,0,1,16,0,0,49,0,34,47,0,0,34,23,27,21,0,0,0,0,0,0,0,0,0,0,0,0,0,0],"split_type":[0,0,0,0,0,0,0,0,0,0,0,0,0,0,0,0,0,0,0,0,0,0,0,0,0,0,0,0,0,0,0,0,0,0,0,0,0,0,0,0,0,0,0,0,0,0,0,0,0],"sum_hessian":[6.5361755E2,1.7382826E1,6.362347E2,1.5889786E1,1.49304E0,2.606187E2,3.75616E2,1.01638565E1,5.7259297E0,2.5304024E2,7.5784636E0,3.726321E2,2.9838939E0,5.1940155E0,4.969841E0,4.2344193E0,1.4915105E0,2.4700833E2,6.031902E0,6.347841E0,1.2306225E0,3.5104184E2,2.1590279E1,1.7122823E0,3.481733E0,2.7342157E0,2.235625E0,2.4283011E2,4.178221E0,3.8315692E0,2.2003326E0,3.3087256E2,2.016928E1,1.7609821E1,3.9804564E0,1.4889407E0,1.245275E0,2.3841367E2,4.416451E0,1.7257549E0,2.4524665E0,3.2816043E2,2.7121096E0,9.731817E0,1.0437462E1,1.0662461E1,6.9473605E0,1.2477739E0,2.7326825E0],"tree_param":{"num_deleted":"0","num_feature":"50","num_nodes":"49","size_leaf_vector":"1"}},{"base_weights":[-7.1755885E-3,1.05885975E-1,-1.220394E-1,7.986847E-2,8.2874894E-1,-9.1856736E-1,-1.0026095E-1,-3.5192063E-1,1.07124455E-1,-1.5498407E-2,9.995663E-1,-1.2319418E0,1.6459318E-2,1.023453E0,-1.19716816E-1,1.3549191E-1,-7.69853E-1,1.2328267E-1,-6.7796195E-1,6.8897024E-2,1.3317288E-1,-1.948413E-2,-6.955049E-2,9.229982E-3,6.1296996E-2,-9.226441E-2,-6.322618E-1,7.098961E-1,-2.6116195E-1,-6.638143E-2,-2.6185575E-1,1.3675033E-1,-7.8369683E-1,-1.0001599E0,4.702387E-3,-4.657015E-2,5.3234514E-2,-1.2716141E-1,5.6718683E-1,5.817493E-1,-1.1667194E0,-1.450301E-2,6.124666E-2,-2.9578114E-2,3.1129152E-2,2.5842188E-2,-5.6353457E-2,5.9483224E-3,5.4620977E-2,-7.089893E-2,2.49307E-2,4.507232E-3,-7.208157E-2,-5.3613406E-2,-5.4453793E-3,4.805998E-2,-4.4423148E-2,-1.4869344E-2,5.3564977E-2,-6.810181E-2,1.0992199E-2],"categories":[],"categories_nodes":[],"categories_segments":[],"categories_sizes":[],"default_left":[0,0,0,0,0,0,0,0,0,0,0,0,0,0,0,0,0,0,0,0,0,0,0,0,0,0,0,0,0,0,0,0,0,0,0,0,0,0,0,0,0,0,0,0,0,0,0,0,0,0,0,0,0,0,0,0,0,0,0,0,0],"id":13,"left_children":[1,3,5,7,9,11,13,15,17,-1,19,21,-1,23,25,27,29,31,33,-1,35,-1,-1,-1,-1,37,39,41,43,-1,45,47,49,51,-1,-1,-1,53,55,57,59,-1,-1,-1,-1,-1,-1,-1,-1,-1,-1,-1,-1,-1,-1,-1,-1,-1,-1,-1,-1],"loss_changes":[8.46206E0,6.110202E0,5.5143695E0,3.7814236E0,2.5083804E0,3.7209244E0,7.0249114E0,3.9993544E0,3.889057E0,0E0,3.1160746E0,3.9414406E-1,0E0,7.041545E-1,4.320934E0,2.3902273E0,2.6116028E0,3.7078795E0,1.6371105E0,0E0,5.123471E0,0E0,0E0,0E0,0E0,6.8973703E0,1.0834175E1,2.529599E0,2.2531762E0,0E0,5.1043468E0,4.8211465E0,4.335923E0,2.2780504E0,0E0,0E0,0E0,4.7567725E0,9.508228E0,2.6648479E0,3.332652E0,0E0,0E0,0E0,0E0,0E0,0E0,0E0,0E0,0E0,0E0,0E0,0E0,0E0,0E0,0E0,0E0,0E0,0E0,0E0,0E0],"parents":[2147483647,0,0,1,1,2,2,3,3,4,4,5,5,6,6,7,7,8,8,10,10,11,11,13,13,14,14,15,15,16,16,17,17,18,18,20,20,25,25,26,26,27,27,28,28,30,30,31,31,32,32,33,33,37,37,38,38,39,39,40,40],"right_children":[2,4,6,8,10,12,14,16,18,-1,20,22,-1,24,26,28,30,32,34,-1,36,-1,-1,-1,-1,38,40,42,44,-1,46,48,50,52,-1,-1,-1,54,56,58,60,-1,-1,-1,-1,-1,-1,-1,-1,-1,-1,-1,-1,-1,-1,-1,-1,-1,-1,-1,-1],"split_conditions":[1.1645252E-1,1.0997842E-1,1.7529797E-2,2.8828561E-5,1.1619677E-2,1.8812278E-2,1.8108271E-2,3.500729E-5,9.918231E-2,-1.5498407E-2,7.012049E-2,1.31673375E-2,1.6459318E-2,1.2079327E-1,1.8559249E-1,2.0282621E-5,3.9883318E-5,1.1821104E-1,1.0048485E-1,6.8897024E-2,8.288366E-2,-1.948413E-2,-6.955049E-2,9.229982E-3,6.1296996E-2,1.5917876E-1,5.6914485E-1,1.4864657E-5,2.6478734E-5,-6.638143E-2,4.557225E-5,8.140401E-2,1.16628334E-1,8.491898E-2,4.702387E-3,-4.657015E-2,5.3234514E-2,1.1924818E-1,8.185566E-1,1.3893038E-1,8.5567075E-1,-1.450301E-2,6.124666E-2,-2.9578114E-2,3.1129152E-2,2.5842188E-2,-5.6353457E-2,5.9483224E-3,5.4620977E-2,-7.089893E-2,2.49307E-2,4.507232E-3,-7.208157E-2,-5.3613406E-2,-5.4453793E-3,4.805998E-2,-4.4423148E-2,-1.4869344E-2,5.3564977E-2,-6.810181E-2,1.0992199E-2],"split_indices":[11,11,34,4,39,39,19,14,14,0,14,39,0,17,24,4,19,48,21,0,14,0,0,0,0,19,41,4,4,0,29,44,33,0,0,0,0,10,17,34,30,0,0,0,0,0,0,0,0,0,0,0,0,0,0,0,0,0,0,0,0],"split_type":[0,0,0,0,0,0,0,0,0,0,0,0,0,0,0,0,0,0,0,0,0,0,0,0,0,0,0,0,0,0,0,0,0,0,0,0,0,0,0,0,0,0,0,0,0,0,0,0,0,0,0,0,0,0,0,0,0,0,0,0,0],"sum_hessian":[6.4960016E2,3.274077E2,3.2219244E2,3.171049E2,1.0302847E1,7.478937E0,3.147135E2,1.8120964E1,2.9898392E2,1.2376568E0,9.065189E0,5.987774E0,1.491163E0,4.4779215E0,3.102356E2,8.677111E0,9.443854E0,2.9378046E2,5.20346E0,5.8986707E0,3.1665187E0,1.4992234E0,4.4885507E0,1.2424437E0,3.2354777E0,2.9558383E2,1.4651743E1,3.221813E0,5.4552975E0,3.7323341E0,5.71152E0,2.9031876E2,3.4616904E0,3.462754E0,1.7407061E0,1.4777774E0,1.6887414E0,2.814948E2,1.4089042E1,4.4515767E0,1.0200166E1,1.2437876E0,1.9780253E0,4.211419E0,1.2438786E0,3.2179644E0,2.4935558E0,2.8611893E2,4.1998506E0,2.2452846E0,1.2164059E0,1.2273561E0,2.235398E0,4.2396846E0,2.7725513E2,1.1355131E1,2.7339103E0,1.7326348E0,2.718942E0,8.9562435E0,1.2439222E0],"tree_param":{"num_deleted":"0","num_feature":"50","num_nodes":"61","size_leaf_vector":"1"}}]},"name":"gbtree"},"learner_model_param":{"base_score":"[5.293219E-1]","boost_from_average":"1","num_class":"0","num_feature":"50","num_target":"1"},"objective":{"name":"binary:logistic","reg_loss_param":{"scale_pos_weight":"1"}}},"version":[3,1,2]}